-81 98 -76 
-83 11 1 
76 -81 -94 

106 34 97 
3 -67 47 
-121 -92 -82 

-125 91 83 
-38 -10 -13 
118 -23 20 

-98 38 120 
-26 1 -62 
-128 -66 18 

-62 -103 26 
89 9 -15 
-105 112 114 

-121 -76 72 
-23 -8 56 
-27 72 -76 

15 16 -23 
-32 -122 -38 
-104 79 -96 

-49 -25 10 
-63 34 80 
-40 -31 -15 


44 -106 -3 
-5 123 -114 
-39 -69 54 

3 -15 -88 
95 114 -59 
-116 33 -84 

-82 44 -109 
10 -101 124 
82 -75 -75 

28 115 -116 
-6 -39 80 
-48 72 -39 

-95 68 -100 
39 -122 -5 
-2 -37 46 

65 -104 -81 
-98 -55 61 
41 29 99 

-88 -66 64 
-35 -86 -57 
-60 60 -29 

63 -4 40 
65 -125 41 
-125 108 22 


-97 -69 -99 
87 116 124 
46 -14 -67 

127 -59 -18 
108 63 -89 
-75 -98 -101 

121 113 41 
15 -59 -92 
-67 -116 28 

-51 -72 -6 
-104 -90 -126 
-118 -113 -24 

-95 65 -113 
78 22 -36 
109 -114 82 

-89 86 -7 
117 -78 -119 
5 92 -106 

-106 -92 22 
-85 108 72 
-17 -29 -122 

127 -54 41 
33 -88 8 
-82 -28 -25 


-52 -74 -16 
62 -117 119 
-125 8 119 

-50 -127 64 
54 39 80 
-1 -38 -52 

-54 -99 -35 
65 13 109 
-89 81 -1 

-81 35 47 
113 -102 -122 
59 -10 -110 

-109 67 -108 
102 114 -113 
-100 52 -29 

59 118 31 
28 81 115 
2 102 -41 

-65 59 67 
-32 -5 -89 
7 74 13 

-118 23 -37 
-118 -34 -62 
-56 -108 -22 


-77 -53 -27 
53 106 27 
-104 11 -59 

-51 -22 -128 
-102 20 71 
115 -67 115 

49 111 8 
-99 124 13 
41 -69 17 

-79 -27 -126 
-79 57 60 
113 -119 87 

-83 107 49 
-20 53 -115 
-15 -10 44 

-90 48 -127 
-95 -37 -72 
-113 108 -70 

66 93 42 
114 -80 47 
25 62 -107 

-11 -54 -5 
42 -49 57 
70 -12 -123 


-49 -119 77 
88 -60 -69 
52 -73 71 

-78 113 77 
-38 -46 -9 
-18 -32 23 

-19 63 64 
56 -83 125 
-93 33 1 

-121 -78 -64 
12 122 -116 
25 -53 9 

-17 38 -123 
56 -71 -108 
21 -102 -94 

-127 -51 69 
4 -119 10 
-113 60 119 

40 124 -10 
30 101 122 
-64 82 100 

-87 -87 69 
-54 10 -98 
-10 -83 78 


-36 9 -116 
-85 53 -105 
-87 -56 2 

-83 -42 -125 
103 -52 -30 
-112 -23 -43 

2 77 -57 
35 84 -44 
7 42 81 

82 95 126 
38 -93 101 
112 -41 -49 

80 -85 -89 
-40 -54 -52 
-3 -57 25 

-119 -41 -11 
-89 -121 -62 
81 47 95 

-27 -1 57 
101 49 15 
-61 63 46 

-123 -95 115 
19 -126 89 
-65 -32 -65 


59 124 -115 
17 -108 -9 
51 -75 -14 

-26 48 -19 
-73 76 -114 
-126 51 62 

-64 -86 31 
21 -91 -3 
-29 -117 -98 

22 -103 -37 
-105 51 -126 
-33 -107 -18 

118 -15 -69 
62 86 9 
74 100 -62 

-66 49 -14 
-73 -4 70 
-101 80 125 

-107 74 121 
-102 -56 82 
-57 124 104 

120 110 109 
-4 107 -40 
71 -18 -35 


