-81 -83 76 
98 11 -81 
-76 1 -94 

106 3 -121 
34 -67 -92 
97 47 -82 

-125 -38 118 
91 -10 -23 
83 -13 20 

-98 -26 -128 
38 1 -66 
120 -62 18 

-62 89 -105 
-103 9 112 
26 -15 114 

-121 -23 -27 
-76 -8 72 
72 56 -76 

15 -32 -104 
16 -122 79 
-23 -38 -96 

-49 -63 -40 
-25 34 -31 
10 80 -15 


-81 -83 76 
98 11 -81 
-76 1 -94 

106 3 -121 
34 -67 -92 
97 47 -82 

-125 -38 118 
91 -10 -23 
83 -13 20 

-98 -26 -128 
38 1 -66 
120 -62 18 

-62 89 -105 
-103 9 112 
26 -15 114 

-121 -23 -27 
-76 -8 72 
72 56 -76 

15 -32 -104 
16 -122 79 
-23 -38 -96 

-49 -63 -40 
-25 34 -31 
10 80 -15 


-81 -83 76 
98 11 -81 
-76 1 -94 

106 3 -121 
34 -67 -92 
97 47 -82 

-125 -38 118 
91 -10 -23 
83 -13 20 

-98 -26 -128 
38 1 -66 
120 -62 18 

-62 89 -105 
-103 9 112 
26 -15 114 

-121 -23 -27 
-76 -8 72 
72 56 -76 

15 -32 -104 
16 -122 79 
-23 -38 -96 

-49 -63 -40 
-25 34 -31 
10 80 -15 


-81 -83 76 
98 11 -81 
-76 1 -94 

106 3 -121 
34 -67 -92 
97 47 -82 

-125 -38 118 
91 -10 -23 
83 -13 20 

-98 -26 -128 
38 1 -66 
120 -62 18 

-62 89 -105 
-103 9 112 
26 -15 114 

-121 -23 -27 
-76 -8 72 
72 56 -76 

15 -32 -104 
16 -122 79 
-23 -38 -96 

-49 -63 -40 
-25 34 -31 
10 80 -15 



-81 -83 76 
98 11 -81 
-76 1 -94 

106 3 -121 
34 -67 -92 
97 47 -82 

-125 -38 118 
91 -10 -23 
83 -13 20 

-98 -26 -128 
38 1 -66 
120 -62 18 

-62 89 -105 
-103 9 112 
26 -15 114 

-121 -23 -27 
-76 -8 72 
72 56 -76 

15 -32 -104 
16 -122 79 
-23 -38 -96 

-49 -63 -40 
-25 34 -31 
10 80 -15 


-81 -83 76 
98 11 -81 
-76 1 -94 

106 3 -121 
34 -67 -92 
97 47 -82 

-125 -38 118 
91 -10 -23 
83 -13 20 

-98 -26 -128 
38 1 -66 
120 -62 18 

-62 89 -105 
-103 9 112 
26 -15 114 

-121 -23 -27 
-76 -8 72 
72 56 -76 

15 -32 -104 
16 -122 79 
-23 -38 -96 

-49 -63 -40 
-25 34 -31 
10 80 -15 


-81 -83 76 
98 11 -81 
-76 1 -94 

106 3 -121 
34 -67 -92 
97 47 -82 

-125 -38 118 
91 -10 -23 
83 -13 20 

-98 -26 -128 
38 1 -66 
120 -62 18 

-62 89 -105 
-103 9 112 
26 -15 114 

-121 -23 -27 
-76 -8 72 
72 56 -76 

15 -32 -104 
16 -122 79 
-23 -38 -96 

-49 -63 -40 
-25 34 -31 
10 80 -15 


-81 -83 76 
98 11 -81 
-76 1 -94 

106 3 -121 
34 -67 -92 
97 47 -82 

-125 -38 118 
91 -10 -23 
83 -13 20 

-98 -26 -128 
38 1 -66 
120 -62 18 

-62 89 -105 
-103 9 112 
26 -15 114 

-121 -23 -27 
-76 -8 72 
72 56 -76 

15 -32 -104 
16 -122 79 
-23 -38 -96 

-49 -63 -40 
-25 34 -31 
10 80 -15 



-81 -83 76 
98 11 -81 
-76 1 -94 

106 3 -121 
34 -67 -92 
97 47 -82 

-125 -38 118 
91 -10 -23 
83 -13 20 

-98 -26 -128 
38 1 -66 
120 -62 18 

-62 89 -105 
-103 9 112 
26 -15 114 

-121 -23 -27 
-76 -8 72 
72 56 -76 

15 -32 -104 
16 -122 79 
-23 -38 -96 

-49 -63 -40 
-25 34 -31 
10 80 -15 


-81 -83 76 
98 11 -81 
-76 1 -94 

106 3 -121 
34 -67 -92 
97 47 -82 

-125 -38 118 
91 -10 -23 
83 -13 20 

-98 -26 -128 
38 1 -66 
120 -62 18 

-62 89 -105 
-103 9 112 
26 -15 114 

-121 -23 -27 
-76 -8 72 
72 56 -76 

15 -32 -104 
16 -122 79 
-23 -38 -96 

-49 -63 -40 
-25 34 -31 
10 80 -15 


-81 -83 76 
98 11 -81 
-76 1 -94 

106 3 -121 
34 -67 -92 
97 47 -82 

-125 -38 118 
91 -10 -23 
83 -13 20 

-98 -26 -128 
38 1 -66 
120 -62 18 

-62 89 -105 
-103 9 112 
26 -15 114 

-121 -23 -27 
-76 -8 72 
72 56 -76 

15 -32 -104 
16 -122 79 
-23 -38 -96 

-49 -63 -40 
-25 34 -31 
10 80 -15 


-81 -83 76 
98 11 -81 
-76 1 -94 

106 3 -121 
34 -67 -92 
97 47 -82 

-125 -38 118 
91 -10 -23 
83 -13 20 

-98 -26 -128 
38 1 -66 
120 -62 18 

-62 89 -105 
-103 9 112 
26 -15 114 

-121 -23 -27 
-76 -8 72 
72 56 -76 

15 -32 -104 
16 -122 79 
-23 -38 -96 

-49 -63 -40 
-25 34 -31 
10 80 -15 



-81 -83 76 
98 11 -81 
-76 1 -94 

106 3 -121 
34 -67 -92 
97 47 -82 

-125 -38 118 
91 -10 -23 
83 -13 20 

-98 -26 -128 
38 1 -66 
120 -62 18 

-62 89 -105 
-103 9 112 
26 -15 114 

-121 -23 -27 
-76 -8 72 
72 56 -76 

15 -32 -104 
16 -122 79 
-23 -38 -96 

-49 -63 -40 
-25 34 -31 
10 80 -15 


-81 -83 76 
98 11 -81 
-76 1 -94 

106 3 -121 
34 -67 -92 
97 47 -82 

-125 -38 118 
91 -10 -23 
83 -13 20 

-98 -26 -128 
38 1 -66 
120 -62 18 

-62 89 -105 
-103 9 112 
26 -15 114 

-121 -23 -27 
-76 -8 72 
72 56 -76 

15 -32 -104 
16 -122 79 
-23 -38 -96 

-49 -63 -40 
-25 34 -31 
10 80 -15 


-81 -83 76 
98 11 -81 
-76 1 -94 

106 3 -121 
34 -67 -92 
97 47 -82 

-125 -38 118 
91 -10 -23 
83 -13 20 

-98 -26 -128 
38 1 -66 
120 -62 18 

-62 89 -105 
-103 9 112 
26 -15 114 

-121 -23 -27 
-76 -8 72 
72 56 -76 

15 -32 -104 
16 -122 79 
-23 -38 -96 

-49 -63 -40 
-25 34 -31 
10 80 -15 


-81 -83 76 
98 11 -81 
-76 1 -94 

106 3 -121 
34 -67 -92 
97 47 -82 

-125 -38 118 
91 -10 -23 
83 -13 20 

-98 -26 -128 
38 1 -66 
120 -62 18 

-62 89 -105 
-103 9 112 
26 -15 114 

-121 -23 -27 
-76 -8 72 
72 56 -76 

15 -32 -104 
16 -122 79 
-23 -38 -96 

-49 -63 -40 
-25 34 -31 
10 80 -15 



-81 -83 76 
98 11 -81 
-76 1 -94 

106 3 -121 
34 -67 -92 
97 47 -82 

-125 -38 118 
91 -10 -23 
83 -13 20 

-98 -26 -128 
38 1 -66 
120 -62 18 

-62 89 -105 
-103 9 112 
26 -15 114 

-121 -23 -27 
-76 -8 72 
72 56 -76 

15 -32 -104 
16 -122 79 
-23 -38 -96 

-49 -63 -40 
-25 34 -31 
10 80 -15 


-81 -83 76 
98 11 -81 
-76 1 -94 

106 3 -121 
34 -67 -92 
97 47 -82 

-125 -38 118 
91 -10 -23 
83 -13 20 

-98 -26 -128 
38 1 -66 
120 -62 18 

-62 89 -105 
-103 9 112 
26 -15 114 

-121 -23 -27 
-76 -8 72 
72 56 -76 

15 -32 -104 
16 -122 79 
-23 -38 -96 

-49 -63 -40 
-25 34 -31 
10 80 -15 


-81 -83 76 
98 11 -81 
-76 1 -94 

106 3 -121 
34 -67 -92 
97 47 -82 

-125 -38 118 
91 -10 -23 
83 -13 20 

-98 -26 -128 
38 1 -66 
120 -62 18 

-62 89 -105 
-103 9 112 
26 -15 114 

-121 -23 -27 
-76 -8 72 
72 56 -76 

15 -32 -104 
16 -122 79 
-23 -38 -96 

-49 -63 -40 
-25 34 -31 
10 80 -15 


-81 -83 76 
98 11 -81 
-76 1 -94 

106 3 -121 
34 -67 -92 
97 47 -82 

-125 -38 118 
91 -10 -23 
83 -13 20 

-98 -26 -128 
38 1 -66 
120 -62 18 

-62 89 -105 
-103 9 112 
26 -15 114 

-121 -23 -27 
-76 -8 72 
72 56 -76 

15 -32 -104 
16 -122 79 
-23 -38 -96 

-49 -63 -40 
-25 34 -31 
10 80 -15 



-81 -83 76 
98 11 -81 
-76 1 -94 

106 3 -121 
34 -67 -92 
97 47 -82 

-125 -38 118 
91 -10 -23 
83 -13 20 

-98 -26 -128 
38 1 -66 
120 -62 18 

-62 89 -105 
-103 9 112 
26 -15 114 

-121 -23 -27 
-76 -8 72 
72 56 -76 

15 -32 -104 
16 -122 79 
-23 -38 -96 

-49 -63 -40 
-25 34 -31 
10 80 -15 


-81 -83 76 
98 11 -81 
-76 1 -94 

106 3 -121 
34 -67 -92 
97 47 -82 

-125 -38 118 
91 -10 -23 
83 -13 20 

-98 -26 -128 
38 1 -66 
120 -62 18 

-62 89 -105 
-103 9 112 
26 -15 114 

-121 -23 -27 
-76 -8 72 
72 56 -76 

15 -32 -104 
16 -122 79 
-23 -38 -96 

-49 -63 -40 
-25 34 -31 
10 80 -15 


-81 -83 76 
98 11 -81 
-76 1 -94 

106 3 -121 
34 -67 -92 
97 47 -82 

-125 -38 118 
91 -10 -23 
83 -13 20 

-98 -26 -128 
38 1 -66 
120 -62 18 

-62 89 -105 
-103 9 112 
26 -15 114 

-121 -23 -27 
-76 -8 72 
72 56 -76 

15 -32 -104 
16 -122 79 
-23 -38 -96 

-49 -63 -40 
-25 34 -31 
10 80 -15 


-81 -83 76 
98 11 -81 
-76 1 -94 

106 3 -121 
34 -67 -92 
97 47 -82 

-125 -38 118 
91 -10 -23 
83 -13 20 

-98 -26 -128 
38 1 -66 
120 -62 18 

-62 89 -105 
-103 9 112 
26 -15 114 

-121 -23 -27 
-76 -8 72 
72 56 -76 

15 -32 -104 
16 -122 79 
-23 -38 -96 

-49 -63 -40 
-25 34 -31 
10 80 -15 



-81 -83 76 
98 11 -81 
-76 1 -94 

106 3 -121 
34 -67 -92 
97 47 -82 

-125 -38 118 
91 -10 -23 
83 -13 20 

-98 -26 -128 
38 1 -66 
120 -62 18 

-62 89 -105 
-103 9 112 
26 -15 114 

-121 -23 -27 
-76 -8 72 
72 56 -76 

15 -32 -104 
16 -122 79 
-23 -38 -96 

-49 -63 -40 
-25 34 -31 
10 80 -15 


-81 -83 76 
98 11 -81 
-76 1 -94 

106 3 -121 
34 -67 -92 
97 47 -82 

-125 -38 118 
91 -10 -23 
83 -13 20 

-98 -26 -128 
38 1 -66 
120 -62 18 

-62 89 -105 
-103 9 112 
26 -15 114 

-121 -23 -27 
-76 -8 72 
72 56 -76 

15 -32 -104 
16 -122 79 
-23 -38 -96 

-49 -63 -40 
-25 34 -31 
10 80 -15 


-81 -83 76 
98 11 -81 
-76 1 -94 

106 3 -121 
34 -67 -92 
97 47 -82 

-125 -38 118 
91 -10 -23 
83 -13 20 

-98 -26 -128 
38 1 -66 
120 -62 18 

-62 89 -105 
-103 9 112 
26 -15 114 

-121 -23 -27 
-76 -8 72 
72 56 -76 

15 -32 -104 
16 -122 79 
-23 -38 -96 

-49 -63 -40 
-25 34 -31 
10 80 -15 


-81 -83 76 
98 11 -81 
-76 1 -94 

106 3 -121 
34 -67 -92 
97 47 -82 

-125 -38 118 
91 -10 -23 
83 -13 20 

-98 -26 -128 
38 1 -66 
120 -62 18 

-62 89 -105 
-103 9 112 
26 -15 114 

-121 -23 -27 
-76 -8 72 
72 56 -76 

15 -32 -104 
16 -122 79 
-23 -38 -96 

-49 -63 -40 
-25 34 -31 
10 80 -15 



-81 -83 76 
98 11 -81 
-76 1 -94 

106 3 -121 
34 -67 -92 
97 47 -82 

-125 -38 118 
91 -10 -23 
83 -13 20 

-98 -26 -128 
38 1 -66 
120 -62 18 

-62 89 -105 
-103 9 112 
26 -15 114 

-121 -23 -27 
-76 -8 72 
72 56 -76 

15 -32 -104 
16 -122 79 
-23 -38 -96 

-49 -63 -40 
-25 34 -31 
10 80 -15 


-81 -83 76 
98 11 -81 
-76 1 -94 

106 3 -121 
34 -67 -92 
97 47 -82 

-125 -38 118 
91 -10 -23 
83 -13 20 

-98 -26 -128 
38 1 -66 
120 -62 18 

-62 89 -105 
-103 9 112 
26 -15 114 

-121 -23 -27 
-76 -8 72 
72 56 -76 

15 -32 -104 
16 -122 79 
-23 -38 -96 

-49 -63 -40 
-25 34 -31 
10 80 -15 


-81 -83 76 
98 11 -81 
-76 1 -94 

106 3 -121 
34 -67 -92 
97 47 -82 

-125 -38 118 
91 -10 -23 
83 -13 20 

-98 -26 -128 
38 1 -66 
120 -62 18 

-62 89 -105 
-103 9 112 
26 -15 114 

-121 -23 -27 
-76 -8 72 
72 56 -76 

15 -32 -104 
16 -122 79 
-23 -38 -96 

-49 -63 -40 
-25 34 -31 
10 80 -15 


-81 -83 76 
98 11 -81 
-76 1 -94 

106 3 -121 
34 -67 -92 
97 47 -82 

-125 -38 118 
91 -10 -23 
83 -13 20 

-98 -26 -128 
38 1 -66 
120 -62 18 

-62 89 -105 
-103 9 112 
26 -15 114 

-121 -23 -27 
-76 -8 72 
72 56 -76 

15 -32 -104 
16 -122 79 
-23 -38 -96 

-49 -63 -40 
-25 34 -31 
10 80 -15 



-81 -83 76 
98 11 -81 
-76 1 -94 

106 3 -121 
34 -67 -92 
97 47 -82 

-125 -38 118 
91 -10 -23 
83 -13 20 

-98 -26 -128 
38 1 -66 
120 -62 18 

-62 89 -105 
-103 9 112 
26 -15 114 

-121 -23 -27 
-76 -8 72 
72 56 -76 

15 -32 -104 
16 -122 79 
-23 -38 -96 

-49 -63 -40 
-25 34 -31 
10 80 -15 


-81 -83 76 
98 11 -81 
-76 1 -94 

106 3 -121 
34 -67 -92 
97 47 -82 

-125 -38 118 
91 -10 -23 
83 -13 20 

-98 -26 -128 
38 1 -66 
120 -62 18 

-62 89 -105 
-103 9 112 
26 -15 114 

-121 -23 -27 
-76 -8 72 
72 56 -76 

15 -32 -104 
16 -122 79 
-23 -38 -96 

-49 -63 -40 
-25 34 -31 
10 80 -15 


-81 -83 76 
98 11 -81 
-76 1 -94 

106 3 -121 
34 -67 -92 
97 47 -82 

-125 -38 118 
91 -10 -23 
83 -13 20 

-98 -26 -128 
38 1 -66 
120 -62 18 

-62 89 -105 
-103 9 112 
26 -15 114 

-121 -23 -27 
-76 -8 72 
72 56 -76 

15 -32 -104 
16 -122 79 
-23 -38 -96 

-49 -63 -40 
-25 34 -31 
10 80 -15 


-81 -83 76 
98 11 -81 
-76 1 -94 

106 3 -121 
34 -67 -92 
97 47 -82 

-125 -38 118 
91 -10 -23 
83 -13 20 

-98 -26 -128 
38 1 -66 
120 -62 18 

-62 89 -105 
-103 9 112 
26 -15 114 

-121 -23 -27 
-76 -8 72 
72 56 -76 

15 -32 -104 
16 -122 79 
-23 -38 -96 

-49 -63 -40 
-25 34 -31 
10 80 -15 



-81 -83 76 
98 11 -81 
-76 1 -94 

106 3 -121 
34 -67 -92 
97 47 -82 

-125 -38 118 
91 -10 -23 
83 -13 20 

-98 -26 -128 
38 1 -66 
120 -62 18 

-62 89 -105 
-103 9 112 
26 -15 114 

-121 -23 -27 
-76 -8 72 
72 56 -76 

15 -32 -104 
16 -122 79 
-23 -38 -96 

-49 -63 -40 
-25 34 -31 
10 80 -15 


-81 -83 76 
98 11 -81 
-76 1 -94 

106 3 -121 
34 -67 -92 
97 47 -82 

-125 -38 118 
91 -10 -23 
83 -13 20 

-98 -26 -128 
38 1 -66 
120 -62 18 

-62 89 -105 
-103 9 112 
26 -15 114 

-121 -23 -27 
-76 -8 72 
72 56 -76 

15 -32 -104 
16 -122 79 
-23 -38 -96 

-49 -63 -40 
-25 34 -31 
10 80 -15 


-81 -83 76 
98 11 -81 
-76 1 -94 

106 3 -121 
34 -67 -92 
97 47 -82 

-125 -38 118 
91 -10 -23 
83 -13 20 

-98 -26 -128 
38 1 -66 
120 -62 18 

-62 89 -105 
-103 9 112 
26 -15 114 

-121 -23 -27 
-76 -8 72 
72 56 -76 

15 -32 -104 
16 -122 79 
-23 -38 -96 

-49 -63 -40 
-25 34 -31 
10 80 -15 


-81 -83 76 
98 11 -81 
-76 1 -94 

106 3 -121 
34 -67 -92 
97 47 -82 

-125 -38 118 
91 -10 -23 
83 -13 20 

-98 -26 -128 
38 1 -66 
120 -62 18 

-62 89 -105 
-103 9 112 
26 -15 114 

-121 -23 -27 
-76 -8 72 
72 56 -76 

15 -32 -104 
16 -122 79 
-23 -38 -96 

-49 -63 -40 
-25 34 -31 
10 80 -15 



-81 -83 76 
98 11 -81 
-76 1 -94 

106 3 -121 
34 -67 -92 
97 47 -82 

-125 -38 118 
91 -10 -23 
83 -13 20 

-98 -26 -128 
38 1 -66 
120 -62 18 

-62 89 -105 
-103 9 112 
26 -15 114 

-121 -23 -27 
-76 -8 72 
72 56 -76 

15 -32 -104 
16 -122 79 
-23 -38 -96 

-49 -63 -40 
-25 34 -31 
10 80 -15 


-81 -83 76 
98 11 -81 
-76 1 -94 

106 3 -121 
34 -67 -92 
97 47 -82 

-125 -38 118 
91 -10 -23 
83 -13 20 

-98 -26 -128 
38 1 -66 
120 -62 18 

-62 89 -105 
-103 9 112 
26 -15 114 

-121 -23 -27 
-76 -8 72 
72 56 -76 

15 -32 -104 
16 -122 79 
-23 -38 -96 

-49 -63 -40 
-25 34 -31 
10 80 -15 


-81 -83 76 
98 11 -81 
-76 1 -94 

106 3 -121 
34 -67 -92 
97 47 -82 

-125 -38 118 
91 -10 -23 
83 -13 20 

-98 -26 -128 
38 1 -66 
120 -62 18 

-62 89 -105 
-103 9 112 
26 -15 114 

-121 -23 -27 
-76 -8 72 
72 56 -76 

15 -32 -104 
16 -122 79 
-23 -38 -96 

-49 -63 -40 
-25 34 -31 
10 80 -15 


-81 -83 76 
98 11 -81 
-76 1 -94 

106 3 -121 
34 -67 -92 
97 47 -82 

-125 -38 118 
91 -10 -23 
83 -13 20 

-98 -26 -128 
38 1 -66 
120 -62 18 

-62 89 -105 
-103 9 112 
26 -15 114 

-121 -23 -27 
-76 -8 72 
72 56 -76 

15 -32 -104 
16 -122 79 
-23 -38 -96 

-49 -63 -40 
-25 34 -31 
10 80 -15 



-81 -83 76 
98 11 -81 
-76 1 -94 

106 3 -121 
34 -67 -92 
97 47 -82 

-125 -38 118 
91 -10 -23 
83 -13 20 

-98 -26 -128 
38 1 -66 
120 -62 18 

-62 89 -105 
-103 9 112 
26 -15 114 

-121 -23 -27 
-76 -8 72 
72 56 -76 

15 -32 -104 
16 -122 79 
-23 -38 -96 

-49 -63 -40 
-25 34 -31 
10 80 -15 


-81 -83 76 
98 11 -81 
-76 1 -94 

106 3 -121 
34 -67 -92 
97 47 -82 

-125 -38 118 
91 -10 -23 
83 -13 20 

-98 -26 -128 
38 1 -66 
120 -62 18 

-62 89 -105 
-103 9 112 
26 -15 114 

-121 -23 -27 
-76 -8 72 
72 56 -76 

15 -32 -104 
16 -122 79 
-23 -38 -96 

-49 -63 -40 
-25 34 -31 
10 80 -15 


-81 -83 76 
98 11 -81 
-76 1 -94 

106 3 -121 
34 -67 -92 
97 47 -82 

-125 -38 118 
91 -10 -23 
83 -13 20 

-98 -26 -128 
38 1 -66 
120 -62 18 

-62 89 -105 
-103 9 112 
26 -15 114 

-121 -23 -27 
-76 -8 72 
72 56 -76 

15 -32 -104 
16 -122 79 
-23 -38 -96 

-49 -63 -40 
-25 34 -31 
10 80 -15 


-81 -83 76 
98 11 -81 
-76 1 -94 

106 3 -121 
34 -67 -92 
97 47 -82 

-125 -38 118 
91 -10 -23 
83 -13 20 

-98 -26 -128 
38 1 -66 
120 -62 18 

-62 89 -105 
-103 9 112 
26 -15 114 

-121 -23 -27 
-76 -8 72 
72 56 -76 

15 -32 -104 
16 -122 79 
-23 -38 -96 

-49 -63 -40 
-25 34 -31 
10 80 -15 



-81 -83 76 
98 11 -81 
-76 1 -94 

106 3 -121 
34 -67 -92 
97 47 -82 

-125 -38 118 
91 -10 -23 
83 -13 20 

-98 -26 -128 
38 1 -66 
120 -62 18 

-62 89 -105 
-103 9 112 
26 -15 114 

-121 -23 -27 
-76 -8 72 
72 56 -76 

15 -32 -104 
16 -122 79 
-23 -38 -96 

-49 -63 -40 
-25 34 -31 
10 80 -15 


-81 -83 76 
98 11 -81 
-76 1 -94 

106 3 -121 
34 -67 -92 
97 47 -82 

-125 -38 118 
91 -10 -23 
83 -13 20 

-98 -26 -128 
38 1 -66 
120 -62 18 

-62 89 -105 
-103 9 112 
26 -15 114 

-121 -23 -27 
-76 -8 72 
72 56 -76 

15 -32 -104 
16 -122 79 
-23 -38 -96 

-49 -63 -40 
-25 34 -31 
10 80 -15 


-81 -83 76 
98 11 -81 
-76 1 -94 

106 3 -121 
34 -67 -92 
97 47 -82 

-125 -38 118 
91 -10 -23 
83 -13 20 

-98 -26 -128 
38 1 -66 
120 -62 18 

-62 89 -105 
-103 9 112 
26 -15 114 

-121 -23 -27 
-76 -8 72 
72 56 -76 

15 -32 -104 
16 -122 79 
-23 -38 -96 

-49 -63 -40 
-25 34 -31 
10 80 -15 


-81 -83 76 
98 11 -81 
-76 1 -94 

106 3 -121 
34 -67 -92 
97 47 -82 

-125 -38 118 
91 -10 -23 
83 -13 20 

-98 -26 -128 
38 1 -66 
120 -62 18 

-62 89 -105 
-103 9 112 
26 -15 114 

-121 -23 -27 
-76 -8 72 
72 56 -76 

15 -32 -104 
16 -122 79 
-23 -38 -96 

-49 -63 -40 
-25 34 -31 
10 80 -15 




44 -5 -39 
-106 123 -69 
-3 -114 54 

3 95 -116 
-15 114 33 
-88 -59 -84 

-82 10 82 
44 -101 -75 
-109 124 -75 

28 -6 -48 
115 -39 72 
-116 80 -39 

-95 39 -2 
68 -122 -37 
-100 -5 46 

65 -98 41 
-104 -55 29 
-81 61 99 

-88 -35 -60 
-66 -86 60 
64 -57 -29 

63 65 -125 
-4 -125 108 
40 41 22 


44 -5 -39 
-106 123 -69 
-3 -114 54 

3 95 -116 
-15 114 33 
-88 -59 -84 

-82 10 82 
44 -101 -75 
-109 124 -75 

28 -6 -48 
115 -39 72 
-116 80 -39 

-95 39 -2 
68 -122 -37 
-100 -5 46 

65 -98 41 
-104 -55 29 
-81 61 99 

-88 -35 -60 
-66 -86 60 
64 -57 -29 

63 65 -125 
-4 -125 108 
40 41 22 


44 -5 -39 
-106 123 -69 
-3 -114 54 

3 95 -116 
-15 114 33 
-88 -59 -84 

-82 10 82 
44 -101 -75 
-109 124 -75 

28 -6 -48 
115 -39 72 
-116 80 -39 

-95 39 -2 
68 -122 -37 
-100 -5 46 

65 -98 41 
-104 -55 29 
-81 61 99 

-88 -35 -60 
-66 -86 60 
64 -57 -29 

63 65 -125 
-4 -125 108 
40 41 22 


44 -5 -39 
-106 123 -69 
-3 -114 54 

3 95 -116 
-15 114 33 
-88 -59 -84 

-82 10 82 
44 -101 -75 
-109 124 -75 

28 -6 -48 
115 -39 72 
-116 80 -39 

-95 39 -2 
68 -122 -37 
-100 -5 46 

65 -98 41 
-104 -55 29 
-81 61 99 

-88 -35 -60 
-66 -86 60 
64 -57 -29 

63 65 -125 
-4 -125 108 
40 41 22 



44 -5 -39 
-106 123 -69 
-3 -114 54 

3 95 -116 
-15 114 33 
-88 -59 -84 

-82 10 82 
44 -101 -75 
-109 124 -75 

28 -6 -48 
115 -39 72 
-116 80 -39 

-95 39 -2 
68 -122 -37 
-100 -5 46 

65 -98 41 
-104 -55 29 
-81 61 99 

-88 -35 -60 
-66 -86 60 
64 -57 -29 

63 65 -125 
-4 -125 108 
40 41 22 


44 -5 -39 
-106 123 -69 
-3 -114 54 

3 95 -116 
-15 114 33 
-88 -59 -84 

-82 10 82 
44 -101 -75 
-109 124 -75 

28 -6 -48 
115 -39 72 
-116 80 -39 

-95 39 -2 
68 -122 -37 
-100 -5 46 

65 -98 41 
-104 -55 29 
-81 61 99 

-88 -35 -60 
-66 -86 60 
64 -57 -29 

63 65 -125 
-4 -125 108 
40 41 22 


44 -5 -39 
-106 123 -69 
-3 -114 54 

3 95 -116 
-15 114 33 
-88 -59 -84 

-82 10 82 
44 -101 -75 
-109 124 -75 

28 -6 -48 
115 -39 72 
-116 80 -39 

-95 39 -2 
68 -122 -37 
-100 -5 46 

65 -98 41 
-104 -55 29 
-81 61 99 

-88 -35 -60 
-66 -86 60 
64 -57 -29 

63 65 -125 
-4 -125 108 
40 41 22 


44 -5 -39 
-106 123 -69 
-3 -114 54 

3 95 -116 
-15 114 33 
-88 -59 -84 

-82 10 82 
44 -101 -75 
-109 124 -75 

28 -6 -48 
115 -39 72 
-116 80 -39 

-95 39 -2 
68 -122 -37 
-100 -5 46 

65 -98 41 
-104 -55 29 
-81 61 99 

-88 -35 -60 
-66 -86 60 
64 -57 -29 

63 65 -125 
-4 -125 108 
40 41 22 



44 -5 -39 
-106 123 -69 
-3 -114 54 

3 95 -116 
-15 114 33 
-88 -59 -84 

-82 10 82 
44 -101 -75 
-109 124 -75 

28 -6 -48 
115 -39 72 
-116 80 -39 

-95 39 -2 
68 -122 -37 
-100 -5 46 

65 -98 41 
-104 -55 29 
-81 61 99 

-88 -35 -60 
-66 -86 60 
64 -57 -29 

63 65 -125 
-4 -125 108 
40 41 22 


44 -5 -39 
-106 123 -69 
-3 -114 54 

3 95 -116 
-15 114 33 
-88 -59 -84 

-82 10 82 
44 -101 -75 
-109 124 -75 

28 -6 -48 
115 -39 72 
-116 80 -39 

-95 39 -2 
68 -122 -37 
-100 -5 46 

65 -98 41 
-104 -55 29 
-81 61 99 

-88 -35 -60 
-66 -86 60 
64 -57 -29 

63 65 -125 
-4 -125 108 
40 41 22 


44 -5 -39 
-106 123 -69 
-3 -114 54 

3 95 -116 
-15 114 33 
-88 -59 -84 

-82 10 82 
44 -101 -75 
-109 124 -75 

28 -6 -48 
115 -39 72 
-116 80 -39 

-95 39 -2 
68 -122 -37 
-100 -5 46 

65 -98 41 
-104 -55 29 
-81 61 99 

-88 -35 -60 
-66 -86 60 
64 -57 -29 

63 65 -125 
-4 -125 108 
40 41 22 


44 -5 -39 
-106 123 -69 
-3 -114 54 

3 95 -116 
-15 114 33 
-88 -59 -84 

-82 10 82 
44 -101 -75 
-109 124 -75 

28 -6 -48 
115 -39 72 
-116 80 -39 

-95 39 -2 
68 -122 -37 
-100 -5 46 

65 -98 41 
-104 -55 29 
-81 61 99 

-88 -35 -60 
-66 -86 60 
64 -57 -29 

63 65 -125 
-4 -125 108 
40 41 22 



44 -5 -39 
-106 123 -69 
-3 -114 54 

3 95 -116 
-15 114 33 
-88 -59 -84 

-82 10 82 
44 -101 -75 
-109 124 -75 

28 -6 -48 
115 -39 72 
-116 80 -39 

-95 39 -2 
68 -122 -37 
-100 -5 46 

65 -98 41 
-104 -55 29 
-81 61 99 

-88 -35 -60 
-66 -86 60 
64 -57 -29 

63 65 -125 
-4 -125 108 
40 41 22 


44 -5 -39 
-106 123 -69 
-3 -114 54 

3 95 -116 
-15 114 33 
-88 -59 -84 

-82 10 82 
44 -101 -75 
-109 124 -75 

28 -6 -48 
115 -39 72 
-116 80 -39 

-95 39 -2 
68 -122 -37 
-100 -5 46 

65 -98 41 
-104 -55 29 
-81 61 99 

-88 -35 -60 
-66 -86 60 
64 -57 -29 

63 65 -125 
-4 -125 108 
40 41 22 


44 -5 -39 
-106 123 -69 
-3 -114 54 

3 95 -116 
-15 114 33 
-88 -59 -84 

-82 10 82 
44 -101 -75 
-109 124 -75 

28 -6 -48 
115 -39 72 
-116 80 -39 

-95 39 -2 
68 -122 -37 
-100 -5 46 

65 -98 41 
-104 -55 29 
-81 61 99 

-88 -35 -60 
-66 -86 60 
64 -57 -29 

63 65 -125 
-4 -125 108 
40 41 22 


44 -5 -39 
-106 123 -69 
-3 -114 54 

3 95 -116 
-15 114 33 
-88 -59 -84 

-82 10 82 
44 -101 -75 
-109 124 -75 

28 -6 -48 
115 -39 72 
-116 80 -39 

-95 39 -2 
68 -122 -37 
-100 -5 46 

65 -98 41 
-104 -55 29 
-81 61 99 

-88 -35 -60 
-66 -86 60 
64 -57 -29 

63 65 -125 
-4 -125 108 
40 41 22 



44 -5 -39 
-106 123 -69 
-3 -114 54 

3 95 -116 
-15 114 33 
-88 -59 -84 

-82 10 82 
44 -101 -75 
-109 124 -75 

28 -6 -48 
115 -39 72 
-116 80 -39 

-95 39 -2 
68 -122 -37 
-100 -5 46 

65 -98 41 
-104 -55 29 
-81 61 99 

-88 -35 -60 
-66 -86 60 
64 -57 -29 

63 65 -125 
-4 -125 108 
40 41 22 


44 -5 -39 
-106 123 -69 
-3 -114 54 

3 95 -116 
-15 114 33 
-88 -59 -84 

-82 10 82 
44 -101 -75 
-109 124 -75 

28 -6 -48 
115 -39 72 
-116 80 -39 

-95 39 -2 
68 -122 -37 
-100 -5 46 

65 -98 41 
-104 -55 29 
-81 61 99 

-88 -35 -60 
-66 -86 60 
64 -57 -29 

63 65 -125 
-4 -125 108 
40 41 22 


44 -5 -39 
-106 123 -69 
-3 -114 54 

3 95 -116 
-15 114 33 
-88 -59 -84 

-82 10 82 
44 -101 -75 
-109 124 -75 

28 -6 -48 
115 -39 72 
-116 80 -39 

-95 39 -2 
68 -122 -37 
-100 -5 46 

65 -98 41 
-104 -55 29 
-81 61 99 

-88 -35 -60 
-66 -86 60 
64 -57 -29 

63 65 -125 
-4 -125 108 
40 41 22 


44 -5 -39 
-106 123 -69 
-3 -114 54 

3 95 -116 
-15 114 33 
-88 -59 -84 

-82 10 82 
44 -101 -75 
-109 124 -75 

28 -6 -48 
115 -39 72 
-116 80 -39 

-95 39 -2 
68 -122 -37 
-100 -5 46 

65 -98 41 
-104 -55 29 
-81 61 99 

-88 -35 -60 
-66 -86 60 
64 -57 -29 

63 65 -125 
-4 -125 108 
40 41 22 



44 -5 -39 
-106 123 -69 
-3 -114 54 

3 95 -116 
-15 114 33 
-88 -59 -84 

-82 10 82 
44 -101 -75 
-109 124 -75 

28 -6 -48 
115 -39 72 
-116 80 -39 

-95 39 -2 
68 -122 -37 
-100 -5 46 

65 -98 41 
-104 -55 29 
-81 61 99 

-88 -35 -60 
-66 -86 60 
64 -57 -29 

63 65 -125 
-4 -125 108 
40 41 22 


44 -5 -39 
-106 123 -69 
-3 -114 54 

3 95 -116 
-15 114 33 
-88 -59 -84 

-82 10 82 
44 -101 -75 
-109 124 -75 

28 -6 -48 
115 -39 72 
-116 80 -39 

-95 39 -2 
68 -122 -37 
-100 -5 46 

65 -98 41 
-104 -55 29 
-81 61 99 

-88 -35 -60 
-66 -86 60 
64 -57 -29 

63 65 -125 
-4 -125 108 
40 41 22 


44 -5 -39 
-106 123 -69 
-3 -114 54 

3 95 -116 
-15 114 33 
-88 -59 -84 

-82 10 82 
44 -101 -75 
-109 124 -75 

28 -6 -48 
115 -39 72 
-116 80 -39 

-95 39 -2 
68 -122 -37 
-100 -5 46 

65 -98 41 
-104 -55 29 
-81 61 99 

-88 -35 -60 
-66 -86 60 
64 -57 -29 

63 65 -125 
-4 -125 108 
40 41 22 


44 -5 -39 
-106 123 -69 
-3 -114 54 

3 95 -116 
-15 114 33 
-88 -59 -84 

-82 10 82 
44 -101 -75 
-109 124 -75 

28 -6 -48 
115 -39 72 
-116 80 -39 

-95 39 -2 
68 -122 -37 
-100 -5 46 

65 -98 41 
-104 -55 29 
-81 61 99 

-88 -35 -60 
-66 -86 60 
64 -57 -29 

63 65 -125 
-4 -125 108 
40 41 22 



44 -5 -39 
-106 123 -69 
-3 -114 54 

3 95 -116 
-15 114 33 
-88 -59 -84 

-82 10 82 
44 -101 -75 
-109 124 -75 

28 -6 -48 
115 -39 72 
-116 80 -39 

-95 39 -2 
68 -122 -37 
-100 -5 46 

65 -98 41 
-104 -55 29 
-81 61 99 

-88 -35 -60 
-66 -86 60 
64 -57 -29 

63 65 -125 
-4 -125 108 
40 41 22 


44 -5 -39 
-106 123 -69 
-3 -114 54 

3 95 -116 
-15 114 33 
-88 -59 -84 

-82 10 82 
44 -101 -75 
-109 124 -75 

28 -6 -48 
115 -39 72 
-116 80 -39 

-95 39 -2 
68 -122 -37 
-100 -5 46 

65 -98 41 
-104 -55 29 
-81 61 99 

-88 -35 -60 
-66 -86 60 
64 -57 -29 

63 65 -125 
-4 -125 108 
40 41 22 


44 -5 -39 
-106 123 -69 
-3 -114 54 

3 95 -116 
-15 114 33 
-88 -59 -84 

-82 10 82 
44 -101 -75 
-109 124 -75 

28 -6 -48 
115 -39 72 
-116 80 -39 

-95 39 -2 
68 -122 -37 
-100 -5 46 

65 -98 41 
-104 -55 29 
-81 61 99 

-88 -35 -60 
-66 -86 60 
64 -57 -29 

63 65 -125 
-4 -125 108 
40 41 22 


44 -5 -39 
-106 123 -69 
-3 -114 54 

3 95 -116 
-15 114 33 
-88 -59 -84 

-82 10 82 
44 -101 -75 
-109 124 -75 

28 -6 -48 
115 -39 72 
-116 80 -39 

-95 39 -2 
68 -122 -37 
-100 -5 46 

65 -98 41 
-104 -55 29 
-81 61 99 

-88 -35 -60 
-66 -86 60 
64 -57 -29 

63 65 -125 
-4 -125 108 
40 41 22 



44 -5 -39 
-106 123 -69 
-3 -114 54 

3 95 -116 
-15 114 33 
-88 -59 -84 

-82 10 82 
44 -101 -75 
-109 124 -75 

28 -6 -48 
115 -39 72 
-116 80 -39 

-95 39 -2 
68 -122 -37 
-100 -5 46 

65 -98 41 
-104 -55 29 
-81 61 99 

-88 -35 -60 
-66 -86 60 
64 -57 -29 

63 65 -125 
-4 -125 108 
40 41 22 


44 -5 -39 
-106 123 -69 
-3 -114 54 

3 95 -116 
-15 114 33 
-88 -59 -84 

-82 10 82 
44 -101 -75 
-109 124 -75 

28 -6 -48 
115 -39 72 
-116 80 -39 

-95 39 -2 
68 -122 -37 
-100 -5 46 

65 -98 41 
-104 -55 29 
-81 61 99 

-88 -35 -60 
-66 -86 60 
64 -57 -29 

63 65 -125 
-4 -125 108 
40 41 22 


44 -5 -39 
-106 123 -69 
-3 -114 54 

3 95 -116 
-15 114 33 
-88 -59 -84 

-82 10 82 
44 -101 -75 
-109 124 -75 

28 -6 -48 
115 -39 72 
-116 80 -39 

-95 39 -2 
68 -122 -37 
-100 -5 46 

65 -98 41 
-104 -55 29 
-81 61 99 

-88 -35 -60 
-66 -86 60 
64 -57 -29 

63 65 -125 
-4 -125 108 
40 41 22 


44 -5 -39 
-106 123 -69 
-3 -114 54 

3 95 -116 
-15 114 33 
-88 -59 -84 

-82 10 82 
44 -101 -75 
-109 124 -75 

28 -6 -48 
115 -39 72 
-116 80 -39 

-95 39 -2 
68 -122 -37 
-100 -5 46 

65 -98 41 
-104 -55 29 
-81 61 99 

-88 -35 -60 
-66 -86 60 
64 -57 -29 

63 65 -125 
-4 -125 108 
40 41 22 



44 -5 -39 
-106 123 -69 
-3 -114 54 

3 95 -116 
-15 114 33 
-88 -59 -84 

-82 10 82 
44 -101 -75 
-109 124 -75 

28 -6 -48 
115 -39 72 
-116 80 -39 

-95 39 -2 
68 -122 -37 
-100 -5 46 

65 -98 41 
-104 -55 29 
-81 61 99 

-88 -35 -60 
-66 -86 60 
64 -57 -29 

63 65 -125 
-4 -125 108 
40 41 22 


44 -5 -39 
-106 123 -69 
-3 -114 54 

3 95 -116 
-15 114 33 
-88 -59 -84 

-82 10 82 
44 -101 -75 
-109 124 -75 

28 -6 -48 
115 -39 72 
-116 80 -39 

-95 39 -2 
68 -122 -37 
-100 -5 46 

65 -98 41 
-104 -55 29 
-81 61 99 

-88 -35 -60 
-66 -86 60 
64 -57 -29 

63 65 -125 
-4 -125 108 
40 41 22 


44 -5 -39 
-106 123 -69 
-3 -114 54 

3 95 -116 
-15 114 33 
-88 -59 -84 

-82 10 82 
44 -101 -75 
-109 124 -75 

28 -6 -48 
115 -39 72 
-116 80 -39 

-95 39 -2 
68 -122 -37 
-100 -5 46 

65 -98 41 
-104 -55 29 
-81 61 99 

-88 -35 -60 
-66 -86 60 
64 -57 -29 

63 65 -125 
-4 -125 108 
40 41 22 


44 -5 -39 
-106 123 -69 
-3 -114 54 

3 95 -116 
-15 114 33 
-88 -59 -84 

-82 10 82 
44 -101 -75 
-109 124 -75 

28 -6 -48 
115 -39 72 
-116 80 -39 

-95 39 -2 
68 -122 -37 
-100 -5 46 

65 -98 41 
-104 -55 29 
-81 61 99 

-88 -35 -60 
-66 -86 60 
64 -57 -29 

63 65 -125 
-4 -125 108 
40 41 22 



44 -5 -39 
-106 123 -69 
-3 -114 54 

3 95 -116 
-15 114 33 
-88 -59 -84 

-82 10 82 
44 -101 -75 
-109 124 -75 

28 -6 -48 
115 -39 72 
-116 80 -39 

-95 39 -2 
68 -122 -37 
-100 -5 46 

65 -98 41 
-104 -55 29 
-81 61 99 

-88 -35 -60 
-66 -86 60 
64 -57 -29 

63 65 -125 
-4 -125 108 
40 41 22 


44 -5 -39 
-106 123 -69 
-3 -114 54 

3 95 -116 
-15 114 33 
-88 -59 -84 

-82 10 82 
44 -101 -75 
-109 124 -75 

28 -6 -48 
115 -39 72 
-116 80 -39 

-95 39 -2 
68 -122 -37 
-100 -5 46 

65 -98 41 
-104 -55 29 
-81 61 99 

-88 -35 -60 
-66 -86 60 
64 -57 -29 

63 65 -125 
-4 -125 108 
40 41 22 


44 -5 -39 
-106 123 -69 
-3 -114 54 

3 95 -116 
-15 114 33 
-88 -59 -84 

-82 10 82 
44 -101 -75 
-109 124 -75 

28 -6 -48 
115 -39 72 
-116 80 -39 

-95 39 -2 
68 -122 -37 
-100 -5 46 

65 -98 41 
-104 -55 29 
-81 61 99 

-88 -35 -60 
-66 -86 60 
64 -57 -29 

63 65 -125 
-4 -125 108 
40 41 22 


44 -5 -39 
-106 123 -69 
-3 -114 54 

3 95 -116 
-15 114 33 
-88 -59 -84 

-82 10 82 
44 -101 -75 
-109 124 -75 

28 -6 -48 
115 -39 72 
-116 80 -39 

-95 39 -2 
68 -122 -37 
-100 -5 46 

65 -98 41 
-104 -55 29 
-81 61 99 

-88 -35 -60 
-66 -86 60 
64 -57 -29 

63 65 -125 
-4 -125 108 
40 41 22 



44 -5 -39 
-106 123 -69 
-3 -114 54 

3 95 -116 
-15 114 33 
-88 -59 -84 

-82 10 82 
44 -101 -75 
-109 124 -75 

28 -6 -48 
115 -39 72 
-116 80 -39 

-95 39 -2 
68 -122 -37 
-100 -5 46 

65 -98 41 
-104 -55 29 
-81 61 99 

-88 -35 -60 
-66 -86 60 
64 -57 -29 

63 65 -125 
-4 -125 108 
40 41 22 


44 -5 -39 
-106 123 -69 
-3 -114 54 

3 95 -116 
-15 114 33 
-88 -59 -84 

-82 10 82 
44 -101 -75 
-109 124 -75 

28 -6 -48 
115 -39 72 
-116 80 -39 

-95 39 -2 
68 -122 -37 
-100 -5 46 

65 -98 41 
-104 -55 29 
-81 61 99 

-88 -35 -60 
-66 -86 60 
64 -57 -29 

63 65 -125 
-4 -125 108 
40 41 22 


44 -5 -39 
-106 123 -69 
-3 -114 54 

3 95 -116 
-15 114 33 
-88 -59 -84 

-82 10 82 
44 -101 -75 
-109 124 -75 

28 -6 -48 
115 -39 72 
-116 80 -39 

-95 39 -2 
68 -122 -37 
-100 -5 46 

65 -98 41 
-104 -55 29 
-81 61 99 

-88 -35 -60 
-66 -86 60 
64 -57 -29 

63 65 -125 
-4 -125 108 
40 41 22 


44 -5 -39 
-106 123 -69 
-3 -114 54 

3 95 -116 
-15 114 33 
-88 -59 -84 

-82 10 82 
44 -101 -75 
-109 124 -75 

28 -6 -48 
115 -39 72 
-116 80 -39 

-95 39 -2 
68 -122 -37 
-100 -5 46 

65 -98 41 
-104 -55 29 
-81 61 99 

-88 -35 -60 
-66 -86 60 
64 -57 -29 

63 65 -125 
-4 -125 108 
40 41 22 



44 -5 -39 
-106 123 -69 
-3 -114 54 

3 95 -116 
-15 114 33 
-88 -59 -84 

-82 10 82 
44 -101 -75 
-109 124 -75 

28 -6 -48 
115 -39 72 
-116 80 -39 

-95 39 -2 
68 -122 -37 
-100 -5 46 

65 -98 41 
-104 -55 29 
-81 61 99 

-88 -35 -60 
-66 -86 60 
64 -57 -29 

63 65 -125 
-4 -125 108 
40 41 22 


44 -5 -39 
-106 123 -69 
-3 -114 54 

3 95 -116 
-15 114 33 
-88 -59 -84 

-82 10 82 
44 -101 -75 
-109 124 -75 

28 -6 -48 
115 -39 72 
-116 80 -39 

-95 39 -2 
68 -122 -37 
-100 -5 46 

65 -98 41 
-104 -55 29 
-81 61 99 

-88 -35 -60 
-66 -86 60 
64 -57 -29 

63 65 -125 
-4 -125 108 
40 41 22 


44 -5 -39 
-106 123 -69 
-3 -114 54 

3 95 -116 
-15 114 33 
-88 -59 -84 

-82 10 82 
44 -101 -75 
-109 124 -75 

28 -6 -48 
115 -39 72 
-116 80 -39 

-95 39 -2 
68 -122 -37 
-100 -5 46 

65 -98 41 
-104 -55 29 
-81 61 99 

-88 -35 -60 
-66 -86 60 
64 -57 -29 

63 65 -125 
-4 -125 108 
40 41 22 


44 -5 -39 
-106 123 -69 
-3 -114 54 

3 95 -116 
-15 114 33 
-88 -59 -84 

-82 10 82 
44 -101 -75 
-109 124 -75 

28 -6 -48 
115 -39 72 
-116 80 -39 

-95 39 -2 
68 -122 -37 
-100 -5 46 

65 -98 41 
-104 -55 29 
-81 61 99 

-88 -35 -60 
-66 -86 60 
64 -57 -29 

63 65 -125 
-4 -125 108 
40 41 22 



44 -5 -39 
-106 123 -69 
-3 -114 54 

3 95 -116 
-15 114 33 
-88 -59 -84 

-82 10 82 
44 -101 -75 
-109 124 -75 

28 -6 -48 
115 -39 72 
-116 80 -39 

-95 39 -2 
68 -122 -37 
-100 -5 46 

65 -98 41 
-104 -55 29 
-81 61 99 

-88 -35 -60 
-66 -86 60 
64 -57 -29 

63 65 -125 
-4 -125 108 
40 41 22 


44 -5 -39 
-106 123 -69 
-3 -114 54 

3 95 -116 
-15 114 33 
-88 -59 -84 

-82 10 82 
44 -101 -75 
-109 124 -75 

28 -6 -48 
115 -39 72 
-116 80 -39 

-95 39 -2 
68 -122 -37 
-100 -5 46 

65 -98 41 
-104 -55 29 
-81 61 99 

-88 -35 -60 
-66 -86 60 
64 -57 -29 

63 65 -125 
-4 -125 108 
40 41 22 


44 -5 -39 
-106 123 -69 
-3 -114 54 

3 95 -116 
-15 114 33 
-88 -59 -84 

-82 10 82 
44 -101 -75 
-109 124 -75 

28 -6 -48 
115 -39 72 
-116 80 -39 

-95 39 -2 
68 -122 -37 
-100 -5 46 

65 -98 41 
-104 -55 29 
-81 61 99 

-88 -35 -60 
-66 -86 60 
64 -57 -29 

63 65 -125 
-4 -125 108 
40 41 22 


44 -5 -39 
-106 123 -69 
-3 -114 54 

3 95 -116 
-15 114 33 
-88 -59 -84 

-82 10 82 
44 -101 -75 
-109 124 -75 

28 -6 -48 
115 -39 72 
-116 80 -39 

-95 39 -2 
68 -122 -37 
-100 -5 46 

65 -98 41 
-104 -55 29 
-81 61 99 

-88 -35 -60 
-66 -86 60 
64 -57 -29 

63 65 -125 
-4 -125 108 
40 41 22 




-97 87 46 
-69 116 -14 
-99 124 -67 

127 108 -75 
-59 63 -98 
-18 -89 -101 

121 15 -67 
113 -59 -116 
41 -92 28 

-51 -104 -118 
-72 -90 -113 
-6 -126 -24 

-95 78 109 
65 22 -114 
-113 -36 82 

-89 117 5 
86 -78 92 
-7 -119 -106 

-106 -85 -17 
-92 108 -29 
22 72 -122 

127 33 -82 
-54 -88 -28 
41 8 -25 


-97 87 46 
-69 116 -14 
-99 124 -67 

127 108 -75 
-59 63 -98 
-18 -89 -101 

121 15 -67 
113 -59 -116 
41 -92 28 

-51 -104 -118 
-72 -90 -113 
-6 -126 -24 

-95 78 109 
65 22 -114 
-113 -36 82 

-89 117 5 
86 -78 92 
-7 -119 -106 

-106 -85 -17 
-92 108 -29 
22 72 -122 

127 33 -82 
-54 -88 -28 
41 8 -25 


-97 87 46 
-69 116 -14 
-99 124 -67 

127 108 -75 
-59 63 -98 
-18 -89 -101 

121 15 -67 
113 -59 -116 
41 -92 28 

-51 -104 -118 
-72 -90 -113 
-6 -126 -24 

-95 78 109 
65 22 -114 
-113 -36 82 

-89 117 5 
86 -78 92 
-7 -119 -106 

-106 -85 -17 
-92 108 -29 
22 72 -122 

127 33 -82 
-54 -88 -28 
41 8 -25 


-97 87 46 
-69 116 -14 
-99 124 -67 

127 108 -75 
-59 63 -98 
-18 -89 -101 

121 15 -67 
113 -59 -116 
41 -92 28 

-51 -104 -118 
-72 -90 -113 
-6 -126 -24 

-95 78 109 
65 22 -114 
-113 -36 82 

-89 117 5 
86 -78 92 
-7 -119 -106 

-106 -85 -17 
-92 108 -29 
22 72 -122 

127 33 -82 
-54 -88 -28 
41 8 -25 



-97 87 46 
-69 116 -14 
-99 124 -67 

127 108 -75 
-59 63 -98 
-18 -89 -101 

121 15 -67 
113 -59 -116 
41 -92 28 

-51 -104 -118 
-72 -90 -113 
-6 -126 -24 

-95 78 109 
65 22 -114 
-113 -36 82 

-89 117 5 
86 -78 92 
-7 -119 -106 

-106 -85 -17 
-92 108 -29 
22 72 -122 

127 33 -82 
-54 -88 -28 
41 8 -25 


-97 87 46 
-69 116 -14 
-99 124 -67 

127 108 -75 
-59 63 -98 
-18 -89 -101 

121 15 -67 
113 -59 -116 
41 -92 28 

-51 -104 -118 
-72 -90 -113 
-6 -126 -24 

-95 78 109 
65 22 -114 
-113 -36 82 

-89 117 5 
86 -78 92 
-7 -119 -106 

-106 -85 -17 
-92 108 -29 
22 72 -122 

127 33 -82 
-54 -88 -28 
41 8 -25 


-97 87 46 
-69 116 -14 
-99 124 -67 

127 108 -75 
-59 63 -98 
-18 -89 -101 

121 15 -67 
113 -59 -116 
41 -92 28 

-51 -104 -118 
-72 -90 -113 
-6 -126 -24 

-95 78 109 
65 22 -114 
-113 -36 82 

-89 117 5 
86 -78 92 
-7 -119 -106 

-106 -85 -17 
-92 108 -29 
22 72 -122 

127 33 -82 
-54 -88 -28 
41 8 -25 


-97 87 46 
-69 116 -14 
-99 124 -67 

127 108 -75 
-59 63 -98 
-18 -89 -101 

121 15 -67 
113 -59 -116 
41 -92 28 

-51 -104 -118 
-72 -90 -113 
-6 -126 -24 

-95 78 109 
65 22 -114 
-113 -36 82 

-89 117 5 
86 -78 92 
-7 -119 -106 

-106 -85 -17 
-92 108 -29 
22 72 -122 

127 33 -82 
-54 -88 -28 
41 8 -25 



-97 87 46 
-69 116 -14 
-99 124 -67 

127 108 -75 
-59 63 -98 
-18 -89 -101 

121 15 -67 
113 -59 -116 
41 -92 28 

-51 -104 -118 
-72 -90 -113 
-6 -126 -24 

-95 78 109 
65 22 -114 
-113 -36 82 

-89 117 5 
86 -78 92 
-7 -119 -106 

-106 -85 -17 
-92 108 -29 
22 72 -122 

127 33 -82 
-54 -88 -28 
41 8 -25 


-97 87 46 
-69 116 -14 
-99 124 -67 

127 108 -75 
-59 63 -98 
-18 -89 -101 

121 15 -67 
113 -59 -116 
41 -92 28 

-51 -104 -118 
-72 -90 -113 
-6 -126 -24 

-95 78 109 
65 22 -114 
-113 -36 82 

-89 117 5 
86 -78 92 
-7 -119 -106 

-106 -85 -17 
-92 108 -29 
22 72 -122 

127 33 -82 
-54 -88 -28 
41 8 -25 


-97 87 46 
-69 116 -14 
-99 124 -67 

127 108 -75 
-59 63 -98 
-18 -89 -101 

121 15 -67 
113 -59 -116 
41 -92 28 

-51 -104 -118 
-72 -90 -113 
-6 -126 -24 

-95 78 109 
65 22 -114 
-113 -36 82 

-89 117 5 
86 -78 92 
-7 -119 -106 

-106 -85 -17 
-92 108 -29 
22 72 -122 

127 33 -82 
-54 -88 -28 
41 8 -25 


-97 87 46 
-69 116 -14 
-99 124 -67 

127 108 -75 
-59 63 -98 
-18 -89 -101 

121 15 -67 
113 -59 -116 
41 -92 28 

-51 -104 -118 
-72 -90 -113 
-6 -126 -24 

-95 78 109 
65 22 -114 
-113 -36 82 

-89 117 5 
86 -78 92 
-7 -119 -106 

-106 -85 -17 
-92 108 -29 
22 72 -122 

127 33 -82 
-54 -88 -28 
41 8 -25 



-97 87 46 
-69 116 -14 
-99 124 -67 

127 108 -75 
-59 63 -98 
-18 -89 -101 

121 15 -67 
113 -59 -116 
41 -92 28 

-51 -104 -118 
-72 -90 -113 
-6 -126 -24 

-95 78 109 
65 22 -114 
-113 -36 82 

-89 117 5 
86 -78 92 
-7 -119 -106 

-106 -85 -17 
-92 108 -29 
22 72 -122 

127 33 -82 
-54 -88 -28 
41 8 -25 


-97 87 46 
-69 116 -14 
-99 124 -67 

127 108 -75 
-59 63 -98 
-18 -89 -101 

121 15 -67 
113 -59 -116 
41 -92 28 

-51 -104 -118 
-72 -90 -113 
-6 -126 -24 

-95 78 109 
65 22 -114 
-113 -36 82 

-89 117 5 
86 -78 92 
-7 -119 -106 

-106 -85 -17 
-92 108 -29 
22 72 -122 

127 33 -82 
-54 -88 -28 
41 8 -25 


-97 87 46 
-69 116 -14 
-99 124 -67 

127 108 -75 
-59 63 -98 
-18 -89 -101 

121 15 -67 
113 -59 -116 
41 -92 28 

-51 -104 -118 
-72 -90 -113 
-6 -126 -24 

-95 78 109 
65 22 -114 
-113 -36 82 

-89 117 5 
86 -78 92 
-7 -119 -106 

-106 -85 -17 
-92 108 -29 
22 72 -122 

127 33 -82 
-54 -88 -28 
41 8 -25 


-97 87 46 
-69 116 -14 
-99 124 -67 

127 108 -75 
-59 63 -98 
-18 -89 -101 

121 15 -67 
113 -59 -116 
41 -92 28 

-51 -104 -118 
-72 -90 -113 
-6 -126 -24 

-95 78 109 
65 22 -114 
-113 -36 82 

-89 117 5 
86 -78 92 
-7 -119 -106 

-106 -85 -17 
-92 108 -29 
22 72 -122 

127 33 -82 
-54 -88 -28 
41 8 -25 



-97 87 46 
-69 116 -14 
-99 124 -67 

127 108 -75 
-59 63 -98 
-18 -89 -101 

121 15 -67 
113 -59 -116 
41 -92 28 

-51 -104 -118 
-72 -90 -113 
-6 -126 -24 

-95 78 109 
65 22 -114 
-113 -36 82 

-89 117 5 
86 -78 92 
-7 -119 -106 

-106 -85 -17 
-92 108 -29 
22 72 -122 

127 33 -82 
-54 -88 -28 
41 8 -25 


-97 87 46 
-69 116 -14 
-99 124 -67 

127 108 -75 
-59 63 -98 
-18 -89 -101 

121 15 -67 
113 -59 -116 
41 -92 28 

-51 -104 -118 
-72 -90 -113 
-6 -126 -24 

-95 78 109 
65 22 -114 
-113 -36 82 

-89 117 5 
86 -78 92 
-7 -119 -106 

-106 -85 -17 
-92 108 -29 
22 72 -122 

127 33 -82 
-54 -88 -28 
41 8 -25 


-97 87 46 
-69 116 -14 
-99 124 -67 

127 108 -75 
-59 63 -98 
-18 -89 -101 

121 15 -67 
113 -59 -116 
41 -92 28 

-51 -104 -118 
-72 -90 -113 
-6 -126 -24 

-95 78 109 
65 22 -114 
-113 -36 82 

-89 117 5 
86 -78 92 
-7 -119 -106 

-106 -85 -17 
-92 108 -29 
22 72 -122 

127 33 -82 
-54 -88 -28 
41 8 -25 


-97 87 46 
-69 116 -14 
-99 124 -67 

127 108 -75 
-59 63 -98 
-18 -89 -101 

121 15 -67 
113 -59 -116 
41 -92 28 

-51 -104 -118 
-72 -90 -113 
-6 -126 -24 

-95 78 109 
65 22 -114 
-113 -36 82 

-89 117 5 
86 -78 92 
-7 -119 -106 

-106 -85 -17 
-92 108 -29 
22 72 -122 

127 33 -82 
-54 -88 -28 
41 8 -25 



-97 87 46 
-69 116 -14 
-99 124 -67 

127 108 -75 
-59 63 -98 
-18 -89 -101 

121 15 -67 
113 -59 -116 
41 -92 28 

-51 -104 -118 
-72 -90 -113 
-6 -126 -24 

-95 78 109 
65 22 -114 
-113 -36 82 

-89 117 5 
86 -78 92 
-7 -119 -106 

-106 -85 -17 
-92 108 -29 
22 72 -122 

127 33 -82 
-54 -88 -28 
41 8 -25 


-97 87 46 
-69 116 -14 
-99 124 -67 

127 108 -75 
-59 63 -98 
-18 -89 -101 

121 15 -67 
113 -59 -116 
41 -92 28 

-51 -104 -118 
-72 -90 -113 
-6 -126 -24 

-95 78 109 
65 22 -114 
-113 -36 82 

-89 117 5 
86 -78 92 
-7 -119 -106 

-106 -85 -17 
-92 108 -29 
22 72 -122 

127 33 -82 
-54 -88 -28 
41 8 -25 


-97 87 46 
-69 116 -14 
-99 124 -67 

127 108 -75 
-59 63 -98 
-18 -89 -101 

121 15 -67 
113 -59 -116 
41 -92 28 

-51 -104 -118 
-72 -90 -113 
-6 -126 -24 

-95 78 109 
65 22 -114 
-113 -36 82 

-89 117 5 
86 -78 92 
-7 -119 -106 

-106 -85 -17 
-92 108 -29 
22 72 -122 

127 33 -82 
-54 -88 -28 
41 8 -25 


-97 87 46 
-69 116 -14 
-99 124 -67 

127 108 -75 
-59 63 -98 
-18 -89 -101 

121 15 -67 
113 -59 -116 
41 -92 28 

-51 -104 -118 
-72 -90 -113 
-6 -126 -24 

-95 78 109 
65 22 -114 
-113 -36 82 

-89 117 5 
86 -78 92 
-7 -119 -106 

-106 -85 -17 
-92 108 -29 
22 72 -122 

127 33 -82 
-54 -88 -28 
41 8 -25 



-97 87 46 
-69 116 -14 
-99 124 -67 

127 108 -75 
-59 63 -98 
-18 -89 -101 

121 15 -67 
113 -59 -116 
41 -92 28 

-51 -104 -118 
-72 -90 -113 
-6 -126 -24 

-95 78 109 
65 22 -114 
-113 -36 82 

-89 117 5 
86 -78 92 
-7 -119 -106 

-106 -85 -17 
-92 108 -29 
22 72 -122 

127 33 -82 
-54 -88 -28 
41 8 -25 


-97 87 46 
-69 116 -14 
-99 124 -67 

127 108 -75 
-59 63 -98 
-18 -89 -101 

121 15 -67 
113 -59 -116 
41 -92 28 

-51 -104 -118 
-72 -90 -113 
-6 -126 -24 

-95 78 109 
65 22 -114 
-113 -36 82 

-89 117 5 
86 -78 92 
-7 -119 -106 

-106 -85 -17 
-92 108 -29 
22 72 -122 

127 33 -82 
-54 -88 -28 
41 8 -25 


-97 87 46 
-69 116 -14 
-99 124 -67 

127 108 -75 
-59 63 -98 
-18 -89 -101 

121 15 -67 
113 -59 -116 
41 -92 28 

-51 -104 -118 
-72 -90 -113 
-6 -126 -24 

-95 78 109 
65 22 -114 
-113 -36 82 

-89 117 5 
86 -78 92 
-7 -119 -106 

-106 -85 -17 
-92 108 -29 
22 72 -122 

127 33 -82 
-54 -88 -28 
41 8 -25 


-97 87 46 
-69 116 -14 
-99 124 -67 

127 108 -75 
-59 63 -98 
-18 -89 -101 

121 15 -67 
113 -59 -116 
41 -92 28 

-51 -104 -118 
-72 -90 -113 
-6 -126 -24 

-95 78 109 
65 22 -114 
-113 -36 82 

-89 117 5 
86 -78 92 
-7 -119 -106 

-106 -85 -17 
-92 108 -29 
22 72 -122 

127 33 -82 
-54 -88 -28 
41 8 -25 



-97 87 46 
-69 116 -14 
-99 124 -67 

127 108 -75 
-59 63 -98 
-18 -89 -101 

121 15 -67 
113 -59 -116 
41 -92 28 

-51 -104 -118 
-72 -90 -113 
-6 -126 -24 

-95 78 109 
65 22 -114 
-113 -36 82 

-89 117 5 
86 -78 92 
-7 -119 -106 

-106 -85 -17 
-92 108 -29 
22 72 -122 

127 33 -82 
-54 -88 -28 
41 8 -25 


-97 87 46 
-69 116 -14 
-99 124 -67 

127 108 -75 
-59 63 -98 
-18 -89 -101 

121 15 -67 
113 -59 -116 
41 -92 28 

-51 -104 -118 
-72 -90 -113 
-6 -126 -24 

-95 78 109 
65 22 -114 
-113 -36 82 

-89 117 5 
86 -78 92 
-7 -119 -106 

-106 -85 -17 
-92 108 -29 
22 72 -122 

127 33 -82 
-54 -88 -28 
41 8 -25 


-97 87 46 
-69 116 -14 
-99 124 -67 

127 108 -75 
-59 63 -98 
-18 -89 -101 

121 15 -67 
113 -59 -116 
41 -92 28 

-51 -104 -118 
-72 -90 -113 
-6 -126 -24 

-95 78 109 
65 22 -114 
-113 -36 82 

-89 117 5 
86 -78 92 
-7 -119 -106 

-106 -85 -17 
-92 108 -29 
22 72 -122 

127 33 -82 
-54 -88 -28 
41 8 -25 


-97 87 46 
-69 116 -14 
-99 124 -67 

127 108 -75 
-59 63 -98 
-18 -89 -101 

121 15 -67 
113 -59 -116 
41 -92 28 

-51 -104 -118 
-72 -90 -113 
-6 -126 -24 

-95 78 109 
65 22 -114 
-113 -36 82 

-89 117 5 
86 -78 92 
-7 -119 -106 

-106 -85 -17 
-92 108 -29 
22 72 -122 

127 33 -82 
-54 -88 -28 
41 8 -25 



-97 87 46 
-69 116 -14 
-99 124 -67 

127 108 -75 
-59 63 -98 
-18 -89 -101 

121 15 -67 
113 -59 -116 
41 -92 28 

-51 -104 -118 
-72 -90 -113 
-6 -126 -24 

-95 78 109 
65 22 -114 
-113 -36 82 

-89 117 5 
86 -78 92 
-7 -119 -106 

-106 -85 -17 
-92 108 -29 
22 72 -122 

127 33 -82 
-54 -88 -28 
41 8 -25 


-97 87 46 
-69 116 -14 
-99 124 -67 

127 108 -75 
-59 63 -98 
-18 -89 -101 

121 15 -67 
113 -59 -116 
41 -92 28 

-51 -104 -118 
-72 -90 -113 
-6 -126 -24 

-95 78 109 
65 22 -114 
-113 -36 82 

-89 117 5 
86 -78 92 
-7 -119 -106 

-106 -85 -17 
-92 108 -29 
22 72 -122 

127 33 -82 
-54 -88 -28 
41 8 -25 


-97 87 46 
-69 116 -14 
-99 124 -67 

127 108 -75 
-59 63 -98 
-18 -89 -101 

121 15 -67 
113 -59 -116 
41 -92 28 

-51 -104 -118 
-72 -90 -113 
-6 -126 -24 

-95 78 109 
65 22 -114 
-113 -36 82 

-89 117 5 
86 -78 92 
-7 -119 -106 

-106 -85 -17 
-92 108 -29 
22 72 -122 

127 33 -82 
-54 -88 -28 
41 8 -25 


-97 87 46 
-69 116 -14 
-99 124 -67 

127 108 -75 
-59 63 -98 
-18 -89 -101 

121 15 -67 
113 -59 -116 
41 -92 28 

-51 -104 -118 
-72 -90 -113 
-6 -126 -24 

-95 78 109 
65 22 -114 
-113 -36 82 

-89 117 5 
86 -78 92 
-7 -119 -106 

-106 -85 -17 
-92 108 -29 
22 72 -122 

127 33 -82 
-54 -88 -28 
41 8 -25 



-97 87 46 
-69 116 -14 
-99 124 -67 

127 108 -75 
-59 63 -98 
-18 -89 -101 

121 15 -67 
113 -59 -116 
41 -92 28 

-51 -104 -118 
-72 -90 -113 
-6 -126 -24 

-95 78 109 
65 22 -114 
-113 -36 82 

-89 117 5 
86 -78 92 
-7 -119 -106 

-106 -85 -17 
-92 108 -29 
22 72 -122 

127 33 -82 
-54 -88 -28 
41 8 -25 


-97 87 46 
-69 116 -14 
-99 124 -67 

127 108 -75 
-59 63 -98 
-18 -89 -101 

121 15 -67 
113 -59 -116 
41 -92 28 

-51 -104 -118 
-72 -90 -113 
-6 -126 -24 

-95 78 109 
65 22 -114 
-113 -36 82 

-89 117 5 
86 -78 92 
-7 -119 -106 

-106 -85 -17 
-92 108 -29 
22 72 -122 

127 33 -82 
-54 -88 -28 
41 8 -25 


-97 87 46 
-69 116 -14 
-99 124 -67 

127 108 -75 
-59 63 -98 
-18 -89 -101 

121 15 -67 
113 -59 -116 
41 -92 28 

-51 -104 -118 
-72 -90 -113 
-6 -126 -24 

-95 78 109 
65 22 -114 
-113 -36 82 

-89 117 5 
86 -78 92 
-7 -119 -106 

-106 -85 -17 
-92 108 -29 
22 72 -122 

127 33 -82 
-54 -88 -28 
41 8 -25 


-97 87 46 
-69 116 -14 
-99 124 -67 

127 108 -75 
-59 63 -98 
-18 -89 -101 

121 15 -67 
113 -59 -116 
41 -92 28 

-51 -104 -118 
-72 -90 -113 
-6 -126 -24 

-95 78 109 
65 22 -114 
-113 -36 82 

-89 117 5 
86 -78 92 
-7 -119 -106 

-106 -85 -17 
-92 108 -29 
22 72 -122 

127 33 -82 
-54 -88 -28 
41 8 -25 



-97 87 46 
-69 116 -14 
-99 124 -67 

127 108 -75 
-59 63 -98 
-18 -89 -101 

121 15 -67 
113 -59 -116 
41 -92 28 

-51 -104 -118 
-72 -90 -113 
-6 -126 -24 

-95 78 109 
65 22 -114 
-113 -36 82 

-89 117 5 
86 -78 92 
-7 -119 -106 

-106 -85 -17 
-92 108 -29 
22 72 -122 

127 33 -82 
-54 -88 -28 
41 8 -25 


-97 87 46 
-69 116 -14 
-99 124 -67 

127 108 -75 
-59 63 -98 
-18 -89 -101 

121 15 -67 
113 -59 -116 
41 -92 28 

-51 -104 -118 
-72 -90 -113 
-6 -126 -24 

-95 78 109 
65 22 -114 
-113 -36 82 

-89 117 5 
86 -78 92 
-7 -119 -106 

-106 -85 -17 
-92 108 -29 
22 72 -122 

127 33 -82 
-54 -88 -28 
41 8 -25 


-97 87 46 
-69 116 -14 
-99 124 -67 

127 108 -75 
-59 63 -98 
-18 -89 -101 

121 15 -67 
113 -59 -116 
41 -92 28 

-51 -104 -118 
-72 -90 -113 
-6 -126 -24 

-95 78 109 
65 22 -114 
-113 -36 82 

-89 117 5 
86 -78 92 
-7 -119 -106 

-106 -85 -17 
-92 108 -29 
22 72 -122 

127 33 -82 
-54 -88 -28 
41 8 -25 


-97 87 46 
-69 116 -14 
-99 124 -67 

127 108 -75 
-59 63 -98 
-18 -89 -101 

121 15 -67 
113 -59 -116 
41 -92 28 

-51 -104 -118 
-72 -90 -113 
-6 -126 -24 

-95 78 109 
65 22 -114 
-113 -36 82 

-89 117 5 
86 -78 92 
-7 -119 -106 

-106 -85 -17 
-92 108 -29 
22 72 -122 

127 33 -82 
-54 -88 -28 
41 8 -25 



-97 87 46 
-69 116 -14 
-99 124 -67 

127 108 -75 
-59 63 -98 
-18 -89 -101 

121 15 -67 
113 -59 -116 
41 -92 28 

-51 -104 -118 
-72 -90 -113 
-6 -126 -24 

-95 78 109 
65 22 -114 
-113 -36 82 

-89 117 5 
86 -78 92 
-7 -119 -106 

-106 -85 -17 
-92 108 -29 
22 72 -122 

127 33 -82 
-54 -88 -28 
41 8 -25 


-97 87 46 
-69 116 -14 
-99 124 -67 

127 108 -75 
-59 63 -98 
-18 -89 -101 

121 15 -67 
113 -59 -116 
41 -92 28 

-51 -104 -118 
-72 -90 -113 
-6 -126 -24 

-95 78 109 
65 22 -114 
-113 -36 82 

-89 117 5 
86 -78 92 
-7 -119 -106 

-106 -85 -17 
-92 108 -29 
22 72 -122 

127 33 -82 
-54 -88 -28 
41 8 -25 


-97 87 46 
-69 116 -14 
-99 124 -67 

127 108 -75 
-59 63 -98 
-18 -89 -101 

121 15 -67 
113 -59 -116 
41 -92 28 

-51 -104 -118 
-72 -90 -113 
-6 -126 -24 

-95 78 109 
65 22 -114 
-113 -36 82 

-89 117 5 
86 -78 92 
-7 -119 -106 

-106 -85 -17 
-92 108 -29 
22 72 -122 

127 33 -82 
-54 -88 -28 
41 8 -25 


-97 87 46 
-69 116 -14 
-99 124 -67 

127 108 -75 
-59 63 -98 
-18 -89 -101 

121 15 -67 
113 -59 -116 
41 -92 28 

-51 -104 -118 
-72 -90 -113 
-6 -126 -24 

-95 78 109 
65 22 -114 
-113 -36 82 

-89 117 5 
86 -78 92 
-7 -119 -106 

-106 -85 -17 
-92 108 -29 
22 72 -122 

127 33 -82 
-54 -88 -28 
41 8 -25 



-97 87 46 
-69 116 -14 
-99 124 -67 

127 108 -75 
-59 63 -98 
-18 -89 -101 

121 15 -67 
113 -59 -116 
41 -92 28 

-51 -104 -118 
-72 -90 -113 
-6 -126 -24 

-95 78 109 
65 22 -114 
-113 -36 82 

-89 117 5 
86 -78 92 
-7 -119 -106 

-106 -85 -17 
-92 108 -29 
22 72 -122 

127 33 -82 
-54 -88 -28 
41 8 -25 


-97 87 46 
-69 116 -14 
-99 124 -67 

127 108 -75 
-59 63 -98 
-18 -89 -101 

121 15 -67 
113 -59 -116 
41 -92 28 

-51 -104 -118 
-72 -90 -113 
-6 -126 -24 

-95 78 109 
65 22 -114 
-113 -36 82 

-89 117 5 
86 -78 92 
-7 -119 -106 

-106 -85 -17 
-92 108 -29 
22 72 -122 

127 33 -82 
-54 -88 -28 
41 8 -25 


-97 87 46 
-69 116 -14 
-99 124 -67 

127 108 -75 
-59 63 -98 
-18 -89 -101 

121 15 -67 
113 -59 -116 
41 -92 28 

-51 -104 -118 
-72 -90 -113 
-6 -126 -24 

-95 78 109 
65 22 -114 
-113 -36 82 

-89 117 5 
86 -78 92 
-7 -119 -106 

-106 -85 -17 
-92 108 -29 
22 72 -122 

127 33 -82 
-54 -88 -28 
41 8 -25 


-97 87 46 
-69 116 -14 
-99 124 -67 

127 108 -75 
-59 63 -98 
-18 -89 -101 

121 15 -67 
113 -59 -116 
41 -92 28 

-51 -104 -118 
-72 -90 -113 
-6 -126 -24 

-95 78 109 
65 22 -114 
-113 -36 82 

-89 117 5 
86 -78 92 
-7 -119 -106 

-106 -85 -17 
-92 108 -29 
22 72 -122 

127 33 -82 
-54 -88 -28 
41 8 -25 




-52 62 -125 
-74 -117 8 
-16 119 119 

-50 54 -1 
-127 39 -38 
64 80 -52 

-54 65 -89 
-99 13 81 
-35 109 -1 

-81 113 59 
35 -102 -10 
47 -122 -110 

-109 102 -100 
67 114 52 
-108 -113 -29 

59 28 2 
118 81 102 
31 115 -41 

-65 -32 7 
59 -5 74 
67 -89 13 

-118 -118 -56 
23 -34 -108 
-37 -62 -22 


-52 62 -125 
-74 -117 8 
-16 119 119 

-50 54 -1 
-127 39 -38 
64 80 -52 

-54 65 -89 
-99 13 81 
-35 109 -1 

-81 113 59 
35 -102 -10 
47 -122 -110 

-109 102 -100 
67 114 52 
-108 -113 -29 

59 28 2 
118 81 102 
31 115 -41 

-65 -32 7 
59 -5 74 
67 -89 13 

-118 -118 -56 
23 -34 -108 
-37 -62 -22 


-52 62 -125 
-74 -117 8 
-16 119 119 

-50 54 -1 
-127 39 -38 
64 80 -52 

-54 65 -89 
-99 13 81 
-35 109 -1 

-81 113 59 
35 -102 -10 
47 -122 -110 

-109 102 -100 
67 114 52 
-108 -113 -29 

59 28 2 
118 81 102 
31 115 -41 

-65 -32 7 
59 -5 74 
67 -89 13 

-118 -118 -56 
23 -34 -108 
-37 -62 -22 


-52 62 -125 
-74 -117 8 
-16 119 119 

-50 54 -1 
-127 39 -38 
64 80 -52 

-54 65 -89 
-99 13 81 
-35 109 -1 

-81 113 59 
35 -102 -10 
47 -122 -110 

-109 102 -100 
67 114 52 
-108 -113 -29 

59 28 2 
118 81 102 
31 115 -41 

-65 -32 7 
59 -5 74 
67 -89 13 

-118 -118 -56 
23 -34 -108 
-37 -62 -22 



-52 62 -125 
-74 -117 8 
-16 119 119 

-50 54 -1 
-127 39 -38 
64 80 -52 

-54 65 -89 
-99 13 81 
-35 109 -1 

-81 113 59 
35 -102 -10 
47 -122 -110 

-109 102 -100 
67 114 52 
-108 -113 -29 

59 28 2 
118 81 102 
31 115 -41 

-65 -32 7 
59 -5 74 
67 -89 13 

-118 -118 -56 
23 -34 -108 
-37 -62 -22 


-52 62 -125 
-74 -117 8 
-16 119 119 

-50 54 -1 
-127 39 -38 
64 80 -52 

-54 65 -89 
-99 13 81 
-35 109 -1 

-81 113 59 
35 -102 -10 
47 -122 -110 

-109 102 -100 
67 114 52 
-108 -113 -29 

59 28 2 
118 81 102 
31 115 -41 

-65 -32 7 
59 -5 74 
67 -89 13 

-118 -118 -56 
23 -34 -108 
-37 -62 -22 


-52 62 -125 
-74 -117 8 
-16 119 119 

-50 54 -1 
-127 39 -38 
64 80 -52 

-54 65 -89 
-99 13 81 
-35 109 -1 

-81 113 59 
35 -102 -10 
47 -122 -110 

-109 102 -100 
67 114 52 
-108 -113 -29 

59 28 2 
118 81 102 
31 115 -41 

-65 -32 7 
59 -5 74 
67 -89 13 

-118 -118 -56 
23 -34 -108 
-37 -62 -22 


-52 62 -125 
-74 -117 8 
-16 119 119 

-50 54 -1 
-127 39 -38 
64 80 -52 

-54 65 -89 
-99 13 81 
-35 109 -1 

-81 113 59 
35 -102 -10 
47 -122 -110 

-109 102 -100 
67 114 52 
-108 -113 -29 

59 28 2 
118 81 102 
31 115 -41 

-65 -32 7 
59 -5 74 
67 -89 13 

-118 -118 -56 
23 -34 -108 
-37 -62 -22 



-52 62 -125 
-74 -117 8 
-16 119 119 

-50 54 -1 
-127 39 -38 
64 80 -52 

-54 65 -89 
-99 13 81 
-35 109 -1 

-81 113 59 
35 -102 -10 
47 -122 -110 

-109 102 -100 
67 114 52 
-108 -113 -29 

59 28 2 
118 81 102 
31 115 -41 

-65 -32 7 
59 -5 74 
67 -89 13 

-118 -118 -56 
23 -34 -108 
-37 -62 -22 


-52 62 -125 
-74 -117 8 
-16 119 119 

-50 54 -1 
-127 39 -38 
64 80 -52 

-54 65 -89 
-99 13 81 
-35 109 -1 

-81 113 59 
35 -102 -10 
47 -122 -110 

-109 102 -100 
67 114 52 
-108 -113 -29 

59 28 2 
118 81 102 
31 115 -41 

-65 -32 7 
59 -5 74 
67 -89 13 

-118 -118 -56 
23 -34 -108 
-37 -62 -22 


-52 62 -125 
-74 -117 8 
-16 119 119 

-50 54 -1 
-127 39 -38 
64 80 -52 

-54 65 -89 
-99 13 81 
-35 109 -1 

-81 113 59 
35 -102 -10 
47 -122 -110 

-109 102 -100 
67 114 52 
-108 -113 -29 

59 28 2 
118 81 102 
31 115 -41 

-65 -32 7 
59 -5 74 
67 -89 13 

-118 -118 -56 
23 -34 -108 
-37 -62 -22 


-52 62 -125 
-74 -117 8 
-16 119 119 

-50 54 -1 
-127 39 -38 
64 80 -52 

-54 65 -89 
-99 13 81 
-35 109 -1 

-81 113 59 
35 -102 -10 
47 -122 -110 

-109 102 -100 
67 114 52 
-108 -113 -29 

59 28 2 
118 81 102 
31 115 -41 

-65 -32 7 
59 -5 74 
67 -89 13 

-118 -118 -56 
23 -34 -108 
-37 -62 -22 



-52 62 -125 
-74 -117 8 
-16 119 119 

-50 54 -1 
-127 39 -38 
64 80 -52 

-54 65 -89 
-99 13 81 
-35 109 -1 

-81 113 59 
35 -102 -10 
47 -122 -110 

-109 102 -100 
67 114 52 
-108 -113 -29 

59 28 2 
118 81 102 
31 115 -41 

-65 -32 7 
59 -5 74 
67 -89 13 

-118 -118 -56 
23 -34 -108 
-37 -62 -22 


-52 62 -125 
-74 -117 8 
-16 119 119 

-50 54 -1 
-127 39 -38 
64 80 -52 

-54 65 -89 
-99 13 81 
-35 109 -1 

-81 113 59 
35 -102 -10 
47 -122 -110 

-109 102 -100 
67 114 52 
-108 -113 -29 

59 28 2 
118 81 102 
31 115 -41 

-65 -32 7 
59 -5 74 
67 -89 13 

-118 -118 -56 
23 -34 -108 
-37 -62 -22 


-52 62 -125 
-74 -117 8 
-16 119 119 

-50 54 -1 
-127 39 -38 
64 80 -52 

-54 65 -89 
-99 13 81 
-35 109 -1 

-81 113 59 
35 -102 -10 
47 -122 -110 

-109 102 -100 
67 114 52 
-108 -113 -29 

59 28 2 
118 81 102 
31 115 -41 

-65 -32 7 
59 -5 74 
67 -89 13 

-118 -118 -56 
23 -34 -108 
-37 -62 -22 


-52 62 -125 
-74 -117 8 
-16 119 119 

-50 54 -1 
-127 39 -38 
64 80 -52 

-54 65 -89 
-99 13 81 
-35 109 -1 

-81 113 59 
35 -102 -10 
47 -122 -110 

-109 102 -100 
67 114 52 
-108 -113 -29 

59 28 2 
118 81 102 
31 115 -41 

-65 -32 7 
59 -5 74 
67 -89 13 

-118 -118 -56 
23 -34 -108 
-37 -62 -22 



-52 62 -125 
-74 -117 8 
-16 119 119 

-50 54 -1 
-127 39 -38 
64 80 -52 

-54 65 -89 
-99 13 81 
-35 109 -1 

-81 113 59 
35 -102 -10 
47 -122 -110 

-109 102 -100 
67 114 52 
-108 -113 -29 

59 28 2 
118 81 102 
31 115 -41 

-65 -32 7 
59 -5 74 
67 -89 13 

-118 -118 -56 
23 -34 -108 
-37 -62 -22 


-52 62 -125 
-74 -117 8 
-16 119 119 

-50 54 -1 
-127 39 -38 
64 80 -52 

-54 65 -89 
-99 13 81 
-35 109 -1 

-81 113 59 
35 -102 -10 
47 -122 -110 

-109 102 -100 
67 114 52 
-108 -113 -29 

59 28 2 
118 81 102 
31 115 -41 

-65 -32 7 
59 -5 74 
67 -89 13 

-118 -118 -56 
23 -34 -108 
-37 -62 -22 


-52 62 -125 
-74 -117 8 
-16 119 119 

-50 54 -1 
-127 39 -38 
64 80 -52 

-54 65 -89 
-99 13 81 
-35 109 -1 

-81 113 59 
35 -102 -10 
47 -122 -110 

-109 102 -100 
67 114 52 
-108 -113 -29 

59 28 2 
118 81 102 
31 115 -41 

-65 -32 7 
59 -5 74 
67 -89 13 

-118 -118 -56 
23 -34 -108 
-37 -62 -22 


-52 62 -125 
-74 -117 8 
-16 119 119 

-50 54 -1 
-127 39 -38 
64 80 -52 

-54 65 -89 
-99 13 81 
-35 109 -1 

-81 113 59 
35 -102 -10 
47 -122 -110 

-109 102 -100 
67 114 52 
-108 -113 -29 

59 28 2 
118 81 102 
31 115 -41 

-65 -32 7 
59 -5 74 
67 -89 13 

-118 -118 -56 
23 -34 -108 
-37 -62 -22 



-52 62 -125 
-74 -117 8 
-16 119 119 

-50 54 -1 
-127 39 -38 
64 80 -52 

-54 65 -89 
-99 13 81 
-35 109 -1 

-81 113 59 
35 -102 -10 
47 -122 -110 

-109 102 -100 
67 114 52 
-108 -113 -29 

59 28 2 
118 81 102 
31 115 -41 

-65 -32 7 
59 -5 74 
67 -89 13 

-118 -118 -56 
23 -34 -108 
-37 -62 -22 


-52 62 -125 
-74 -117 8 
-16 119 119 

-50 54 -1 
-127 39 -38 
64 80 -52 

-54 65 -89 
-99 13 81 
-35 109 -1 

-81 113 59 
35 -102 -10 
47 -122 -110 

-109 102 -100 
67 114 52 
-108 -113 -29 

59 28 2 
118 81 102 
31 115 -41 

-65 -32 7 
59 -5 74 
67 -89 13 

-118 -118 -56 
23 -34 -108 
-37 -62 -22 


-52 62 -125 
-74 -117 8 
-16 119 119 

-50 54 -1 
-127 39 -38 
64 80 -52 

-54 65 -89 
-99 13 81 
-35 109 -1 

-81 113 59 
35 -102 -10 
47 -122 -110 

-109 102 -100 
67 114 52 
-108 -113 -29 

59 28 2 
118 81 102 
31 115 -41 

-65 -32 7 
59 -5 74 
67 -89 13 

-118 -118 -56 
23 -34 -108 
-37 -62 -22 


-52 62 -125 
-74 -117 8 
-16 119 119 

-50 54 -1 
-127 39 -38 
64 80 -52 

-54 65 -89 
-99 13 81 
-35 109 -1 

-81 113 59 
35 -102 -10 
47 -122 -110 

-109 102 -100 
67 114 52 
-108 -113 -29 

59 28 2 
118 81 102 
31 115 -41 

-65 -32 7 
59 -5 74 
67 -89 13 

-118 -118 -56 
23 -34 -108 
-37 -62 -22 



-52 62 -125 
-74 -117 8 
-16 119 119 

-50 54 -1 
-127 39 -38 
64 80 -52 

-54 65 -89 
-99 13 81 
-35 109 -1 

-81 113 59 
35 -102 -10 
47 -122 -110 

-109 102 -100 
67 114 52 
-108 -113 -29 

59 28 2 
118 81 102 
31 115 -41 

-65 -32 7 
59 -5 74 
67 -89 13 

-118 -118 -56 
23 -34 -108 
-37 -62 -22 


-52 62 -125 
-74 -117 8 
-16 119 119 

-50 54 -1 
-127 39 -38 
64 80 -52 

-54 65 -89 
-99 13 81 
-35 109 -1 

-81 113 59 
35 -102 -10 
47 -122 -110 

-109 102 -100 
67 114 52 
-108 -113 -29 

59 28 2 
118 81 102 
31 115 -41 

-65 -32 7 
59 -5 74 
67 -89 13 

-118 -118 -56 
23 -34 -108 
-37 -62 -22 


-52 62 -125 
-74 -117 8 
-16 119 119 

-50 54 -1 
-127 39 -38 
64 80 -52 

-54 65 -89 
-99 13 81 
-35 109 -1 

-81 113 59 
35 -102 -10 
47 -122 -110 

-109 102 -100 
67 114 52 
-108 -113 -29 

59 28 2 
118 81 102 
31 115 -41 

-65 -32 7 
59 -5 74 
67 -89 13 

-118 -118 -56 
23 -34 -108 
-37 -62 -22 


-52 62 -125 
-74 -117 8 
-16 119 119 

-50 54 -1 
-127 39 -38 
64 80 -52 

-54 65 -89 
-99 13 81 
-35 109 -1 

-81 113 59 
35 -102 -10 
47 -122 -110 

-109 102 -100 
67 114 52 
-108 -113 -29 

59 28 2 
118 81 102 
31 115 -41 

-65 -32 7 
59 -5 74 
67 -89 13 

-118 -118 -56 
23 -34 -108 
-37 -62 -22 



-52 62 -125 
-74 -117 8 
-16 119 119 

-50 54 -1 
-127 39 -38 
64 80 -52 

-54 65 -89 
-99 13 81 
-35 109 -1 

-81 113 59 
35 -102 -10 
47 -122 -110 

-109 102 -100 
67 114 52 
-108 -113 -29 

59 28 2 
118 81 102 
31 115 -41 

-65 -32 7 
59 -5 74 
67 -89 13 

-118 -118 -56 
23 -34 -108 
-37 -62 -22 


-52 62 -125 
-74 -117 8 
-16 119 119 

-50 54 -1 
-127 39 -38 
64 80 -52 

-54 65 -89 
-99 13 81 
-35 109 -1 

-81 113 59 
35 -102 -10 
47 -122 -110 

-109 102 -100 
67 114 52 
-108 -113 -29 

59 28 2 
118 81 102 
31 115 -41 

-65 -32 7 
59 -5 74 
67 -89 13 

-118 -118 -56 
23 -34 -108 
-37 -62 -22 


-52 62 -125 
-74 -117 8 
-16 119 119 

-50 54 -1 
-127 39 -38 
64 80 -52 

-54 65 -89 
-99 13 81 
-35 109 -1 

-81 113 59 
35 -102 -10 
47 -122 -110 

-109 102 -100 
67 114 52 
-108 -113 -29 

59 28 2 
118 81 102 
31 115 -41 

-65 -32 7 
59 -5 74 
67 -89 13 

-118 -118 -56 
23 -34 -108 
-37 -62 -22 


-52 62 -125 
-74 -117 8 
-16 119 119 

-50 54 -1 
-127 39 -38 
64 80 -52 

-54 65 -89 
-99 13 81 
-35 109 -1 

-81 113 59 
35 -102 -10 
47 -122 -110 

-109 102 -100 
67 114 52 
-108 -113 -29 

59 28 2 
118 81 102 
31 115 -41 

-65 -32 7 
59 -5 74 
67 -89 13 

-118 -118 -56 
23 -34 -108 
-37 -62 -22 



-52 62 -125 
-74 -117 8 
-16 119 119 

-50 54 -1 
-127 39 -38 
64 80 -52 

-54 65 -89 
-99 13 81 
-35 109 -1 

-81 113 59 
35 -102 -10 
47 -122 -110 

-109 102 -100 
67 114 52 
-108 -113 -29 

59 28 2 
118 81 102 
31 115 -41 

-65 -32 7 
59 -5 74 
67 -89 13 

-118 -118 -56 
23 -34 -108 
-37 -62 -22 


-52 62 -125 
-74 -117 8 
-16 119 119 

-50 54 -1 
-127 39 -38 
64 80 -52 

-54 65 -89 
-99 13 81 
-35 109 -1 

-81 113 59 
35 -102 -10 
47 -122 -110 

-109 102 -100 
67 114 52 
-108 -113 -29 

59 28 2 
118 81 102 
31 115 -41 

-65 -32 7 
59 -5 74 
67 -89 13 

-118 -118 -56 
23 -34 -108 
-37 -62 -22 


-52 62 -125 
-74 -117 8 
-16 119 119 

-50 54 -1 
-127 39 -38 
64 80 -52 

-54 65 -89 
-99 13 81 
-35 109 -1 

-81 113 59 
35 -102 -10 
47 -122 -110 

-109 102 -100 
67 114 52 
-108 -113 -29 

59 28 2 
118 81 102 
31 115 -41 

-65 -32 7 
59 -5 74 
67 -89 13 

-118 -118 -56 
23 -34 -108 
-37 -62 -22 


-52 62 -125 
-74 -117 8 
-16 119 119 

-50 54 -1 
-127 39 -38 
64 80 -52 

-54 65 -89 
-99 13 81 
-35 109 -1 

-81 113 59 
35 -102 -10 
47 -122 -110 

-109 102 -100 
67 114 52 
-108 -113 -29 

59 28 2 
118 81 102 
31 115 -41 

-65 -32 7 
59 -5 74 
67 -89 13 

-118 -118 -56 
23 -34 -108 
-37 -62 -22 



-52 62 -125 
-74 -117 8 
-16 119 119 

-50 54 -1 
-127 39 -38 
64 80 -52 

-54 65 -89 
-99 13 81 
-35 109 -1 

-81 113 59 
35 -102 -10 
47 -122 -110 

-109 102 -100 
67 114 52 
-108 -113 -29 

59 28 2 
118 81 102 
31 115 -41 

-65 -32 7 
59 -5 74 
67 -89 13 

-118 -118 -56 
23 -34 -108 
-37 -62 -22 


-52 62 -125 
-74 -117 8 
-16 119 119 

-50 54 -1 
-127 39 -38 
64 80 -52 

-54 65 -89 
-99 13 81 
-35 109 -1 

-81 113 59 
35 -102 -10 
47 -122 -110 

-109 102 -100 
67 114 52 
-108 -113 -29 

59 28 2 
118 81 102 
31 115 -41 

-65 -32 7 
59 -5 74 
67 -89 13 

-118 -118 -56 
23 -34 -108 
-37 -62 -22 


-52 62 -125 
-74 -117 8 
-16 119 119 

-50 54 -1 
-127 39 -38 
64 80 -52 

-54 65 -89 
-99 13 81 
-35 109 -1 

-81 113 59 
35 -102 -10 
47 -122 -110 

-109 102 -100 
67 114 52 
-108 -113 -29 

59 28 2 
118 81 102 
31 115 -41 

-65 -32 7 
59 -5 74 
67 -89 13 

-118 -118 -56 
23 -34 -108 
-37 -62 -22 


-52 62 -125 
-74 -117 8 
-16 119 119 

-50 54 -1 
-127 39 -38 
64 80 -52 

-54 65 -89 
-99 13 81 
-35 109 -1 

-81 113 59 
35 -102 -10 
47 -122 -110 

-109 102 -100 
67 114 52 
-108 -113 -29 

59 28 2 
118 81 102 
31 115 -41 

-65 -32 7 
59 -5 74 
67 -89 13 

-118 -118 -56 
23 -34 -108 
-37 -62 -22 



-52 62 -125 
-74 -117 8 
-16 119 119 

-50 54 -1 
-127 39 -38 
64 80 -52 

-54 65 -89 
-99 13 81 
-35 109 -1 

-81 113 59 
35 -102 -10 
47 -122 -110 

-109 102 -100 
67 114 52 
-108 -113 -29 

59 28 2 
118 81 102 
31 115 -41 

-65 -32 7 
59 -5 74 
67 -89 13 

-118 -118 -56 
23 -34 -108 
-37 -62 -22 


-52 62 -125 
-74 -117 8 
-16 119 119 

-50 54 -1 
-127 39 -38 
64 80 -52 

-54 65 -89 
-99 13 81 
-35 109 -1 

-81 113 59 
35 -102 -10 
47 -122 -110 

-109 102 -100 
67 114 52 
-108 -113 -29 

59 28 2 
118 81 102 
31 115 -41 

-65 -32 7 
59 -5 74 
67 -89 13 

-118 -118 -56 
23 -34 -108 
-37 -62 -22 


-52 62 -125 
-74 -117 8 
-16 119 119 

-50 54 -1 
-127 39 -38 
64 80 -52 

-54 65 -89 
-99 13 81 
-35 109 -1 

-81 113 59 
35 -102 -10 
47 -122 -110 

-109 102 -100 
67 114 52 
-108 -113 -29 

59 28 2 
118 81 102 
31 115 -41 

-65 -32 7 
59 -5 74 
67 -89 13 

-118 -118 -56 
23 -34 -108 
-37 -62 -22 


-52 62 -125 
-74 -117 8 
-16 119 119 

-50 54 -1 
-127 39 -38 
64 80 -52 

-54 65 -89 
-99 13 81 
-35 109 -1 

-81 113 59 
35 -102 -10 
47 -122 -110 

-109 102 -100 
67 114 52 
-108 -113 -29 

59 28 2 
118 81 102 
31 115 -41 

-65 -32 7 
59 -5 74 
67 -89 13 

-118 -118 -56 
23 -34 -108 
-37 -62 -22 



-52 62 -125 
-74 -117 8 
-16 119 119 

-50 54 -1 
-127 39 -38 
64 80 -52 

-54 65 -89 
-99 13 81 
-35 109 -1 

-81 113 59 
35 -102 -10 
47 -122 -110 

-109 102 -100 
67 114 52 
-108 -113 -29 

59 28 2 
118 81 102 
31 115 -41 

-65 -32 7 
59 -5 74 
67 -89 13 

-118 -118 -56 
23 -34 -108 
-37 -62 -22 


-52 62 -125 
-74 -117 8 
-16 119 119 

-50 54 -1 
-127 39 -38 
64 80 -52 

-54 65 -89 
-99 13 81 
-35 109 -1 

-81 113 59 
35 -102 -10 
47 -122 -110 

-109 102 -100 
67 114 52 
-108 -113 -29 

59 28 2 
118 81 102 
31 115 -41 

-65 -32 7 
59 -5 74 
67 -89 13 

-118 -118 -56 
23 -34 -108 
-37 -62 -22 


-52 62 -125 
-74 -117 8 
-16 119 119 

-50 54 -1 
-127 39 -38 
64 80 -52 

-54 65 -89 
-99 13 81 
-35 109 -1 

-81 113 59 
35 -102 -10 
47 -122 -110 

-109 102 -100 
67 114 52 
-108 -113 -29 

59 28 2 
118 81 102 
31 115 -41 

-65 -32 7 
59 -5 74 
67 -89 13 

-118 -118 -56 
23 -34 -108 
-37 -62 -22 


-52 62 -125 
-74 -117 8 
-16 119 119 

-50 54 -1 
-127 39 -38 
64 80 -52 

-54 65 -89 
-99 13 81 
-35 109 -1 

-81 113 59 
35 -102 -10 
47 -122 -110 

-109 102 -100 
67 114 52 
-108 -113 -29 

59 28 2 
118 81 102 
31 115 -41 

-65 -32 7 
59 -5 74 
67 -89 13 

-118 -118 -56 
23 -34 -108 
-37 -62 -22 



-52 62 -125 
-74 -117 8 
-16 119 119 

-50 54 -1 
-127 39 -38 
64 80 -52 

-54 65 -89 
-99 13 81 
-35 109 -1 

-81 113 59 
35 -102 -10 
47 -122 -110 

-109 102 -100 
67 114 52 
-108 -113 -29 

59 28 2 
118 81 102 
31 115 -41 

-65 -32 7 
59 -5 74 
67 -89 13 

-118 -118 -56 
23 -34 -108 
-37 -62 -22 


-52 62 -125 
-74 -117 8 
-16 119 119 

-50 54 -1 
-127 39 -38 
64 80 -52 

-54 65 -89 
-99 13 81 
-35 109 -1 

-81 113 59 
35 -102 -10 
47 -122 -110 

-109 102 -100 
67 114 52 
-108 -113 -29 

59 28 2 
118 81 102 
31 115 -41 

-65 -32 7 
59 -5 74 
67 -89 13 

-118 -118 -56 
23 -34 -108 
-37 -62 -22 


-52 62 -125 
-74 -117 8 
-16 119 119 

-50 54 -1 
-127 39 -38 
64 80 -52 

-54 65 -89 
-99 13 81 
-35 109 -1 

-81 113 59 
35 -102 -10 
47 -122 -110 

-109 102 -100 
67 114 52 
-108 -113 -29 

59 28 2 
118 81 102 
31 115 -41 

-65 -32 7 
59 -5 74 
67 -89 13 

-118 -118 -56 
23 -34 -108 
-37 -62 -22 


-52 62 -125 
-74 -117 8 
-16 119 119 

-50 54 -1 
-127 39 -38 
64 80 -52 

-54 65 -89 
-99 13 81 
-35 109 -1 

-81 113 59 
35 -102 -10 
47 -122 -110 

-109 102 -100 
67 114 52 
-108 -113 -29 

59 28 2 
118 81 102 
31 115 -41 

-65 -32 7 
59 -5 74 
67 -89 13 

-118 -118 -56 
23 -34 -108 
-37 -62 -22 




-77 53 -104 
-53 106 11 
-27 27 -59 

-51 -102 115 
-22 20 -67 
-128 71 115 

49 -99 41 
111 124 -69 
8 13 17 

-79 -79 113 
-27 57 -119 
-126 60 87 

-83 -20 -15 
107 53 -10 
49 -115 44 

-90 -95 -113 
48 -37 108 
-127 -72 -70 

66 114 25 
93 -80 62 
42 47 -107 

-11 42 70 
-54 -49 -12 
-5 57 -123 


-77 53 -104 
-53 106 11 
-27 27 -59 

-51 -102 115 
-22 20 -67 
-128 71 115 

49 -99 41 
111 124 -69 
8 13 17 

-79 -79 113 
-27 57 -119 
-126 60 87 

-83 -20 -15 
107 53 -10 
49 -115 44 

-90 -95 -113 
48 -37 108 
-127 -72 -70 

66 114 25 
93 -80 62 
42 47 -107 

-11 42 70 
-54 -49 -12 
-5 57 -123 


-77 53 -104 
-53 106 11 
-27 27 -59 

-51 -102 115 
-22 20 -67 
-128 71 115 

49 -99 41 
111 124 -69 
8 13 17 

-79 -79 113 
-27 57 -119 
-126 60 87 

-83 -20 -15 
107 53 -10 
49 -115 44 

-90 -95 -113 
48 -37 108 
-127 -72 -70 

66 114 25 
93 -80 62 
42 47 -107 

-11 42 70 
-54 -49 -12 
-5 57 -123 


-77 53 -104 
-53 106 11 
-27 27 -59 

-51 -102 115 
-22 20 -67 
-128 71 115 

49 -99 41 
111 124 -69 
8 13 17 

-79 -79 113 
-27 57 -119 
-126 60 87 

-83 -20 -15 
107 53 -10 
49 -115 44 

-90 -95 -113 
48 -37 108 
-127 -72 -70 

66 114 25 
93 -80 62 
42 47 -107 

-11 42 70 
-54 -49 -12 
-5 57 -123 



-77 53 -104 
-53 106 11 
-27 27 -59 

-51 -102 115 
-22 20 -67 
-128 71 115 

49 -99 41 
111 124 -69 
8 13 17 

-79 -79 113 
-27 57 -119 
-126 60 87 

-83 -20 -15 
107 53 -10 
49 -115 44 

-90 -95 -113 
48 -37 108 
-127 -72 -70 

66 114 25 
93 -80 62 
42 47 -107 

-11 42 70 
-54 -49 -12 
-5 57 -123 


-77 53 -104 
-53 106 11 
-27 27 -59 

-51 -102 115 
-22 20 -67 
-128 71 115 

49 -99 41 
111 124 -69 
8 13 17 

-79 -79 113 
-27 57 -119 
-126 60 87 

-83 -20 -15 
107 53 -10 
49 -115 44 

-90 -95 -113 
48 -37 108 
-127 -72 -70 

66 114 25 
93 -80 62 
42 47 -107 

-11 42 70 
-54 -49 -12 
-5 57 -123 


-77 53 -104 
-53 106 11 
-27 27 -59 

-51 -102 115 
-22 20 -67 
-128 71 115 

49 -99 41 
111 124 -69 
8 13 17 

-79 -79 113 
-27 57 -119 
-126 60 87 

-83 -20 -15 
107 53 -10 
49 -115 44 

-90 -95 -113 
48 -37 108 
-127 -72 -70 

66 114 25 
93 -80 62 
42 47 -107 

-11 42 70 
-54 -49 -12 
-5 57 -123 


-77 53 -104 
-53 106 11 
-27 27 -59 

-51 -102 115 
-22 20 -67 
-128 71 115 

49 -99 41 
111 124 -69 
8 13 17 

-79 -79 113 
-27 57 -119 
-126 60 87 

-83 -20 -15 
107 53 -10 
49 -115 44 

-90 -95 -113 
48 -37 108 
-127 -72 -70 

66 114 25 
93 -80 62 
42 47 -107 

-11 42 70 
-54 -49 -12 
-5 57 -123 



-77 53 -104 
-53 106 11 
-27 27 -59 

-51 -102 115 
-22 20 -67 
-128 71 115 

49 -99 41 
111 124 -69 
8 13 17 

-79 -79 113 
-27 57 -119 
-126 60 87 

-83 -20 -15 
107 53 -10 
49 -115 44 

-90 -95 -113 
48 -37 108 
-127 -72 -70 

66 114 25 
93 -80 62 
42 47 -107 

-11 42 70 
-54 -49 -12 
-5 57 -123 


-77 53 -104 
-53 106 11 
-27 27 -59 

-51 -102 115 
-22 20 -67 
-128 71 115 

49 -99 41 
111 124 -69 
8 13 17 

-79 -79 113 
-27 57 -119 
-126 60 87 

-83 -20 -15 
107 53 -10 
49 -115 44 

-90 -95 -113 
48 -37 108 
-127 -72 -70 

66 114 25 
93 -80 62 
42 47 -107 

-11 42 70 
-54 -49 -12 
-5 57 -123 


-77 53 -104 
-53 106 11 
-27 27 -59 

-51 -102 115 
-22 20 -67 
-128 71 115 

49 -99 41 
111 124 -69 
8 13 17 

-79 -79 113 
-27 57 -119 
-126 60 87 

-83 -20 -15 
107 53 -10 
49 -115 44 

-90 -95 -113 
48 -37 108 
-127 -72 -70 

66 114 25 
93 -80 62 
42 47 -107 

-11 42 70 
-54 -49 -12 
-5 57 -123 


-77 53 -104 
-53 106 11 
-27 27 -59 

-51 -102 115 
-22 20 -67 
-128 71 115 

49 -99 41 
111 124 -69 
8 13 17 

-79 -79 113 
-27 57 -119 
-126 60 87 

-83 -20 -15 
107 53 -10 
49 -115 44 

-90 -95 -113 
48 -37 108 
-127 -72 -70 

66 114 25 
93 -80 62 
42 47 -107 

-11 42 70 
-54 -49 -12 
-5 57 -123 



-77 53 -104 
-53 106 11 
-27 27 -59 

-51 -102 115 
-22 20 -67 
-128 71 115 

49 -99 41 
111 124 -69 
8 13 17 

-79 -79 113 
-27 57 -119 
-126 60 87 

-83 -20 -15 
107 53 -10 
49 -115 44 

-90 -95 -113 
48 -37 108 
-127 -72 -70 

66 114 25 
93 -80 62 
42 47 -107 

-11 42 70 
-54 -49 -12 
-5 57 -123 


-77 53 -104 
-53 106 11 
-27 27 -59 

-51 -102 115 
-22 20 -67 
-128 71 115 

49 -99 41 
111 124 -69 
8 13 17 

-79 -79 113 
-27 57 -119 
-126 60 87 

-83 -20 -15 
107 53 -10 
49 -115 44 

-90 -95 -113 
48 -37 108 
-127 -72 -70 

66 114 25 
93 -80 62 
42 47 -107 

-11 42 70 
-54 -49 -12 
-5 57 -123 


-77 53 -104 
-53 106 11 
-27 27 -59 

-51 -102 115 
-22 20 -67 
-128 71 115 

49 -99 41 
111 124 -69 
8 13 17 

-79 -79 113 
-27 57 -119 
-126 60 87 

-83 -20 -15 
107 53 -10 
49 -115 44 

-90 -95 -113 
48 -37 108 
-127 -72 -70 

66 114 25 
93 -80 62 
42 47 -107 

-11 42 70 
-54 -49 -12 
-5 57 -123 


-77 53 -104 
-53 106 11 
-27 27 -59 

-51 -102 115 
-22 20 -67 
-128 71 115 

49 -99 41 
111 124 -69 
8 13 17 

-79 -79 113 
-27 57 -119 
-126 60 87 

-83 -20 -15 
107 53 -10 
49 -115 44 

-90 -95 -113 
48 -37 108 
-127 -72 -70 

66 114 25 
93 -80 62 
42 47 -107 

-11 42 70 
-54 -49 -12 
-5 57 -123 



-77 53 -104 
-53 106 11 
-27 27 -59 

-51 -102 115 
-22 20 -67 
-128 71 115 

49 -99 41 
111 124 -69 
8 13 17 

-79 -79 113 
-27 57 -119 
-126 60 87 

-83 -20 -15 
107 53 -10 
49 -115 44 

-90 -95 -113 
48 -37 108 
-127 -72 -70 

66 114 25 
93 -80 62 
42 47 -107 

-11 42 70 
-54 -49 -12 
-5 57 -123 


-77 53 -104 
-53 106 11 
-27 27 -59 

-51 -102 115 
-22 20 -67 
-128 71 115 

49 -99 41 
111 124 -69 
8 13 17 

-79 -79 113 
-27 57 -119 
-126 60 87 

-83 -20 -15 
107 53 -10 
49 -115 44 

-90 -95 -113 
48 -37 108 
-127 -72 -70 

66 114 25 
93 -80 62 
42 47 -107 

-11 42 70 
-54 -49 -12 
-5 57 -123 


-77 53 -104 
-53 106 11 
-27 27 -59 

-51 -102 115 
-22 20 -67 
-128 71 115 

49 -99 41 
111 124 -69 
8 13 17 

-79 -79 113 
-27 57 -119 
-126 60 87 

-83 -20 -15 
107 53 -10 
49 -115 44 

-90 -95 -113 
48 -37 108 
-127 -72 -70 

66 114 25 
93 -80 62 
42 47 -107 

-11 42 70 
-54 -49 -12 
-5 57 -123 


-77 53 -104 
-53 106 11 
-27 27 -59 

-51 -102 115 
-22 20 -67 
-128 71 115 

49 -99 41 
111 124 -69 
8 13 17 

-79 -79 113 
-27 57 -119 
-126 60 87 

-83 -20 -15 
107 53 -10 
49 -115 44 

-90 -95 -113 
48 -37 108 
-127 -72 -70 

66 114 25 
93 -80 62 
42 47 -107 

-11 42 70 
-54 -49 -12 
-5 57 -123 



-77 53 -104 
-53 106 11 
-27 27 -59 

-51 -102 115 
-22 20 -67 
-128 71 115 

49 -99 41 
111 124 -69 
8 13 17 

-79 -79 113 
-27 57 -119 
-126 60 87 

-83 -20 -15 
107 53 -10 
49 -115 44 

-90 -95 -113 
48 -37 108 
-127 -72 -70 

66 114 25 
93 -80 62 
42 47 -107 

-11 42 70 
-54 -49 -12 
-5 57 -123 


-77 53 -104 
-53 106 11 
-27 27 -59 

-51 -102 115 
-22 20 -67 
-128 71 115 

49 -99 41 
111 124 -69 
8 13 17 

-79 -79 113 
-27 57 -119 
-126 60 87 

-83 -20 -15 
107 53 -10 
49 -115 44 

-90 -95 -113 
48 -37 108 
-127 -72 -70 

66 114 25 
93 -80 62 
42 47 -107 

-11 42 70 
-54 -49 -12 
-5 57 -123 


-77 53 -104 
-53 106 11 
-27 27 -59 

-51 -102 115 
-22 20 -67 
-128 71 115 

49 -99 41 
111 124 -69 
8 13 17 

-79 -79 113 
-27 57 -119 
-126 60 87 

-83 -20 -15 
107 53 -10 
49 -115 44 

-90 -95 -113 
48 -37 108 
-127 -72 -70 

66 114 25 
93 -80 62 
42 47 -107 

-11 42 70 
-54 -49 -12 
-5 57 -123 


-77 53 -104 
-53 106 11 
-27 27 -59 

-51 -102 115 
-22 20 -67 
-128 71 115 

49 -99 41 
111 124 -69 
8 13 17 

-79 -79 113 
-27 57 -119 
-126 60 87 

-83 -20 -15 
107 53 -10 
49 -115 44 

-90 -95 -113 
48 -37 108 
-127 -72 -70 

66 114 25 
93 -80 62 
42 47 -107 

-11 42 70 
-54 -49 -12 
-5 57 -123 



-77 53 -104 
-53 106 11 
-27 27 -59 

-51 -102 115 
-22 20 -67 
-128 71 115 

49 -99 41 
111 124 -69 
8 13 17 

-79 -79 113 
-27 57 -119 
-126 60 87 

-83 -20 -15 
107 53 -10 
49 -115 44 

-90 -95 -113 
48 -37 108 
-127 -72 -70 

66 114 25 
93 -80 62 
42 47 -107 

-11 42 70 
-54 -49 -12 
-5 57 -123 


-77 53 -104 
-53 106 11 
-27 27 -59 

-51 -102 115 
-22 20 -67 
-128 71 115 

49 -99 41 
111 124 -69 
8 13 17 

-79 -79 113 
-27 57 -119 
-126 60 87 

-83 -20 -15 
107 53 -10 
49 -115 44 

-90 -95 -113 
48 -37 108 
-127 -72 -70 

66 114 25 
93 -80 62 
42 47 -107 

-11 42 70 
-54 -49 -12 
-5 57 -123 


-77 53 -104 
-53 106 11 
-27 27 -59 

-51 -102 115 
-22 20 -67 
-128 71 115 

49 -99 41 
111 124 -69 
8 13 17 

-79 -79 113 
-27 57 -119 
-126 60 87 

-83 -20 -15 
107 53 -10 
49 -115 44 

-90 -95 -113 
48 -37 108 
-127 -72 -70 

66 114 25 
93 -80 62 
42 47 -107 

-11 42 70 
-54 -49 -12 
-5 57 -123 


-77 53 -104 
-53 106 11 
-27 27 -59 

-51 -102 115 
-22 20 -67 
-128 71 115 

49 -99 41 
111 124 -69 
8 13 17 

-79 -79 113 
-27 57 -119 
-126 60 87 

-83 -20 -15 
107 53 -10 
49 -115 44 

-90 -95 -113 
48 -37 108 
-127 -72 -70 

66 114 25 
93 -80 62 
42 47 -107 

-11 42 70 
-54 -49 -12 
-5 57 -123 



-77 53 -104 
-53 106 11 
-27 27 -59 

-51 -102 115 
-22 20 -67 
-128 71 115 

49 -99 41 
111 124 -69 
8 13 17 

-79 -79 113 
-27 57 -119 
-126 60 87 

-83 -20 -15 
107 53 -10 
49 -115 44 

-90 -95 -113 
48 -37 108 
-127 -72 -70 

66 114 25 
93 -80 62 
42 47 -107 

-11 42 70 
-54 -49 -12 
-5 57 -123 


-77 53 -104 
-53 106 11 
-27 27 -59 

-51 -102 115 
-22 20 -67 
-128 71 115 

49 -99 41 
111 124 -69 
8 13 17 

-79 -79 113 
-27 57 -119 
-126 60 87 

-83 -20 -15 
107 53 -10 
49 -115 44 

-90 -95 -113 
48 -37 108 
-127 -72 -70 

66 114 25 
93 -80 62 
42 47 -107 

-11 42 70 
-54 -49 -12 
-5 57 -123 


-77 53 -104 
-53 106 11 
-27 27 -59 

-51 -102 115 
-22 20 -67 
-128 71 115 

49 -99 41 
111 124 -69 
8 13 17 

-79 -79 113 
-27 57 -119 
-126 60 87 

-83 -20 -15 
107 53 -10 
49 -115 44 

-90 -95 -113 
48 -37 108 
-127 -72 -70 

66 114 25 
93 -80 62 
42 47 -107 

-11 42 70 
-54 -49 -12 
-5 57 -123 


-77 53 -104 
-53 106 11 
-27 27 -59 

-51 -102 115 
-22 20 -67 
-128 71 115 

49 -99 41 
111 124 -69 
8 13 17 

-79 -79 113 
-27 57 -119 
-126 60 87 

-83 -20 -15 
107 53 -10 
49 -115 44 

-90 -95 -113 
48 -37 108 
-127 -72 -70 

66 114 25 
93 -80 62 
42 47 -107 

-11 42 70 
-54 -49 -12 
-5 57 -123 



-77 53 -104 
-53 106 11 
-27 27 -59 

-51 -102 115 
-22 20 -67 
-128 71 115 

49 -99 41 
111 124 -69 
8 13 17 

-79 -79 113 
-27 57 -119 
-126 60 87 

-83 -20 -15 
107 53 -10 
49 -115 44 

-90 -95 -113 
48 -37 108 
-127 -72 -70 

66 114 25 
93 -80 62 
42 47 -107 

-11 42 70 
-54 -49 -12 
-5 57 -123 


-77 53 -104 
-53 106 11 
-27 27 -59 

-51 -102 115 
-22 20 -67 
-128 71 115 

49 -99 41 
111 124 -69 
8 13 17 

-79 -79 113 
-27 57 -119 
-126 60 87 

-83 -20 -15 
107 53 -10 
49 -115 44 

-90 -95 -113 
48 -37 108 
-127 -72 -70 

66 114 25 
93 -80 62 
42 47 -107 

-11 42 70 
-54 -49 -12 
-5 57 -123 


-77 53 -104 
-53 106 11 
-27 27 -59 

-51 -102 115 
-22 20 -67 
-128 71 115 

49 -99 41 
111 124 -69 
8 13 17 

-79 -79 113 
-27 57 -119 
-126 60 87 

-83 -20 -15 
107 53 -10 
49 -115 44 

-90 -95 -113 
48 -37 108 
-127 -72 -70 

66 114 25 
93 -80 62 
42 47 -107 

-11 42 70 
-54 -49 -12 
-5 57 -123 


-77 53 -104 
-53 106 11 
-27 27 -59 

-51 -102 115 
-22 20 -67 
-128 71 115 

49 -99 41 
111 124 -69 
8 13 17 

-79 -79 113 
-27 57 -119 
-126 60 87 

-83 -20 -15 
107 53 -10 
49 -115 44 

-90 -95 -113 
48 -37 108 
-127 -72 -70 

66 114 25 
93 -80 62 
42 47 -107 

-11 42 70 
-54 -49 -12 
-5 57 -123 



-77 53 -104 
-53 106 11 
-27 27 -59 

-51 -102 115 
-22 20 -67 
-128 71 115 

49 -99 41 
111 124 -69 
8 13 17 

-79 -79 113 
-27 57 -119 
-126 60 87 

-83 -20 -15 
107 53 -10 
49 -115 44 

-90 -95 -113 
48 -37 108 
-127 -72 -70 

66 114 25 
93 -80 62 
42 47 -107 

-11 42 70 
-54 -49 -12 
-5 57 -123 


-77 53 -104 
-53 106 11 
-27 27 -59 

-51 -102 115 
-22 20 -67 
-128 71 115 

49 -99 41 
111 124 -69 
8 13 17 

-79 -79 113 
-27 57 -119 
-126 60 87 

-83 -20 -15 
107 53 -10 
49 -115 44 

-90 -95 -113 
48 -37 108 
-127 -72 -70 

66 114 25 
93 -80 62 
42 47 -107 

-11 42 70 
-54 -49 -12 
-5 57 -123 


-77 53 -104 
-53 106 11 
-27 27 -59 

-51 -102 115 
-22 20 -67 
-128 71 115 

49 -99 41 
111 124 -69 
8 13 17 

-79 -79 113 
-27 57 -119 
-126 60 87 

-83 -20 -15 
107 53 -10 
49 -115 44 

-90 -95 -113 
48 -37 108 
-127 -72 -70 

66 114 25 
93 -80 62 
42 47 -107 

-11 42 70 
-54 -49 -12 
-5 57 -123 


-77 53 -104 
-53 106 11 
-27 27 -59 

-51 -102 115 
-22 20 -67 
-128 71 115 

49 -99 41 
111 124 -69 
8 13 17 

-79 -79 113 
-27 57 -119 
-126 60 87 

-83 -20 -15 
107 53 -10 
49 -115 44 

-90 -95 -113 
48 -37 108 
-127 -72 -70 

66 114 25 
93 -80 62 
42 47 -107 

-11 42 70 
-54 -49 -12 
-5 57 -123 



-77 53 -104 
-53 106 11 
-27 27 -59 

-51 -102 115 
-22 20 -67 
-128 71 115 

49 -99 41 
111 124 -69 
8 13 17 

-79 -79 113 
-27 57 -119 
-126 60 87 

-83 -20 -15 
107 53 -10 
49 -115 44 

-90 -95 -113 
48 -37 108 
-127 -72 -70 

66 114 25 
93 -80 62 
42 47 -107 

-11 42 70 
-54 -49 -12 
-5 57 -123 


-77 53 -104 
-53 106 11 
-27 27 -59 

-51 -102 115 
-22 20 -67 
-128 71 115 

49 -99 41 
111 124 -69 
8 13 17 

-79 -79 113 
-27 57 -119 
-126 60 87 

-83 -20 -15 
107 53 -10 
49 -115 44 

-90 -95 -113 
48 -37 108 
-127 -72 -70 

66 114 25 
93 -80 62 
42 47 -107 

-11 42 70 
-54 -49 -12 
-5 57 -123 


-77 53 -104 
-53 106 11 
-27 27 -59 

-51 -102 115 
-22 20 -67 
-128 71 115 

49 -99 41 
111 124 -69 
8 13 17 

-79 -79 113 
-27 57 -119 
-126 60 87 

-83 -20 -15 
107 53 -10 
49 -115 44 

-90 -95 -113 
48 -37 108 
-127 -72 -70 

66 114 25 
93 -80 62 
42 47 -107 

-11 42 70 
-54 -49 -12 
-5 57 -123 


-77 53 -104 
-53 106 11 
-27 27 -59 

-51 -102 115 
-22 20 -67 
-128 71 115 

49 -99 41 
111 124 -69 
8 13 17 

-79 -79 113 
-27 57 -119 
-126 60 87 

-83 -20 -15 
107 53 -10 
49 -115 44 

-90 -95 -113 
48 -37 108 
-127 -72 -70 

66 114 25 
93 -80 62 
42 47 -107 

-11 42 70 
-54 -49 -12 
-5 57 -123 



-77 53 -104 
-53 106 11 
-27 27 -59 

-51 -102 115 
-22 20 -67 
-128 71 115 

49 -99 41 
111 124 -69 
8 13 17 

-79 -79 113 
-27 57 -119 
-126 60 87 

-83 -20 -15 
107 53 -10 
49 -115 44 

-90 -95 -113 
48 -37 108 
-127 -72 -70 

66 114 25 
93 -80 62 
42 47 -107 

-11 42 70 
-54 -49 -12 
-5 57 -123 


-77 53 -104 
-53 106 11 
-27 27 -59 

-51 -102 115 
-22 20 -67 
-128 71 115 

49 -99 41 
111 124 -69 
8 13 17 

-79 -79 113 
-27 57 -119 
-126 60 87 

-83 -20 -15 
107 53 -10 
49 -115 44 

-90 -95 -113 
48 -37 108 
-127 -72 -70 

66 114 25 
93 -80 62 
42 47 -107 

-11 42 70 
-54 -49 -12 
-5 57 -123 


-77 53 -104 
-53 106 11 
-27 27 -59 

-51 -102 115 
-22 20 -67 
-128 71 115 

49 -99 41 
111 124 -69 
8 13 17 

-79 -79 113 
-27 57 -119 
-126 60 87 

-83 -20 -15 
107 53 -10 
49 -115 44 

-90 -95 -113 
48 -37 108 
-127 -72 -70 

66 114 25 
93 -80 62 
42 47 -107 

-11 42 70 
-54 -49 -12 
-5 57 -123 


-77 53 -104 
-53 106 11 
-27 27 -59 

-51 -102 115 
-22 20 -67 
-128 71 115 

49 -99 41 
111 124 -69 
8 13 17 

-79 -79 113 
-27 57 -119 
-126 60 87 

-83 -20 -15 
107 53 -10 
49 -115 44 

-90 -95 -113 
48 -37 108 
-127 -72 -70 

66 114 25 
93 -80 62 
42 47 -107 

-11 42 70 
-54 -49 -12 
-5 57 -123 



-77 53 -104 
-53 106 11 
-27 27 -59 

-51 -102 115 
-22 20 -67 
-128 71 115 

49 -99 41 
111 124 -69 
8 13 17 

-79 -79 113 
-27 57 -119 
-126 60 87 

-83 -20 -15 
107 53 -10 
49 -115 44 

-90 -95 -113 
48 -37 108 
-127 -72 -70 

66 114 25 
93 -80 62 
42 47 -107 

-11 42 70 
-54 -49 -12 
-5 57 -123 


-77 53 -104 
-53 106 11 
-27 27 -59 

-51 -102 115 
-22 20 -67 
-128 71 115 

49 -99 41 
111 124 -69 
8 13 17 

-79 -79 113 
-27 57 -119 
-126 60 87 

-83 -20 -15 
107 53 -10 
49 -115 44 

-90 -95 -113 
48 -37 108 
-127 -72 -70 

66 114 25 
93 -80 62 
42 47 -107 

-11 42 70 
-54 -49 -12 
-5 57 -123 


-77 53 -104 
-53 106 11 
-27 27 -59 

-51 -102 115 
-22 20 -67 
-128 71 115 

49 -99 41 
111 124 -69 
8 13 17 

-79 -79 113 
-27 57 -119 
-126 60 87 

-83 -20 -15 
107 53 -10 
49 -115 44 

-90 -95 -113 
48 -37 108 
-127 -72 -70 

66 114 25 
93 -80 62 
42 47 -107 

-11 42 70 
-54 -49 -12 
-5 57 -123 


-77 53 -104 
-53 106 11 
-27 27 -59 

-51 -102 115 
-22 20 -67 
-128 71 115 

49 -99 41 
111 124 -69 
8 13 17 

-79 -79 113 
-27 57 -119 
-126 60 87 

-83 -20 -15 
107 53 -10 
49 -115 44 

-90 -95 -113 
48 -37 108 
-127 -72 -70 

66 114 25 
93 -80 62 
42 47 -107 

-11 42 70 
-54 -49 -12 
-5 57 -123 




-49 88 52 
-119 -60 -73 
77 -69 71 

-78 -38 -18 
113 -46 -32 
77 -9 23 

-19 56 -93 
63 -83 33 
64 125 1 

-121 12 25 
-78 122 -53 
-64 -116 9 

-17 56 21 
38 -71 -102 
-123 -108 -94 

-127 4 -113 
-51 -119 60 
69 10 119 

40 30 -64 
124 101 82 
-10 122 100 

-87 -54 -10 
-87 10 -83 
69 -98 78 


-49 88 52 
-119 -60 -73 
77 -69 71 

-78 -38 -18 
113 -46 -32 
77 -9 23 

-19 56 -93 
63 -83 33 
64 125 1 

-121 12 25 
-78 122 -53 
-64 -116 9 

-17 56 21 
38 -71 -102 
-123 -108 -94 

-127 4 -113 
-51 -119 60 
69 10 119 

40 30 -64 
124 101 82 
-10 122 100 

-87 -54 -10 
-87 10 -83 
69 -98 78 


-49 88 52 
-119 -60 -73 
77 -69 71 

-78 -38 -18 
113 -46 -32 
77 -9 23 

-19 56 -93 
63 -83 33 
64 125 1 

-121 12 25 
-78 122 -53 
-64 -116 9 

-17 56 21 
38 -71 -102 
-123 -108 -94 

-127 4 -113 
-51 -119 60 
69 10 119 

40 30 -64 
124 101 82 
-10 122 100 

-87 -54 -10 
-87 10 -83 
69 -98 78 


-49 88 52 
-119 -60 -73 
77 -69 71 

-78 -38 -18 
113 -46 -32 
77 -9 23 

-19 56 -93 
63 -83 33 
64 125 1 

-121 12 25 
-78 122 -53 
-64 -116 9 

-17 56 21 
38 -71 -102 
-123 -108 -94 

-127 4 -113 
-51 -119 60 
69 10 119 

40 30 -64 
124 101 82 
-10 122 100 

-87 -54 -10 
-87 10 -83 
69 -98 78 



-49 88 52 
-119 -60 -73 
77 -69 71 

-78 -38 -18 
113 -46 -32 
77 -9 23 

-19 56 -93 
63 -83 33 
64 125 1 

-121 12 25 
-78 122 -53 
-64 -116 9 

-17 56 21 
38 -71 -102 
-123 -108 -94 

-127 4 -113 
-51 -119 60 
69 10 119 

40 30 -64 
124 101 82 
-10 122 100 

-87 -54 -10 
-87 10 -83 
69 -98 78 


-49 88 52 
-119 -60 -73 
77 -69 71 

-78 -38 -18 
113 -46 -32 
77 -9 23 

-19 56 -93 
63 -83 33 
64 125 1 

-121 12 25 
-78 122 -53 
-64 -116 9 

-17 56 21 
38 -71 -102 
-123 -108 -94 

-127 4 -113 
-51 -119 60 
69 10 119 

40 30 -64 
124 101 82 
-10 122 100 

-87 -54 -10 
-87 10 -83 
69 -98 78 


-49 88 52 
-119 -60 -73 
77 -69 71 

-78 -38 -18 
113 -46 -32 
77 -9 23 

-19 56 -93 
63 -83 33 
64 125 1 

-121 12 25 
-78 122 -53 
-64 -116 9 

-17 56 21 
38 -71 -102 
-123 -108 -94 

-127 4 -113 
-51 -119 60 
69 10 119 

40 30 -64 
124 101 82 
-10 122 100 

-87 -54 -10 
-87 10 -83 
69 -98 78 


-49 88 52 
-119 -60 -73 
77 -69 71 

-78 -38 -18 
113 -46 -32 
77 -9 23 

-19 56 -93 
63 -83 33 
64 125 1 

-121 12 25 
-78 122 -53 
-64 -116 9 

-17 56 21 
38 -71 -102 
-123 -108 -94 

-127 4 -113 
-51 -119 60 
69 10 119 

40 30 -64 
124 101 82 
-10 122 100 

-87 -54 -10 
-87 10 -83 
69 -98 78 



-49 88 52 
-119 -60 -73 
77 -69 71 

-78 -38 -18 
113 -46 -32 
77 -9 23 

-19 56 -93 
63 -83 33 
64 125 1 

-121 12 25 
-78 122 -53 
-64 -116 9 

-17 56 21 
38 -71 -102 
-123 -108 -94 

-127 4 -113 
-51 -119 60 
69 10 119 

40 30 -64 
124 101 82 
-10 122 100 

-87 -54 -10 
-87 10 -83 
69 -98 78 


-49 88 52 
-119 -60 -73 
77 -69 71 

-78 -38 -18 
113 -46 -32 
77 -9 23 

-19 56 -93 
63 -83 33 
64 125 1 

-121 12 25 
-78 122 -53 
-64 -116 9 

-17 56 21 
38 -71 -102 
-123 -108 -94 

-127 4 -113 
-51 -119 60 
69 10 119 

40 30 -64 
124 101 82 
-10 122 100 

-87 -54 -10 
-87 10 -83 
69 -98 78 


-49 88 52 
-119 -60 -73 
77 -69 71 

-78 -38 -18 
113 -46 -32 
77 -9 23 

-19 56 -93 
63 -83 33 
64 125 1 

-121 12 25 
-78 122 -53 
-64 -116 9 

-17 56 21 
38 -71 -102 
-123 -108 -94 

-127 4 -113 
-51 -119 60 
69 10 119 

40 30 -64 
124 101 82 
-10 122 100 

-87 -54 -10 
-87 10 -83 
69 -98 78 


-49 88 52 
-119 -60 -73 
77 -69 71 

-78 -38 -18 
113 -46 -32 
77 -9 23 

-19 56 -93 
63 -83 33 
64 125 1 

-121 12 25 
-78 122 -53 
-64 -116 9 

-17 56 21 
38 -71 -102 
-123 -108 -94 

-127 4 -113 
-51 -119 60 
69 10 119 

40 30 -64 
124 101 82 
-10 122 100 

-87 -54 -10 
-87 10 -83 
69 -98 78 



-49 88 52 
-119 -60 -73 
77 -69 71 

-78 -38 -18 
113 -46 -32 
77 -9 23 

-19 56 -93 
63 -83 33 
64 125 1 

-121 12 25 
-78 122 -53 
-64 -116 9 

-17 56 21 
38 -71 -102 
-123 -108 -94 

-127 4 -113 
-51 -119 60 
69 10 119 

40 30 -64 
124 101 82 
-10 122 100 

-87 -54 -10 
-87 10 -83 
69 -98 78 


-49 88 52 
-119 -60 -73 
77 -69 71 

-78 -38 -18 
113 -46 -32 
77 -9 23 

-19 56 -93 
63 -83 33 
64 125 1 

-121 12 25 
-78 122 -53 
-64 -116 9 

-17 56 21 
38 -71 -102 
-123 -108 -94 

-127 4 -113 
-51 -119 60 
69 10 119 

40 30 -64 
124 101 82 
-10 122 100 

-87 -54 -10 
-87 10 -83 
69 -98 78 


-49 88 52 
-119 -60 -73 
77 -69 71 

-78 -38 -18 
113 -46 -32 
77 -9 23 

-19 56 -93 
63 -83 33 
64 125 1 

-121 12 25 
-78 122 -53 
-64 -116 9 

-17 56 21 
38 -71 -102 
-123 -108 -94 

-127 4 -113 
-51 -119 60 
69 10 119 

40 30 -64 
124 101 82 
-10 122 100 

-87 -54 -10 
-87 10 -83 
69 -98 78 


-49 88 52 
-119 -60 -73 
77 -69 71 

-78 -38 -18 
113 -46 -32 
77 -9 23 

-19 56 -93 
63 -83 33 
64 125 1 

-121 12 25 
-78 122 -53 
-64 -116 9 

-17 56 21 
38 -71 -102 
-123 -108 -94 

-127 4 -113 
-51 -119 60 
69 10 119 

40 30 -64 
124 101 82 
-10 122 100 

-87 -54 -10 
-87 10 -83 
69 -98 78 



-49 88 52 
-119 -60 -73 
77 -69 71 

-78 -38 -18 
113 -46 -32 
77 -9 23 

-19 56 -93 
63 -83 33 
64 125 1 

-121 12 25 
-78 122 -53 
-64 -116 9 

-17 56 21 
38 -71 -102 
-123 -108 -94 

-127 4 -113 
-51 -119 60 
69 10 119 

40 30 -64 
124 101 82 
-10 122 100 

-87 -54 -10 
-87 10 -83 
69 -98 78 


-49 88 52 
-119 -60 -73 
77 -69 71 

-78 -38 -18 
113 -46 -32 
77 -9 23 

-19 56 -93 
63 -83 33 
64 125 1 

-121 12 25 
-78 122 -53 
-64 -116 9 

-17 56 21 
38 -71 -102 
-123 -108 -94 

-127 4 -113 
-51 -119 60 
69 10 119 

40 30 -64 
124 101 82 
-10 122 100 

-87 -54 -10 
-87 10 -83 
69 -98 78 


-49 88 52 
-119 -60 -73 
77 -69 71 

-78 -38 -18 
113 -46 -32 
77 -9 23 

-19 56 -93 
63 -83 33 
64 125 1 

-121 12 25 
-78 122 -53 
-64 -116 9 

-17 56 21 
38 -71 -102 
-123 -108 -94 

-127 4 -113 
-51 -119 60 
69 10 119 

40 30 -64 
124 101 82 
-10 122 100 

-87 -54 -10 
-87 10 -83 
69 -98 78 


-49 88 52 
-119 -60 -73 
77 -69 71 

-78 -38 -18 
113 -46 -32 
77 -9 23 

-19 56 -93 
63 -83 33 
64 125 1 

-121 12 25 
-78 122 -53 
-64 -116 9 

-17 56 21 
38 -71 -102 
-123 -108 -94 

-127 4 -113 
-51 -119 60 
69 10 119 

40 30 -64 
124 101 82 
-10 122 100 

-87 -54 -10 
-87 10 -83 
69 -98 78 



-49 88 52 
-119 -60 -73 
77 -69 71 

-78 -38 -18 
113 -46 -32 
77 -9 23 

-19 56 -93 
63 -83 33 
64 125 1 

-121 12 25 
-78 122 -53 
-64 -116 9 

-17 56 21 
38 -71 -102 
-123 -108 -94 

-127 4 -113 
-51 -119 60 
69 10 119 

40 30 -64 
124 101 82 
-10 122 100 

-87 -54 -10 
-87 10 -83 
69 -98 78 


-49 88 52 
-119 -60 -73 
77 -69 71 

-78 -38 -18 
113 -46 -32 
77 -9 23 

-19 56 -93 
63 -83 33 
64 125 1 

-121 12 25 
-78 122 -53 
-64 -116 9 

-17 56 21 
38 -71 -102 
-123 -108 -94 

-127 4 -113 
-51 -119 60 
69 10 119 

40 30 -64 
124 101 82 
-10 122 100 

-87 -54 -10 
-87 10 -83 
69 -98 78 


-49 88 52 
-119 -60 -73 
77 -69 71 

-78 -38 -18 
113 -46 -32 
77 -9 23 

-19 56 -93 
63 -83 33 
64 125 1 

-121 12 25 
-78 122 -53 
-64 -116 9 

-17 56 21 
38 -71 -102 
-123 -108 -94 

-127 4 -113 
-51 -119 60 
69 10 119 

40 30 -64 
124 101 82 
-10 122 100 

-87 -54 -10 
-87 10 -83 
69 -98 78 


-49 88 52 
-119 -60 -73 
77 -69 71 

-78 -38 -18 
113 -46 -32 
77 -9 23 

-19 56 -93 
63 -83 33 
64 125 1 

-121 12 25 
-78 122 -53 
-64 -116 9 

-17 56 21 
38 -71 -102 
-123 -108 -94 

-127 4 -113 
-51 -119 60 
69 10 119 

40 30 -64 
124 101 82 
-10 122 100 

-87 -54 -10 
-87 10 -83 
69 -98 78 



-49 88 52 
-119 -60 -73 
77 -69 71 

-78 -38 -18 
113 -46 -32 
77 -9 23 

-19 56 -93 
63 -83 33 
64 125 1 

-121 12 25 
-78 122 -53 
-64 -116 9 

-17 56 21 
38 -71 -102 
-123 -108 -94 

-127 4 -113 
-51 -119 60 
69 10 119 

40 30 -64 
124 101 82 
-10 122 100 

-87 -54 -10 
-87 10 -83 
69 -98 78 


-49 88 52 
-119 -60 -73 
77 -69 71 

-78 -38 -18 
113 -46 -32 
77 -9 23 

-19 56 -93 
63 -83 33 
64 125 1 

-121 12 25 
-78 122 -53 
-64 -116 9 

-17 56 21 
38 -71 -102 
-123 -108 -94 

-127 4 -113 
-51 -119 60 
69 10 119 

40 30 -64 
124 101 82 
-10 122 100 

-87 -54 -10 
-87 10 -83 
69 -98 78 


-49 88 52 
-119 -60 -73 
77 -69 71 

-78 -38 -18 
113 -46 -32 
77 -9 23 

-19 56 -93 
63 -83 33 
64 125 1 

-121 12 25 
-78 122 -53 
-64 -116 9 

-17 56 21 
38 -71 -102 
-123 -108 -94 

-127 4 -113 
-51 -119 60 
69 10 119 

40 30 -64 
124 101 82 
-10 122 100 

-87 -54 -10 
-87 10 -83 
69 -98 78 


-49 88 52 
-119 -60 -73 
77 -69 71 

-78 -38 -18 
113 -46 -32 
77 -9 23 

-19 56 -93 
63 -83 33 
64 125 1 

-121 12 25 
-78 122 -53 
-64 -116 9 

-17 56 21 
38 -71 -102 
-123 -108 -94 

-127 4 -113 
-51 -119 60 
69 10 119 

40 30 -64 
124 101 82 
-10 122 100 

-87 -54 -10 
-87 10 -83 
69 -98 78 



-49 88 52 
-119 -60 -73 
77 -69 71 

-78 -38 -18 
113 -46 -32 
77 -9 23 

-19 56 -93 
63 -83 33 
64 125 1 

-121 12 25 
-78 122 -53 
-64 -116 9 

-17 56 21 
38 -71 -102 
-123 -108 -94 

-127 4 -113 
-51 -119 60 
69 10 119 

40 30 -64 
124 101 82 
-10 122 100 

-87 -54 -10 
-87 10 -83 
69 -98 78 


-49 88 52 
-119 -60 -73 
77 -69 71 

-78 -38 -18 
113 -46 -32 
77 -9 23 

-19 56 -93 
63 -83 33 
64 125 1 

-121 12 25 
-78 122 -53 
-64 -116 9 

-17 56 21 
38 -71 -102 
-123 -108 -94 

-127 4 -113 
-51 -119 60 
69 10 119 

40 30 -64 
124 101 82 
-10 122 100 

-87 -54 -10 
-87 10 -83 
69 -98 78 


-49 88 52 
-119 -60 -73 
77 -69 71 

-78 -38 -18 
113 -46 -32 
77 -9 23 

-19 56 -93 
63 -83 33 
64 125 1 

-121 12 25 
-78 122 -53 
-64 -116 9 

-17 56 21 
38 -71 -102 
-123 -108 -94 

-127 4 -113 
-51 -119 60 
69 10 119 

40 30 -64 
124 101 82 
-10 122 100 

-87 -54 -10 
-87 10 -83 
69 -98 78 


-49 88 52 
-119 -60 -73 
77 -69 71 

-78 -38 -18 
113 -46 -32 
77 -9 23 

-19 56 -93 
63 -83 33 
64 125 1 

-121 12 25 
-78 122 -53 
-64 -116 9 

-17 56 21 
38 -71 -102 
-123 -108 -94 

-127 4 -113 
-51 -119 60 
69 10 119 

40 30 -64 
124 101 82 
-10 122 100 

-87 -54 -10 
-87 10 -83 
69 -98 78 



-49 88 52 
-119 -60 -73 
77 -69 71 

-78 -38 -18 
113 -46 -32 
77 -9 23 

-19 56 -93 
63 -83 33 
64 125 1 

-121 12 25 
-78 122 -53 
-64 -116 9 

-17 56 21 
38 -71 -102 
-123 -108 -94 

-127 4 -113 
-51 -119 60 
69 10 119 

40 30 -64 
124 101 82 
-10 122 100 

-87 -54 -10 
-87 10 -83 
69 -98 78 


-49 88 52 
-119 -60 -73 
77 -69 71 

-78 -38 -18 
113 -46 -32 
77 -9 23 

-19 56 -93 
63 -83 33 
64 125 1 

-121 12 25 
-78 122 -53 
-64 -116 9 

-17 56 21 
38 -71 -102 
-123 -108 -94 

-127 4 -113 
-51 -119 60 
69 10 119 

40 30 -64 
124 101 82 
-10 122 100 

-87 -54 -10 
-87 10 -83 
69 -98 78 


-49 88 52 
-119 -60 -73 
77 -69 71 

-78 -38 -18 
113 -46 -32 
77 -9 23 

-19 56 -93 
63 -83 33 
64 125 1 

-121 12 25 
-78 122 -53 
-64 -116 9 

-17 56 21 
38 -71 -102 
-123 -108 -94 

-127 4 -113 
-51 -119 60 
69 10 119 

40 30 -64 
124 101 82 
-10 122 100 

-87 -54 -10 
-87 10 -83 
69 -98 78 


-49 88 52 
-119 -60 -73 
77 -69 71 

-78 -38 -18 
113 -46 -32 
77 -9 23 

-19 56 -93 
63 -83 33 
64 125 1 

-121 12 25 
-78 122 -53 
-64 -116 9 

-17 56 21 
38 -71 -102 
-123 -108 -94 

-127 4 -113 
-51 -119 60 
69 10 119 

40 30 -64 
124 101 82 
-10 122 100 

-87 -54 -10 
-87 10 -83 
69 -98 78 



-49 88 52 
-119 -60 -73 
77 -69 71 

-78 -38 -18 
113 -46 -32 
77 -9 23 

-19 56 -93 
63 -83 33 
64 125 1 

-121 12 25 
-78 122 -53 
-64 -116 9 

-17 56 21 
38 -71 -102 
-123 -108 -94 

-127 4 -113 
-51 -119 60 
69 10 119 

40 30 -64 
124 101 82 
-10 122 100 

-87 -54 -10 
-87 10 -83 
69 -98 78 


-49 88 52 
-119 -60 -73 
77 -69 71 

-78 -38 -18 
113 -46 -32 
77 -9 23 

-19 56 -93 
63 -83 33 
64 125 1 

-121 12 25 
-78 122 -53 
-64 -116 9 

-17 56 21 
38 -71 -102 
-123 -108 -94 

-127 4 -113 
-51 -119 60 
69 10 119 

40 30 -64 
124 101 82 
-10 122 100 

-87 -54 -10 
-87 10 -83 
69 -98 78 


-49 88 52 
-119 -60 -73 
77 -69 71 

-78 -38 -18 
113 -46 -32 
77 -9 23 

-19 56 -93 
63 -83 33 
64 125 1 

-121 12 25 
-78 122 -53 
-64 -116 9 

-17 56 21 
38 -71 -102 
-123 -108 -94 

-127 4 -113 
-51 -119 60 
69 10 119 

40 30 -64 
124 101 82 
-10 122 100 

-87 -54 -10 
-87 10 -83 
69 -98 78 


-49 88 52 
-119 -60 -73 
77 -69 71 

-78 -38 -18 
113 -46 -32 
77 -9 23 

-19 56 -93 
63 -83 33 
64 125 1 

-121 12 25 
-78 122 -53 
-64 -116 9 

-17 56 21 
38 -71 -102 
-123 -108 -94 

-127 4 -113 
-51 -119 60 
69 10 119 

40 30 -64 
124 101 82 
-10 122 100 

-87 -54 -10 
-87 10 -83 
69 -98 78 



-49 88 52 
-119 -60 -73 
77 -69 71 

-78 -38 -18 
113 -46 -32 
77 -9 23 

-19 56 -93 
63 -83 33 
64 125 1 

-121 12 25 
-78 122 -53 
-64 -116 9 

-17 56 21 
38 -71 -102 
-123 -108 -94 

-127 4 -113 
-51 -119 60 
69 10 119 

40 30 -64 
124 101 82 
-10 122 100 

-87 -54 -10 
-87 10 -83 
69 -98 78 


-49 88 52 
-119 -60 -73 
77 -69 71 

-78 -38 -18 
113 -46 -32 
77 -9 23 

-19 56 -93 
63 -83 33 
64 125 1 

-121 12 25 
-78 122 -53 
-64 -116 9 

-17 56 21 
38 -71 -102 
-123 -108 -94 

-127 4 -113 
-51 -119 60 
69 10 119 

40 30 -64 
124 101 82 
-10 122 100 

-87 -54 -10 
-87 10 -83 
69 -98 78 


-49 88 52 
-119 -60 -73 
77 -69 71 

-78 -38 -18 
113 -46 -32 
77 -9 23 

-19 56 -93 
63 -83 33 
64 125 1 

-121 12 25 
-78 122 -53 
-64 -116 9 

-17 56 21 
38 -71 -102 
-123 -108 -94 

-127 4 -113 
-51 -119 60 
69 10 119 

40 30 -64 
124 101 82 
-10 122 100 

-87 -54 -10 
-87 10 -83 
69 -98 78 


-49 88 52 
-119 -60 -73 
77 -69 71 

-78 -38 -18 
113 -46 -32 
77 -9 23 

-19 56 -93 
63 -83 33 
64 125 1 

-121 12 25 
-78 122 -53 
-64 -116 9 

-17 56 21 
38 -71 -102 
-123 -108 -94 

-127 4 -113 
-51 -119 60 
69 10 119 

40 30 -64 
124 101 82 
-10 122 100 

-87 -54 -10 
-87 10 -83 
69 -98 78 



-49 88 52 
-119 -60 -73 
77 -69 71 

-78 -38 -18 
113 -46 -32 
77 -9 23 

-19 56 -93 
63 -83 33 
64 125 1 

-121 12 25 
-78 122 -53 
-64 -116 9 

-17 56 21 
38 -71 -102 
-123 -108 -94 

-127 4 -113 
-51 -119 60 
69 10 119 

40 30 -64 
124 101 82 
-10 122 100 

-87 -54 -10 
-87 10 -83 
69 -98 78 


-49 88 52 
-119 -60 -73 
77 -69 71 

-78 -38 -18 
113 -46 -32 
77 -9 23 

-19 56 -93 
63 -83 33 
64 125 1 

-121 12 25 
-78 122 -53 
-64 -116 9 

-17 56 21 
38 -71 -102 
-123 -108 -94 

-127 4 -113 
-51 -119 60 
69 10 119 

40 30 -64 
124 101 82 
-10 122 100 

-87 -54 -10 
-87 10 -83 
69 -98 78 


-49 88 52 
-119 -60 -73 
77 -69 71 

-78 -38 -18 
113 -46 -32 
77 -9 23 

-19 56 -93 
63 -83 33 
64 125 1 

-121 12 25 
-78 122 -53 
-64 -116 9 

-17 56 21 
38 -71 -102 
-123 -108 -94 

-127 4 -113 
-51 -119 60 
69 10 119 

40 30 -64 
124 101 82 
-10 122 100 

-87 -54 -10 
-87 10 -83 
69 -98 78 


-49 88 52 
-119 -60 -73 
77 -69 71 

-78 -38 -18 
113 -46 -32 
77 -9 23 

-19 56 -93 
63 -83 33 
64 125 1 

-121 12 25 
-78 122 -53 
-64 -116 9 

-17 56 21 
38 -71 -102 
-123 -108 -94 

-127 4 -113 
-51 -119 60 
69 10 119 

40 30 -64 
124 101 82 
-10 122 100 

-87 -54 -10 
-87 10 -83 
69 -98 78 



-49 88 52 
-119 -60 -73 
77 -69 71 

-78 -38 -18 
113 -46 -32 
77 -9 23 

-19 56 -93 
63 -83 33 
64 125 1 

-121 12 25 
-78 122 -53 
-64 -116 9 

-17 56 21 
38 -71 -102 
-123 -108 -94 

-127 4 -113 
-51 -119 60 
69 10 119 

40 30 -64 
124 101 82 
-10 122 100 

-87 -54 -10 
-87 10 -83 
69 -98 78 


-49 88 52 
-119 -60 -73 
77 -69 71 

-78 -38 -18 
113 -46 -32 
77 -9 23 

-19 56 -93 
63 -83 33 
64 125 1 

-121 12 25 
-78 122 -53 
-64 -116 9 

-17 56 21 
38 -71 -102 
-123 -108 -94 

-127 4 -113 
-51 -119 60 
69 10 119 

40 30 -64 
124 101 82 
-10 122 100 

-87 -54 -10 
-87 10 -83 
69 -98 78 


-49 88 52 
-119 -60 -73 
77 -69 71 

-78 -38 -18 
113 -46 -32 
77 -9 23 

-19 56 -93 
63 -83 33 
64 125 1 

-121 12 25 
-78 122 -53 
-64 -116 9 

-17 56 21 
38 -71 -102 
-123 -108 -94 

-127 4 -113 
-51 -119 60 
69 10 119 

40 30 -64 
124 101 82 
-10 122 100 

-87 -54 -10 
-87 10 -83 
69 -98 78 


-49 88 52 
-119 -60 -73 
77 -69 71 

-78 -38 -18 
113 -46 -32 
77 -9 23 

-19 56 -93 
63 -83 33 
64 125 1 

-121 12 25 
-78 122 -53 
-64 -116 9 

-17 56 21 
38 -71 -102 
-123 -108 -94 

-127 4 -113 
-51 -119 60 
69 10 119 

40 30 -64 
124 101 82 
-10 122 100 

-87 -54 -10 
-87 10 -83 
69 -98 78 




-36 -85 -87 
9 53 -56 
-116 -105 2 

-83 103 -112 
-42 -52 -23 
-125 -30 -43 

2 35 7 
77 84 42 
-57 -44 81 

82 38 112 
95 -93 -41 
126 101 -49 

80 -40 -3 
-85 -54 -57 
-89 -52 25 

-119 -89 81 
-41 -121 47 
-11 -62 95 

-27 101 -61 
-1 49 63 
57 15 46 

-123 19 -65 
-95 -126 -32 
115 89 -65 


-36 -85 -87 
9 53 -56 
-116 -105 2 

-83 103 -112 
-42 -52 -23 
-125 -30 -43 

2 35 7 
77 84 42 
-57 -44 81 

82 38 112 
95 -93 -41 
126 101 -49 

80 -40 -3 
-85 -54 -57 
-89 -52 25 

-119 -89 81 
-41 -121 47 
-11 -62 95 

-27 101 -61 
-1 49 63 
57 15 46 

-123 19 -65 
-95 -126 -32 
115 89 -65 


-36 -85 -87 
9 53 -56 
-116 -105 2 

-83 103 -112 
-42 -52 -23 
-125 -30 -43 

2 35 7 
77 84 42 
-57 -44 81 

82 38 112 
95 -93 -41 
126 101 -49 

80 -40 -3 
-85 -54 -57 
-89 -52 25 

-119 -89 81 
-41 -121 47 
-11 -62 95 

-27 101 -61 
-1 49 63 
57 15 46 

-123 19 -65 
-95 -126 -32 
115 89 -65 


-36 -85 -87 
9 53 -56 
-116 -105 2 

-83 103 -112 
-42 -52 -23 
-125 -30 -43 

2 35 7 
77 84 42 
-57 -44 81 

82 38 112 
95 -93 -41 
126 101 -49 

80 -40 -3 
-85 -54 -57 
-89 -52 25 

-119 -89 81 
-41 -121 47 
-11 -62 95 

-27 101 -61 
-1 49 63 
57 15 46 

-123 19 -65 
-95 -126 -32 
115 89 -65 



-36 -85 -87 
9 53 -56 
-116 -105 2 

-83 103 -112 
-42 -52 -23 
-125 -30 -43 

2 35 7 
77 84 42 
-57 -44 81 

82 38 112 
95 -93 -41 
126 101 -49 

80 -40 -3 
-85 -54 -57 
-89 -52 25 

-119 -89 81 
-41 -121 47 
-11 -62 95 

-27 101 -61 
-1 49 63 
57 15 46 

-123 19 -65 
-95 -126 -32 
115 89 -65 


-36 -85 -87 
9 53 -56 
-116 -105 2 

-83 103 -112 
-42 -52 -23 
-125 -30 -43 

2 35 7 
77 84 42 
-57 -44 81 

82 38 112 
95 -93 -41 
126 101 -49 

80 -40 -3 
-85 -54 -57 
-89 -52 25 

-119 -89 81 
-41 -121 47 
-11 -62 95 

-27 101 -61 
-1 49 63 
57 15 46 

-123 19 -65 
-95 -126 -32 
115 89 -65 


-36 -85 -87 
9 53 -56 
-116 -105 2 

-83 103 -112 
-42 -52 -23 
-125 -30 -43 

2 35 7 
77 84 42 
-57 -44 81 

82 38 112 
95 -93 -41 
126 101 -49 

80 -40 -3 
-85 -54 -57 
-89 -52 25 

-119 -89 81 
-41 -121 47 
-11 -62 95 

-27 101 -61 
-1 49 63 
57 15 46 

-123 19 -65 
-95 -126 -32 
115 89 -65 


-36 -85 -87 
9 53 -56 
-116 -105 2 

-83 103 -112 
-42 -52 -23 
-125 -30 -43 

2 35 7 
77 84 42 
-57 -44 81 

82 38 112 
95 -93 -41 
126 101 -49 

80 -40 -3 
-85 -54 -57 
-89 -52 25 

-119 -89 81 
-41 -121 47 
-11 -62 95 

-27 101 -61 
-1 49 63 
57 15 46 

-123 19 -65 
-95 -126 -32 
115 89 -65 



-36 -85 -87 
9 53 -56 
-116 -105 2 

-83 103 -112 
-42 -52 -23 
-125 -30 -43 

2 35 7 
77 84 42 
-57 -44 81 

82 38 112 
95 -93 -41 
126 101 -49 

80 -40 -3 
-85 -54 -57 
-89 -52 25 

-119 -89 81 
-41 -121 47 
-11 -62 95 

-27 101 -61 
-1 49 63 
57 15 46 

-123 19 -65 
-95 -126 -32 
115 89 -65 


-36 -85 -87 
9 53 -56 
-116 -105 2 

-83 103 -112 
-42 -52 -23 
-125 -30 -43 

2 35 7 
77 84 42 
-57 -44 81 

82 38 112 
95 -93 -41 
126 101 -49 

80 -40 -3 
-85 -54 -57 
-89 -52 25 

-119 -89 81 
-41 -121 47 
-11 -62 95 

-27 101 -61 
-1 49 63 
57 15 46 

-123 19 -65 
-95 -126 -32 
115 89 -65 


-36 -85 -87 
9 53 -56 
-116 -105 2 

-83 103 -112 
-42 -52 -23 
-125 -30 -43 

2 35 7 
77 84 42 
-57 -44 81 

82 38 112 
95 -93 -41 
126 101 -49 

80 -40 -3 
-85 -54 -57 
-89 -52 25 

-119 -89 81 
-41 -121 47 
-11 -62 95 

-27 101 -61 
-1 49 63 
57 15 46 

-123 19 -65 
-95 -126 -32 
115 89 -65 


-36 -85 -87 
9 53 -56 
-116 -105 2 

-83 103 -112 
-42 -52 -23 
-125 -30 -43 

2 35 7 
77 84 42 
-57 -44 81 

82 38 112 
95 -93 -41 
126 101 -49 

80 -40 -3 
-85 -54 -57 
-89 -52 25 

-119 -89 81 
-41 -121 47 
-11 -62 95 

-27 101 -61 
-1 49 63 
57 15 46 

-123 19 -65 
-95 -126 -32 
115 89 -65 



-36 -85 -87 
9 53 -56 
-116 -105 2 

-83 103 -112 
-42 -52 -23 
-125 -30 -43 

2 35 7 
77 84 42 
-57 -44 81 

82 38 112 
95 -93 -41 
126 101 -49 

80 -40 -3 
-85 -54 -57 
-89 -52 25 

-119 -89 81 
-41 -121 47 
-11 -62 95 

-27 101 -61 
-1 49 63 
57 15 46 

-123 19 -65 
-95 -126 -32 
115 89 -65 


-36 -85 -87 
9 53 -56 
-116 -105 2 

-83 103 -112 
-42 -52 -23 
-125 -30 -43 

2 35 7 
77 84 42 
-57 -44 81 

82 38 112 
95 -93 -41 
126 101 -49 

80 -40 -3 
-85 -54 -57 
-89 -52 25 

-119 -89 81 
-41 -121 47 
-11 -62 95 

-27 101 -61 
-1 49 63 
57 15 46 

-123 19 -65 
-95 -126 -32 
115 89 -65 


-36 -85 -87 
9 53 -56 
-116 -105 2 

-83 103 -112 
-42 -52 -23 
-125 -30 -43 

2 35 7 
77 84 42 
-57 -44 81 

82 38 112 
95 -93 -41 
126 101 -49 

80 -40 -3 
-85 -54 -57 
-89 -52 25 

-119 -89 81 
-41 -121 47 
-11 -62 95 

-27 101 -61 
-1 49 63 
57 15 46 

-123 19 -65 
-95 -126 -32 
115 89 -65 


-36 -85 -87 
9 53 -56 
-116 -105 2 

-83 103 -112 
-42 -52 -23 
-125 -30 -43 

2 35 7 
77 84 42 
-57 -44 81 

82 38 112 
95 -93 -41 
126 101 -49 

80 -40 -3 
-85 -54 -57 
-89 -52 25 

-119 -89 81 
-41 -121 47 
-11 -62 95 

-27 101 -61 
-1 49 63 
57 15 46 

-123 19 -65 
-95 -126 -32 
115 89 -65 



-36 -85 -87 
9 53 -56 
-116 -105 2 

-83 103 -112 
-42 -52 -23 
-125 -30 -43 

2 35 7 
77 84 42 
-57 -44 81 

82 38 112 
95 -93 -41 
126 101 -49 

80 -40 -3 
-85 -54 -57 
-89 -52 25 

-119 -89 81 
-41 -121 47 
-11 -62 95 

-27 101 -61 
-1 49 63 
57 15 46 

-123 19 -65 
-95 -126 -32 
115 89 -65 


-36 -85 -87 
9 53 -56 
-116 -105 2 

-83 103 -112 
-42 -52 -23 
-125 -30 -43 

2 35 7 
77 84 42 
-57 -44 81 

82 38 112 
95 -93 -41 
126 101 -49 

80 -40 -3 
-85 -54 -57 
-89 -52 25 

-119 -89 81 
-41 -121 47 
-11 -62 95 

-27 101 -61 
-1 49 63 
57 15 46 

-123 19 -65 
-95 -126 -32 
115 89 -65 


-36 -85 -87 
9 53 -56 
-116 -105 2 

-83 103 -112 
-42 -52 -23 
-125 -30 -43 

2 35 7 
77 84 42 
-57 -44 81 

82 38 112 
95 -93 -41 
126 101 -49 

80 -40 -3 
-85 -54 -57 
-89 -52 25 

-119 -89 81 
-41 -121 47 
-11 -62 95 

-27 101 -61 
-1 49 63 
57 15 46 

-123 19 -65 
