-50 76 -53 23 
-105 22 -71 -1 
-45 -62 -23 50 
51 85 50 12 

-20 56 118 -30 
-30 -112 -32 44 
94 -22 -108 15 
-105 55 -24 -68 

-15 -88 -121 117 
-112 -82 -14 14 
-110 83 -31 111 
-104 53 -115 60 

-108 -57 4 22 
100 -119 120 8 
106 28 -22 105 
-124 64 38 -28 

80 40 -46 16 
102 -37 -30 37 
-30 -33 -4 -56 
-8 -121 -109 120 

43 -74 -102 -105 
-8 -62 -30 -34 
-42 -40 98 61 
-82 124 74 -93 

50 64 7 -60 
-97 36 -118 -128 
9 15 74 97 
-74 83 118 39 

-93 -29 -4 31 
113 -3 -94 -99 
-57 -41 120 -111 
30 20 56 -32 


-50 76 -53 23 
-105 22 -71 -1 
-45 -62 -23 50 
51 85 50 12 

-20 56 118 -30 
-30 -112 -32 44 
94 -22 -108 15 
-105 55 -24 -68 

-15 -88 -121 117 
-112 -82 -14 14 
-110 83 -31 111 
-104 53 -115 60 

-108 -57 4 22 
100 -119 120 8 
106 28 -22 105 
-124 64 38 -28 

80 40 -46 16 
102 -37 -30 37 
-30 -33 -4 -56 
-8 -121 -109 120 

43 -74 -102 -105 
-8 -62 -30 -34 
-42 -40 98 61 
-82 124 74 -93 

50 64 7 -60 
-97 36 -118 -128 
9 15 74 97 
-74 83 118 39 

-93 -29 -4 31 
113 -3 -94 -99 
-57 -41 120 -111 
30 20 56 -32 


-50 76 -53 23 
-105 22 -71 -1 
-45 -62 -23 50 
51 85 50 12 

-20 56 118 -30 
-30 -112 -32 44 
94 -22 -108 15 
-105 55 -24 -68 

-15 -88 -121 117 
-112 -82 -14 14 
-110 83 -31 111 
-104 53 -115 60 

-108 -57 4 22 
100 -119 120 8 
106 28 -22 105 
-124 64 38 -28 

80 40 -46 16 
102 -37 -30 37 
-30 -33 -4 -56 
-8 -121 -109 120 

43 -74 -102 -105 
-8 -62 -30 -34 
-42 -40 98 61 
-82 124 74 -93 

50 64 7 -60 
-97 36 -118 -128 
9 15 74 97 
-74 83 118 39 

-93 -29 -4 31 
113 -3 -94 -99 
-57 -41 120 -111 
30 20 56 -32 


-50 76 -53 23 
-105 22 -71 -1 
-45 -62 -23 50 
51 85 50 12 

-20 56 118 -30 
-30 -112 -32 44 
94 -22 -108 15 
-105 55 -24 -68 

-15 -88 -121 117 
-112 -82 -14 14 
-110 83 -31 111 
-104 53 -115 60 

-108 -57 4 22 
100 -119 120 8 
106 28 -22 105 
-124 64 38 -28 

80 40 -46 16 
102 -37 -30 37 
-30 -33 -4 -56 
-8 -121 -109 120 

43 -74 -102 -105 
-8 -62 -30 -34 
-42 -40 98 61 
-82 124 74 -93 

50 64 7 -60 
-97 36 -118 -128 
9 15 74 97 
-74 83 118 39 

-93 -29 -4 31 
113 -3 -94 -99 
-57 -41 120 -111 
30 20 56 -32 



-50 76 -53 23 
-105 22 -71 -1 
-45 -62 -23 50 
51 85 50 12 

-20 56 118 -30 
-30 -112 -32 44 
94 -22 -108 15 
-105 55 -24 -68 

-15 -88 -121 117 
-112 -82 -14 14 
-110 83 -31 111 
-104 53 -115 60 

-108 -57 4 22 
100 -119 120 8 
106 28 -22 105 
-124 64 38 -28 

80 40 -46 16 
102 -37 -30 37 
-30 -33 -4 -56 
-8 -121 -109 120 

43 -74 -102 -105 
-8 -62 -30 -34 
-42 -40 98 61 
-82 124 74 -93 

50 64 7 -60 
-97 36 -118 -128 
9 15 74 97 
-74 83 118 39 

-93 -29 -4 31 
113 -3 -94 -99 
-57 -41 120 -111 
30 20 56 -32 


-50 76 -53 23 
-105 22 -71 -1 
-45 -62 -23 50 
51 85 50 12 

-20 56 118 -30 
-30 -112 -32 44 
94 -22 -108 15 
-105 55 -24 -68 

-15 -88 -121 117 
-112 -82 -14 14 
-110 83 -31 111 
-104 53 -115 60 

-108 -57 4 22 
100 -119 120 8 
106 28 -22 105 
-124 64 38 -28 

80 40 -46 16 
102 -37 -30 37 
-30 -33 -4 -56 
-8 -121 -109 120 

43 -74 -102 -105 
-8 -62 -30 -34 
-42 -40 98 61 
-82 124 74 -93 

50 64 7 -60 
-97 36 -118 -128 
9 15 74 97 
-74 83 118 39 

-93 -29 -4 31 
113 -3 -94 -99 
-57 -41 120 -111 
30 20 56 -32 


-50 76 -53 23 
-105 22 -71 -1 
-45 -62 -23 50 
51 85 50 12 

-20 56 118 -30 
-30 -112 -32 44 
94 -22 -108 15 
-105 55 -24 -68 

-15 -88 -121 117 
-112 -82 -14 14 
-110 83 -31 111 
-104 53 -115 60 

-108 -57 4 22 
100 -119 120 8 
106 28 -22 105 
-124 64 38 -28 

80 40 -46 16 
102 -37 -30 37 
-30 -33 -4 -56 
-8 -121 -109 120 

43 -74 -102 -105 
-8 -62 -30 -34 
-42 -40 98 61 
-82 124 74 -93 

50 64 7 -60 
-97 36 -118 -128 
9 15 74 97 
-74 83 118 39 

-93 -29 -4 31 
113 -3 -94 -99 
-57 -41 120 -111 
30 20 56 -32 


-50 76 -53 23 
-105 22 -71 -1 
-45 -62 -23 50 
51 85 50 12 

-20 56 118 -30 
-30 -112 -32 44 
94 -22 -108 15 
-105 55 -24 -68 

-15 -88 -121 117 
-112 -82 -14 14 
-110 83 -31 111 
-104 53 -115 60 

-108 -57 4 22 
100 -119 120 8 
106 28 -22 105 
-124 64 38 -28 

80 40 -46 16 
102 -37 -30 37 
-30 -33 -4 -56 
-8 -121 -109 120 

43 -74 -102 -105 
-8 -62 -30 -34 
-42 -40 98 61 
-82 124 74 -93 

50 64 7 -60 
-97 36 -118 -128 
9 15 74 97 
-74 83 118 39 

-93 -29 -4 31 
113 -3 -94 -99 
-57 -41 120 -111 
30 20 56 -32 



-50 76 -53 23 
-105 22 -71 -1 
-45 -62 -23 50 
51 85 50 12 

-20 56 118 -30 
-30 -112 -32 44 
94 -22 -108 15 
-105 55 -24 -68 

-15 -88 -121 117 
-112 -82 -14 14 
-110 83 -31 111 
-104 53 -115 60 

-108 -57 4 22 
100 -119 120 8 
106 28 -22 105 
-124 64 38 -28 

80 40 -46 16 
102 -37 -30 37 
-30 -33 -4 -56 
-8 -121 -109 120 

43 -74 -102 -105 
-8 -62 -30 -34 
-42 -40 98 61 
-82 124 74 -93 

50 64 7 -60 
-97 36 -118 -128 
9 15 74 97 
-74 83 118 39 

-93 -29 -4 31 
113 -3 -94 -99 
-57 -41 120 -111 
30 20 56 -32 


-50 76 -53 23 
-105 22 -71 -1 
-45 -62 -23 50 
51 85 50 12 

-20 56 118 -30 
-30 -112 -32 44 
94 -22 -108 15 
-105 55 -24 -68 

-15 -88 -121 117 
-112 -82 -14 14 
-110 83 -31 111 
-104 53 -115 60 

-108 -57 4 22 
100 -119 120 8 
106 28 -22 105 
-124 64 38 -28 

80 40 -46 16 
102 -37 -30 37 
-30 -33 -4 -56 
-8 -121 -109 120 

43 -74 -102 -105 
-8 -62 -30 -34 
-42 -40 98 61 
-82 124 74 -93 

50 64 7 -60 
-97 36 -118 -128 
9 15 74 97 
-74 83 118 39 

-93 -29 -4 31 
113 -3 -94 -99 
-57 -41 120 -111 
30 20 56 -32 


-50 76 -53 23 
-105 22 -71 -1 
-45 -62 -23 50 
51 85 50 12 

-20 56 118 -30 
-30 -112 -32 44 
94 -22 -108 15 
-105 55 -24 -68 

-15 -88 -121 117 
-112 -82 -14 14 
-110 83 -31 111 
-104 53 -115 60 

-108 -57 4 22 
100 -119 120 8 
106 28 -22 105 
-124 64 38 -28 

80 40 -46 16 
102 -37 -30 37 
-30 -33 -4 -56 
-8 -121 -109 120 

43 -74 -102 -105 
-8 -62 -30 -34 
-42 -40 98 61 
-82 124 74 -93 

50 64 7 -60 
-97 36 -118 -128 
9 15 74 97 
-74 83 118 39 

-93 -29 -4 31 
113 -3 -94 -99 
-57 -41 120 -111 
30 20 56 -32 


-50 76 -53 23 
-105 22 -71 -1 
-45 -62 -23 50 
51 85 50 12 

-20 56 118 -30 
-30 -112 -32 44 
94 -22 -108 15 
-105 55 -24 -68 

-15 -88 -121 117 
-112 -82 -14 14 
-110 83 -31 111 
-104 53 -115 60 

-108 -57 4 22 
100 -119 120 8 
106 28 -22 105 
-124 64 38 -28 

80 40 -46 16 
102 -37 -30 37 
-30 -33 -4 -56 
-8 -121 -109 120 

43 -74 -102 -105 
-8 -62 -30 -34 
-42 -40 98 61 
-82 124 74 -93 

50 64 7 -60 
-97 36 -118 -128 
9 15 74 97 
-74 83 118 39 

-93 -29 -4 31 
113 -3 -94 -99 
-57 -41 120 -111 
30 20 56 -32 



-50 76 -53 23 
-105 22 -71 -1 
-45 -62 -23 50 
51 85 50 12 

-20 56 118 -30 
-30 -112 -32 44 
94 -22 -108 15 
-105 55 -24 -68 

-15 -88 -121 117 
-112 -82 -14 14 
-110 83 -31 111 
-104 53 -115 60 

-108 -57 4 22 
100 -119 120 8 
106 28 -22 105 
-124 64 38 -28 

80 40 -46 16 
102 -37 -30 37 
-30 -33 -4 -56 
-8 -121 -109 120 

43 -74 -102 -105 
-8 -62 -30 -34 
-42 -40 98 61 
-82 124 74 -93 

50 64 7 -60 
-97 36 -118 -128 
9 15 74 97 
-74 83 118 39 

-93 -29 -4 31 
113 -3 -94 -99 
-57 -41 120 -111 
30 20 56 -32 


-50 76 -53 23 
-105 22 -71 -1 
-45 -62 -23 50 
51 85 50 12 

-20 56 118 -30 
-30 -112 -32 44 
94 -22 -108 15 
-105 55 -24 -68 

-15 -88 -121 117 
-112 -82 -14 14 
-110 83 -31 111 
-104 53 -115 60 

-108 -57 4 22 
100 -119 120 8 
106 28 -22 105 
-124 64 38 -28 

80 40 -46 16 
102 -37 -30 37 
-30 -33 -4 -56 
-8 -121 -109 120 

43 -74 -102 -105 
-8 -62 -30 -34 
-42 -40 98 61 
-82 124 74 -93 

50 64 7 -60 
-97 36 -118 -128 
9 15 74 97 
-74 83 118 39 

-93 -29 -4 31 
113 -3 -94 -99 
-57 -41 120 -111 
30 20 56 -32 


-50 76 -53 23 
-105 22 -71 -1 
-45 -62 -23 50 
51 85 50 12 

-20 56 118 -30 
-30 -112 -32 44 
94 -22 -108 15 
-105 55 -24 -68 

-15 -88 -121 117 
-112 -82 -14 14 
-110 83 -31 111 
-104 53 -115 60 

-108 -57 4 22 
100 -119 120 8 
106 28 -22 105 
-124 64 38 -28 

80 40 -46 16 
102 -37 -30 37 
-30 -33 -4 -56 
-8 -121 -109 120 

43 -74 -102 -105 
-8 -62 -30 -34 
-42 -40 98 61 
-82 124 74 -93 

50 64 7 -60 
-97 36 -118 -128 
9 15 74 97 
-74 83 118 39 

-93 -29 -4 31 
113 -3 -94 -99 
-57 -41 120 -111 
30 20 56 -32 


-50 76 -53 23 
-105 22 -71 -1 
-45 -62 -23 50 
51 85 50 12 

-20 56 118 -30 
-30 -112 -32 44 
94 -22 -108 15 
-105 55 -24 -68 

-15 -88 -121 117 
-112 -82 -14 14 
-110 83 -31 111 
-104 53 -115 60 

-108 -57 4 22 
100 -119 120 8 
106 28 -22 105 
-124 64 38 -28 

80 40 -46 16 
102 -37 -30 37 
-30 -33 -4 -56 
-8 -121 -109 120 

43 -74 -102 -105 
-8 -62 -30 -34 
-42 -40 98 61 
-82 124 74 -93 

50 64 7 -60 
-97 36 -118 -128 
9 15 74 97 
-74 83 118 39 

-93 -29 -4 31 
113 -3 -94 -99 
-57 -41 120 -111 
30 20 56 -32 



-50 76 -53 23 
-105 22 -71 -1 
-45 -62 -23 50 
51 85 50 12 

-20 56 118 -30 
-30 -112 -32 44 
94 -22 -108 15 
-105 55 -24 -68 

-15 -88 -121 117 
-112 -82 -14 14 
-110 83 -31 111 
-104 53 -115 60 

-108 -57 4 22 
100 -119 120 8 
106 28 -22 105 
-124 64 38 -28 

80 40 -46 16 
102 -37 -30 37 
-30 -33 -4 -56 
-8 -121 -109 120 

43 -74 -102 -105 
-8 -62 -30 -34 
-42 -40 98 61 
-82 124 74 -93 

50 64 7 -60 
-97 36 -118 -128 
9 15 74 97 
-74 83 118 39 

-93 -29 -4 31 
113 -3 -94 -99 
-57 -41 120 -111 
30 20 56 -32 


-50 76 -53 23 
-105 22 -71 -1 
-45 -62 -23 50 
51 85 50 12 

-20 56 118 -30 
-30 -112 -32 44 
94 -22 -108 15 
-105 55 -24 -68 

-15 -88 -121 117 
-112 -82 -14 14 
-110 83 -31 111 
-104 53 -115 60 

-108 -57 4 22 
100 -119 120 8 
106 28 -22 105 
-124 64 38 -28 

80 40 -46 16 
102 -37 -30 37 
-30 -33 -4 -56 
-8 -121 -109 120 

43 -74 -102 -105 
-8 -62 -30 -34 
-42 -40 98 61 
-82 124 74 -93 

50 64 7 -60 
-97 36 -118 -128 
9 15 74 97 
-74 83 118 39 

-93 -29 -4 31 
113 -3 -94 -99 
-57 -41 120 -111 
30 20 56 -32 


-50 76 -53 23 
-105 22 -71 -1 
-45 -62 -23 50 
51 85 50 12 

-20 56 118 -30 
-30 -112 -32 44 
94 -22 -108 15 
-105 55 -24 -68 

-15 -88 -121 117 
-112 -82 -14 14 
-110 83 -31 111 
-104 53 -115 60 

-108 -57 4 22 
100 -119 120 8 
106 28 -22 105 
-124 64 38 -28 

80 40 -46 16 
102 -37 -30 37 
-30 -33 -4 -56 
-8 -121 -109 120 

43 -74 -102 -105 
-8 -62 -30 -34 
-42 -40 98 61 
-82 124 74 -93 

50 64 7 -60 
-97 36 -118 -128 
9 15 74 97 
-74 83 118 39 

-93 -29 -4 31 
113 -3 -94 -99 
-57 -41 120 -111 
30 20 56 -32 


-50 76 -53 23 
-105 22 -71 -1 
-45 -62 -23 50 
51 85 50 12 

-20 56 118 -30 
-30 -112 -32 44 
94 -22 -108 15 
-105 55 -24 -68 

-15 -88 -121 117 
-112 -82 -14 14 
-110 83 -31 111 
-104 53 -115 60 

-108 -57 4 22 
100 -119 120 8 
106 28 -22 105 
-124 64 38 -28 

80 40 -46 16 
102 -37 -30 37 
-30 -33 -4 -56 
-8 -121 -109 120 

43 -74 -102 -105 
-8 -62 -30 -34 
-42 -40 98 61 
-82 124 74 -93 

50 64 7 -60 
-97 36 -118 -128 
9 15 74 97 
-74 83 118 39 

-93 -29 -4 31 
113 -3 -94 -99 
-57 -41 120 -111 
30 20 56 -32 



-50 76 -53 23 
-105 22 -71 -1 
-45 -62 -23 50 
51 85 50 12 

-20 56 118 -30 
-30 -112 -32 44 
94 -22 -108 15 
-105 55 -24 -68 

-15 -88 -121 117 
-112 -82 -14 14 
-110 83 -31 111 
-104 53 -115 60 

-108 -57 4 22 
100 -119 120 8 
106 28 -22 105 
-124 64 38 -28 

80 40 -46 16 
102 -37 -30 37 
-30 -33 -4 -56 
-8 -121 -109 120 

43 -74 -102 -105 
-8 -62 -30 -34 
-42 -40 98 61 
-82 124 74 -93 

50 64 7 -60 
-97 36 -118 -128 
9 15 74 97 
-74 83 118 39 

-93 -29 -4 31 
113 -3 -94 -99 
-57 -41 120 -111 
30 20 56 -32 


-50 76 -53 23 
-105 22 -71 -1 
-45 -62 -23 50 
51 85 50 12 

-20 56 118 -30 
-30 -112 -32 44 
94 -22 -108 15 
-105 55 -24 -68 

-15 -88 -121 117 
-112 -82 -14 14 
-110 83 -31 111 
-104 53 -115 60 

-108 -57 4 22 
100 -119 120 8 
106 28 -22 105 
-124 64 38 -28 

80 40 -46 16 
102 -37 -30 37 
-30 -33 -4 -56 
-8 -121 -109 120 

43 -74 -102 -105 
-8 -62 -30 -34 
-42 -40 98 61 
-82 124 74 -93 

50 64 7 -60 
-97 36 -118 -128 
9 15 74 97 
-74 83 118 39 

-93 -29 -4 31 
113 -3 -94 -99 
-57 -41 120 -111 
30 20 56 -32 


-50 76 -53 23 
-105 22 -71 -1 
-45 -62 -23 50 
51 85 50 12 

-20 56 118 -30 
-30 -112 -32 44 
94 -22 -108 15 
-105 55 -24 -68 

-15 -88 -121 117 
-112 -82 -14 14 
-110 83 -31 111 
-104 53 -115 60 

-108 -57 4 22 
100 -119 120 8 
106 28 -22 105 
-124 64 38 -28 

80 40 -46 16 
102 -37 -30 37 
-30 -33 -4 -56 
-8 -121 -109 120 

43 -74 -102 -105 
-8 -62 -30 -34 
-42 -40 98 61 
-82 124 74 -93 

50 64 7 -60 
-97 36 -118 -128 
9 15 74 97 
-74 83 118 39 

-93 -29 -4 31 
113 -3 -94 -99 
-57 -41 120 -111 
30 20 56 -32 


-50 76 -53 23 
-105 22 -71 -1 
-45 -62 -23 50 
51 85 50 12 

-20 56 118 -30 
-30 -112 -32 44 
94 -22 -108 15 
-105 55 -24 -68 

-15 -88 -121 117 
-112 -82 -14 14 
-110 83 -31 111 
-104 53 -115 60 

-108 -57 4 22 
100 -119 120 8 
106 28 -22 105 
-124 64 38 -28 

80 40 -46 16 
102 -37 -30 37 
-30 -33 -4 -56 
-8 -121 -109 120 

43 -74 -102 -105 
-8 -62 -30 -34 
-42 -40 98 61 
-82 124 74 -93 

50 64 7 -60 
-97 36 -118 -128 
9 15 74 97 
-74 83 118 39 

-93 -29 -4 31 
113 -3 -94 -99 
-57 -41 120 -111 
30 20 56 -32 



-50 76 -53 23 
-105 22 -71 -1 
-45 -62 -23 50 
51 85 50 12 

-20 56 118 -30 
-30 -112 -32 44 
94 -22 -108 15 
-105 55 -24 -68 

-15 -88 -121 117 
-112 -82 -14 14 
-110 83 -31 111 
-104 53 -115 60 

-108 -57 4 22 
100 -119 120 8 
106 28 -22 105 
-124 64 38 -28 

80 40 -46 16 
102 -37 -30 37 
-30 -33 -4 -56 
-8 -121 -109 120 

43 -74 -102 -105 
-8 -62 -30 -34 
-42 -40 98 61 
-82 124 74 -93 

50 64 7 -60 
-97 36 -118 -128 
9 15 74 97 
-74 83 118 39 

-93 -29 -4 31 
113 -3 -94 -99 
-57 -41 120 -111 
30 20 56 -32 


-50 76 -53 23 
-105 22 -71 -1 
-45 -62 -23 50 
51 85 50 12 

-20 56 118 -30 
-30 -112 -32 44 
94 -22 -108 15 
-105 55 -24 -68 

-15 -88 -121 117 
-112 -82 -14 14 
-110 83 -31 111 
-104 53 -115 60 

-108 -57 4 22 
100 -119 120 8 
106 28 -22 105 
-124 64 38 -28 

80 40 -46 16 
102 -37 -30 37 
-30 -33 -4 -56 
-8 -121 -109 120 

43 -74 -102 -105 
-8 -62 -30 -34 
-42 -40 98 61 
-82 124 74 -93 

50 64 7 -60 
-97 36 -118 -128 
9 15 74 97 
-74 83 118 39 

-93 -29 -4 31 
113 -3 -94 -99 
-57 -41 120 -111 
30 20 56 -32 


-50 76 -53 23 
-105 22 -71 -1 
-45 -62 -23 50 
51 85 50 12 

-20 56 118 -30 
-30 -112 -32 44 
94 -22 -108 15 
-105 55 -24 -68 

-15 -88 -121 117 
-112 -82 -14 14 
-110 83 -31 111 
-104 53 -115 60 

-108 -57 4 22 
100 -119 120 8 
106 28 -22 105 
-124 64 38 -28 

80 40 -46 16 
102 -37 -30 37 
-30 -33 -4 -56 
-8 -121 -109 120 

43 -74 -102 -105 
-8 -62 -30 -34 
-42 -40 98 61 
-82 124 74 -93 

50 64 7 -60 
-97 36 -118 -128 
9 15 74 97 
-74 83 118 39 

-93 -29 -4 31 
113 -3 -94 -99 
-57 -41 120 -111 
30 20 56 -32 


-50 76 -53 23 
-105 22 -71 -1 
-45 -62 -23 50 
51 85 50 12 

-20 56 118 -30 
-30 -112 -32 44 
94 -22 -108 15 
-105 55 -24 -68 

-15 -88 -121 117 
-112 -82 -14 14 
-110 83 -31 111 
-104 53 -115 60 

-108 -57 4 22 
100 -119 120 8 
106 28 -22 105 
-124 64 38 -28 

80 40 -46 16 
102 -37 -30 37 
-30 -33 -4 -56 
-8 -121 -109 120 

43 -74 -102 -105 
-8 -62 -30 -34 
-42 -40 98 61 
-82 124 74 -93 

50 64 7 -60 
-97 36 -118 -128 
9 15 74 97 
-74 83 118 39 

-93 -29 -4 31 
113 -3 -94 -99 
-57 -41 120 -111 
30 20 56 -32 



-50 76 -53 23 
-105 22 -71 -1 
-45 -62 -23 50 
51 85 50 12 

-20 56 118 -30 
-30 -112 -32 44 
94 -22 -108 15 
-105 55 -24 -68 

-15 -88 -121 117 
-112 -82 -14 14 
-110 83 -31 111 
-104 53 -115 60 

-108 -57 4 22 
100 -119 120 8 
106 28 -22 105 
-124 64 38 -28 

80 40 -46 16 
102 -37 -30 37 
-30 -33 -4 -56 
-8 -121 -109 120 

43 -74 -102 -105 
-8 -62 -30 -34 
-42 -40 98 61 
-82 124 74 -93 

50 64 7 -60 
-97 36 -118 -128 
9 15 74 97 
-74 83 118 39 

-93 -29 -4 31 
113 -3 -94 -99 
-57 -41 120 -111 
30 20 56 -32 


-50 76 -53 23 
-105 22 -71 -1 
-45 -62 -23 50 
51 85 50 12 

-20 56 118 -30 
-30 -112 -32 44 
94 -22 -108 15 
-105 55 -24 -68 

-15 -88 -121 117 
-112 -82 -14 14 
-110 83 -31 111 
-104 53 -115 60 

-108 -57 4 22 
100 -119 120 8 
106 28 -22 105 
-124 64 38 -28 

80 40 -46 16 
102 -37 -30 37 
-30 -33 -4 -56 
-8 -121 -109 120 

43 -74 -102 -105 
-8 -62 -30 -34 
-42 -40 98 61 
-82 124 74 -93 

50 64 7 -60 
-97 36 -118 -128 
9 15 74 97 
-74 83 118 39 

-93 -29 -4 31 
113 -3 -94 -99 
-57 -41 120 -111 
30 20 56 -32 


-50 76 -53 23 
-105 22 -71 -1 
-45 -62 -23 50 
51 85 50 12 

-20 56 118 -30 
-30 -112 -32 44 
94 -22 -108 15 
-105 55 -24 -68 

-15 -88 -121 117 
-112 -82 -14 14 
-110 83 -31 111 
-104 53 -115 60 

-108 -57 4 22 
100 -119 120 8 
106 28 -22 105 
-124 64 38 -28 

80 40 -46 16 
102 -37 -30 37 
-30 -33 -4 -56 
-8 -121 -109 120 

43 -74 -102 -105 
-8 -62 -30 -34 
-42 -40 98 61 
-82 124 74 -93 

50 64 7 -60 
-97 36 -118 -128 
9 15 74 97 
-74 83 118 39 

-93 -29 -4 31 
113 -3 -94 -99 
-57 -41 120 -111 
30 20 56 -32 


-50 76 -53 23 
-105 22 -71 -1 
-45 -62 -23 50 
51 85 50 12 

-20 56 118 -30 
-30 -112 -32 44 
94 -22 -108 15 
-105 55 -24 -68 

-15 -88 -121 117 
-112 -82 -14 14 
-110 83 -31 111 
-104 53 -115 60 

-108 -57 4 22 
100 -119 120 8 
106 28 -22 105 
-124 64 38 -28 

80 40 -46 16 
102 -37 -30 37 
-30 -33 -4 -56 
-8 -121 -109 120 

43 -74 -102 -105 
-8 -62 -30 -34 
-42 -40 98 61 
-82 124 74 -93 

50 64 7 -60 
-97 36 -118 -128 
9 15 74 97 
-74 83 118 39 

-93 -29 -4 31 
113 -3 -94 -99 
-57 -41 120 -111 
30 20 56 -32 



-50 76 -53 23 
-105 22 -71 -1 
-45 -62 -23 50 
51 85 50 12 

-20 56 118 -30 
-30 -112 -32 44 
94 -22 -108 15 
-105 55 -24 -68 

-15 -88 -121 117 
-112 -82 -14 14 
-110 83 -31 111 
-104 53 -115 60 

-108 -57 4 22 
100 -119 120 8 
106 28 -22 105 
-124 64 38 -28 

80 40 -46 16 
102 -37 -30 37 
-30 -33 -4 -56 
-8 -121 -109 120 

43 -74 -102 -105 
-8 -62 -30 -34 
-42 -40 98 61 
-82 124 74 -93 

50 64 7 -60 
-97 36 -118 -128 
9 15 74 97 
-74 83 118 39 

-93 -29 -4 31 
113 -3 -94 -99 
-57 -41 120 -111 
30 20 56 -32 


-50 76 -53 23 
-105 22 -71 -1 
-45 -62 -23 50 
51 85 50 12 

-20 56 118 -30 
-30 -112 -32 44 
94 -22 -108 15 
-105 55 -24 -68 

-15 -88 -121 117 
-112 -82 -14 14 
-110 83 -31 111 
-104 53 -115 60 

-108 -57 4 22 
100 -119 120 8 
106 28 -22 105 
-124 64 38 -28 

80 40 -46 16 
102 -37 -30 37 
-30 -33 -4 -56 
-8 -121 -109 120 

43 -74 -102 -105 
-8 -62 -30 -34 
-42 -40 98 61 
-82 124 74 -93 

50 64 7 -60 
-97 36 -118 -128 
9 15 74 97 
-74 83 118 39 

-93 -29 -4 31 
113 -3 -94 -99 
-57 -41 120 -111 
30 20 56 -32 


-50 76 -53 23 
-105 22 -71 -1 
-45 -62 -23 50 
51 85 50 12 

-20 56 118 -30 
-30 -112 -32 44 
94 -22 -108 15 
-105 55 -24 -68 

-15 -88 -121 117 
-112 -82 -14 14 
-110 83 -31 111 
-104 53 -115 60 

-108 -57 4 22 
100 -119 120 8 
106 28 -22 105 
-124 64 38 -28 

80 40 -46 16 
102 -37 -30 37 
-30 -33 -4 -56 
-8 -121 -109 120 

43 -74 -102 -105 
-8 -62 -30 -34 
-42 -40 98 61 
-82 124 74 -93 

50 64 7 -60 
-97 36 -118 -128 
9 15 74 97 
-74 83 118 39 

-93 -29 -4 31 
113 -3 -94 -99 
-57 -41 120 -111 
30 20 56 -32 


-50 76 -53 23 
-105 22 -71 -1 
-45 -62 -23 50 
51 85 50 12 

-20 56 118 -30 
-30 -112 -32 44 
94 -22 -108 15 
-105 55 -24 -68 

-15 -88 -121 117 
-112 -82 -14 14 
-110 83 -31 111 
-104 53 -115 60 

-108 -57 4 22 
100 -119 120 8 
106 28 -22 105 
-124 64 38 -28 

80 40 -46 16 
102 -37 -30 37 
-30 -33 -4 -56 
-8 -121 -109 120 

43 -74 -102 -105 
-8 -62 -30 -34 
-42 -40 98 61 
-82 124 74 -93 

50 64 7 -60 
-97 36 -118 -128 
9 15 74 97 
-74 83 118 39 

-93 -29 -4 31 
113 -3 -94 -99 
-57 -41 120 -111 
30 20 56 -32 



-50 76 -53 23 
-105 22 -71 -1 
-45 -62 -23 50 
51 85 50 12 

-20 56 118 -30 
-30 -112 -32 44 
94 -22 -108 15 
-105 55 -24 -68 

-15 -88 -121 117 
-112 -82 -14 14 
-110 83 -31 111 
-104 53 -115 60 

-108 -57 4 22 
100 -119 120 8 
106 28 -22 105 
-124 64 38 -28 

80 40 -46 16 
102 -37 -30 37 
-30 -33 -4 -56 
-8 -121 -109 120 

43 -74 -102 -105 
-8 -62 -30 -34 
-42 -40 98 61 
-82 124 74 -93 

50 64 7 -60 
-97 36 -118 -128 
9 15 74 97 
-74 83 118 39 

-93 -29 -4 31 
113 -3 -94 -99 
-57 -41 120 -111 
30 20 56 -32 


-50 76 -53 23 
-105 22 -71 -1 
-45 -62 -23 50 
51 85 50 12 

-20 56 118 -30 
-30 -112 -32 44 
94 -22 -108 15 
-105 55 -24 -68 

-15 -88 -121 117 
-112 -82 -14 14 
-110 83 -31 111 
-104 53 -115 60 

-108 -57 4 22 
100 -119 120 8 
106 28 -22 105 
-124 64 38 -28 

80 40 -46 16 
102 -37 -30 37 
-30 -33 -4 -56 
-8 -121 -109 120 

43 -74 -102 -105 
-8 -62 -30 -34 
-42 -40 98 61 
-82 124 74 -93 

50 64 7 -60 
-97 36 -118 -128 
9 15 74 97 
-74 83 118 39 

-93 -29 -4 31 
113 -3 -94 -99 
-57 -41 120 -111 
30 20 56 -32 


-50 76 -53 23 
-105 22 -71 -1 
-45 -62 -23 50 
51 85 50 12 

-20 56 118 -30 
-30 -112 -32 44 
94 -22 -108 15 
-105 55 -24 -68 

-15 -88 -121 117 
-112 -82 -14 14 
-110 83 -31 111 
-104 53 -115 60 

-108 -57 4 22 
100 -119 120 8 
106 28 -22 105 
-124 64 38 -28 

80 40 -46 16 
102 -37 -30 37 
-30 -33 -4 -56 
-8 -121 -109 120 

43 -74 -102 -105 
-8 -62 -30 -34 
-42 -40 98 61 
-82 124 74 -93 

50 64 7 -60 
-97 36 -118 -128 
9 15 74 97 
-74 83 118 39 

-93 -29 -4 31 
113 -3 -94 -99 
-57 -41 120 -111 
30 20 56 -32 


-50 76 -53 23 
-105 22 -71 -1 
-45 -62 -23 50 
51 85 50 12 

-20 56 118 -30 
-30 -112 -32 44 
94 -22 -108 15 
-105 55 -24 -68 

-15 -88 -121 117 
-112 -82 -14 14 
-110 83 -31 111 
-104 53 -115 60 

-108 -57 4 22 
100 -119 120 8 
106 28 -22 105 
-124 64 38 -28 

80 40 -46 16 
102 -37 -30 37 
-30 -33 -4 -56 
-8 -121 -109 120 

43 -74 -102 -105 
-8 -62 -30 -34 
-42 -40 98 61 
-82 124 74 -93 

50 64 7 -60 
-97 36 -118 -128 
9 15 74 97 
-74 83 118 39 

-93 -29 -4 31 
113 -3 -94 -99 
-57 -41 120 -111 
30 20 56 -32 



-50 76 -53 23 
-105 22 -71 -1 
-45 -62 -23 50 
51 85 50 12 

-20 56 118 -30 
-30 -112 -32 44 
94 -22 -108 15 
-105 55 -24 -68 

-15 -88 -121 117 
-112 -82 -14 14 
-110 83 -31 111 
-104 53 -115 60 

-108 -57 4 22 
100 -119 120 8 
106 28 -22 105 
-124 64 38 -28 

80 40 -46 16 
102 -37 -30 37 
-30 -33 -4 -56 
-8 -121 -109 120 

43 -74 -102 -105 
-8 -62 -30 -34 
-42 -40 98 61 
-82 124 74 -93 

50 64 7 -60 
-97 36 -118 -128 
9 15 74 97 
-74 83 118 39 

-93 -29 -4 31 
113 -3 -94 -99 
-57 -41 120 -111 
30 20 56 -32 


-50 76 -53 23 
-105 22 -71 -1 
-45 -62 -23 50 
51 85 50 12 

-20 56 118 -30 
-30 -112 -32 44 
94 -22 -108 15 
-105 55 -24 -68 

-15 -88 -121 117 
-112 -82 -14 14 
-110 83 -31 111 
-104 53 -115 60 

-108 -57 4 22 
100 -119 120 8 
106 28 -22 105 
-124 64 38 -28 

80 40 -46 16 
102 -37 -30 37 
-30 -33 -4 -56 
-8 -121 -109 120 

43 -74 -102 -105 
-8 -62 -30 -34 
-42 -40 98 61 
-82 124 74 -93 

50 64 7 -60 
-97 36 -118 -128 
9 15 74 97 
-74 83 118 39 

-93 -29 -4 31 
113 -3 -94 -99 
-57 -41 120 -111 
30 20 56 -32 


-50 76 -53 23 
-105 22 -71 -1 
-45 -62 -23 50 
51 85 50 12 

-20 56 118 -30 
-30 -112 -32 44 
94 -22 -108 15 
-105 55 -24 -68 

-15 -88 -121 117 
-112 -82 -14 14 
-110 83 -31 111 
-104 53 -115 60 

-108 -57 4 22 
100 -119 120 8 
106 28 -22 105 
-124 64 38 -28 

80 40 -46 16 
102 -37 -30 37 
-30 -33 -4 -56 
-8 -121 -109 120 

43 -74 -102 -105 
-8 -62 -30 -34 
-42 -40 98 61 
-82 124 74 -93 

50 64 7 -60 
-97 36 -118 -128 
9 15 74 97 
-74 83 118 39 

-93 -29 -4 31 
113 -3 -94 -99 
-57 -41 120 -111 
30 20 56 -32 


-50 76 -53 23 
-105 22 -71 -1 
-45 -62 -23 50 
51 85 50 12 

-20 56 118 -30 
-30 -112 -32 44 
94 -22 -108 15 
-105 55 -24 -68 

-15 -88 -121 117 
-112 -82 -14 14 
-110 83 -31 111 
-104 53 -115 60 

-108 -57 4 22 
100 -119 120 8 
106 28 -22 105 
-124 64 38 -28 

80 40 -46 16 
102 -37 -30 37 
-30 -33 -4 -56 
-8 -121 -109 120 

43 -74 -102 -105 
-8 -62 -30 -34 
-42 -40 98 61 
-82 124 74 -93 

50 64 7 -60 
-97 36 -118 -128 
9 15 74 97 
-74 83 118 39 

-93 -29 -4 31 
113 -3 -94 -99 
-57 -41 120 -111 
30 20 56 -32 



-50 76 -53 23 
-105 22 -71 -1 
-45 -62 -23 50 
51 85 50 12 

-20 56 118 -30 
-30 -112 -32 44 
94 -22 -108 15 
-105 55 -24 -68 

-15 -88 -121 117 
-112 -82 -14 14 
-110 83 -31 111 
-104 53 -115 60 

-108 -57 4 22 
100 -119 120 8 
106 28 -22 105 
-124 64 38 -28 

80 40 -46 16 
102 -37 -30 37 
-30 -33 -4 -56 
-8 -121 -109 120 

43 -74 -102 -105 
-8 -62 -30 -34 
-42 -40 98 61 
-82 124 74 -93 

50 64 7 -60 
-97 36 -118 -128 
9 15 74 97 
-74 83 118 39 

-93 -29 -4 31 
113 -3 -94 -99 
-57 -41 120 -111 
30 20 56 -32 


-50 76 -53 23 
-105 22 -71 -1 
-45 -62 -23 50 
51 85 50 12 

-20 56 118 -30 
-30 -112 -32 44 
94 -22 -108 15 
-105 55 -24 -68 

-15 -88 -121 117 
-112 -82 -14 14 
-110 83 -31 111 
-104 53 -115 60 

-108 -57 4 22 
100 -119 120 8 
106 28 -22 105 
-124 64 38 -28 

80 40 -46 16 
102 -37 -30 37 
-30 -33 -4 -56 
-8 -121 -109 120 

43 -74 -102 -105 
-8 -62 -30 -34 
-42 -40 98 61 
-82 124 74 -93 

50 64 7 -60 
-97 36 -118 -128 
9 15 74 97 
-74 83 118 39 

-93 -29 -4 31 
113 -3 -94 -99 
-57 -41 120 -111 
30 20 56 -32 


-50 76 -53 23 
-105 22 -71 -1 
-45 -62 -23 50 
51 85 50 12 

-20 56 118 -30 
-30 -112 -32 44 
94 -22 -108 15 
-105 55 -24 -68 

-15 -88 -121 117 
-112 -82 -14 14 
-110 83 -31 111 
-104 53 -115 60 

-108 -57 4 22 
100 -119 120 8 
106 28 -22 105 
-124 64 38 -28 

80 40 -46 16 
102 -37 -30 37 
-30 -33 -4 -56 
-8 -121 -109 120 

43 -74 -102 -105 
-8 -62 -30 -34 
-42 -40 98 61 
-82 124 74 -93 

50 64 7 -60 
-97 36 -118 -128 
9 15 74 97 
-74 83 118 39 

-93 -29 -4 31 
113 -3 -94 -99 
-57 -41 120 -111 
30 20 56 -32 


-50 76 -53 23 
-105 22 -71 -1 
-45 -62 -23 50 
51 85 50 12 

-20 56 118 -30 
-30 -112 -32 44 
94 -22 -108 15 
-105 55 -24 -68 

-15 -88 -121 117 
-112 -82 -14 14 
-110 83 -31 111 
-104 53 -115 60 

-108 -57 4 22 
100 -119 120 8 
106 28 -22 105 
-124 64 38 -28 

80 40 -46 16 
102 -37 -30 37 
-30 -33 -4 -56 
-8 -121 -109 120 

43 -74 -102 -105 
-8 -62 -30 -34 
-42 -40 98 61 
-82 124 74 -93 

50 64 7 -60 
-97 36 -118 -128 
9 15 74 97 
-74 83 118 39 

-93 -29 -4 31 
113 -3 -94 -99 
-57 -41 120 -111 
30 20 56 -32 



-50 76 -53 23 
-105 22 -71 -1 
-45 -62 -23 50 
51 85 50 12 

-20 56 118 -30 
-30 -112 -32 44 
94 -22 -108 15 
-105 55 -24 -68 

-15 -88 -121 117 
-112 -82 -14 14 
-110 83 -31 111 
-104 53 -115 60 

-108 -57 4 22 
100 -119 120 8 
106 28 -22 105 
-124 64 38 -28 

80 40 -46 16 
102 -37 -30 37 
-30 -33 -4 -56 
-8 -121 -109 120 

43 -74 -102 -105 
-8 -62 -30 -34 
-42 -40 98 61 
-82 124 74 -93 

50 64 7 -60 
-97 36 -118 -128 
9 15 74 97 
-74 83 118 39 

-93 -29 -4 31 
113 -3 -94 -99 
-57 -41 120 -111 
30 20 56 -32 


-50 76 -53 23 
-105 22 -71 -1 
-45 -62 -23 50 
51 85 50 12 

-20 56 118 -30 
-30 -112 -32 44 
94 -22 -108 15 
-105 55 -24 -68 

-15 -88 -121 117 
-112 -82 -14 14 
-110 83 -31 111 
-104 53 -115 60 

-108 -57 4 22 
100 -119 120 8 
106 28 -22 105 
-124 64 38 -28 

80 40 -46 16 
102 -37 -30 37 
-30 -33 -4 -56 
-8 -121 -109 120 

43 -74 -102 -105 
-8 -62 -30 -34 
-42 -40 98 61 
-82 124 74 -93 

50 64 7 -60 
-97 36 -118 -128 
9 15 74 97 
-74 83 118 39 

-93 -29 -4 31 
113 -3 -94 -99 
-57 -41 120 -111 
30 20 56 -32 


-50 76 -53 23 
-105 22 -71 -1 
-45 -62 -23 50 
51 85 50 12 

-20 56 118 -30 
-30 -112 -32 44 
94 -22 -108 15 
-105 55 -24 -68 

-15 -88 -121 117 
-112 -82 -14 14 
-110 83 -31 111 
-104 53 -115 60 

-108 -57 4 22 
100 -119 120 8 
106 28 -22 105 
-124 64 38 -28 

80 40 -46 16 
102 -37 -30 37 
-30 -33 -4 -56 
-8 -121 -109 120 

43 -74 -102 -105 
-8 -62 -30 -34 
-42 -40 98 61 
-82 124 74 -93 

50 64 7 -60 
-97 36 -118 -128 
9 15 74 97 
-74 83 118 39 

-93 -29 -4 31 
113 -3 -94 -99 
-57 -41 120 -111 
30 20 56 -32 


-50 76 -53 23 
-105 22 -71 -1 
-45 -62 -23 50 
51 85 50 12 

-20 56 118 -30 
-30 -112 -32 44 
94 -22 -108 15 
-105 55 -24 -68 

-15 -88 -121 117 
-112 -82 -14 14 
-110 83 -31 111 
-104 53 -115 60 

-108 -57 4 22 
100 -119 120 8 
106 28 -22 105 
-124 64 38 -28 

80 40 -46 16 
102 -37 -30 37 
-30 -33 -4 -56 
-8 -121 -109 120 

43 -74 -102 -105 
-8 -62 -30 -34 
-42 -40 98 61 
-82 124 74 -93 

50 64 7 -60 
-97 36 -118 -128 
9 15 74 97 
-74 83 118 39 

-93 -29 -4 31 
113 -3 -94 -99 
-57 -41 120 -111 
30 20 56 -32 




12 69 -38 0 
108 -110 115 -18 
96 41 6 107 
-109 -26 84 -3 

-56 -67 31 -93 
52 54 -69 84 
10 103 -31 15 
42 127 95 -3 

110 40 -25 -15 
110 -3 -26 37 
74 -105 -123 43 
124 -57 57 -84 

73 57 43 2 
15 50 -18 84 
111 -80 -25 -116 
-99 -76 24 -65 

62 2 72 122 
112 40 -92 17 
117 -92 -7 93 
-27 -15 -23 -2 

103 5 -39 110 
-100 25 62 81 
56 45 46 116 
34 86 -55 -68 

45 -111 -2 77 
-42 -13 43 44 
-112 43 -26 -77 
96 59 41 -84 

123 -119 -34 -19 
-35 -46 -104 -116 
-15 -74 124 96 
-15 -121 -75 -44 


12 69 -38 0 
108 -110 115 -18 
96 41 6 107 
-109 -26 84 -3 

-56 -67 31 -93 
52 54 -69 84 
10 103 -31 15 
42 127 95 -3 

110 40 -25 -15 
110 -3 -26 37 
74 -105 -123 43 
124 -57 57 -84 

73 57 43 2 
15 50 -18 84 
111 -80 -25 -116 
-99 -76 24 -65 

62 2 72 122 
112 40 -92 17 
117 -92 -7 93 
-27 -15 -23 -2 

103 5 -39 110 
-100 25 62 81 
56 45 46 116 
34 86 -55 -68 

45 -111 -2 77 
-42 -13 43 44 
-112 43 -26 -77 
96 59 41 -84 

123 -119 -34 -19 
-35 -46 -104 -116 
-15 -74 124 96 
-15 -121 -75 -44 


12 69 -38 0 
108 -110 115 -18 
96 41 6 107 
-109 -26 84 -3 

-56 -67 31 -93 
52 54 -69 84 
10 103 -31 15 
42 127 95 -3 

110 40 -25 -15 
110 -3 -26 37 
74 -105 -123 43 
124 -57 57 -84 

73 57 43 2 
15 50 -18 84 
111 -80 -25 -116 
-99 -76 24 -65 

62 2 72 122 
112 40 -92 17 
117 -92 -7 93 
-27 -15 -23 -2 

103 5 -39 110 
-100 25 62 81 
56 45 46 116 
34 86 -55 -68 

45 -111 -2 77 
-42 -13 43 44 
-112 43 -26 -77 
96 59 41 -84 

123 -119 -34 -19 
-35 -46 -104 -116 
-15 -74 124 96 
-15 -121 -75 -44 


12 69 -38 0 
108 -110 115 -18 
96 41 6 107 
-109 -26 84 -3 

-56 -67 31 -93 
52 54 -69 84 
10 103 -31 15 
42 127 95 -3 

110 40 -25 -15 
110 -3 -26 37 
74 -105 -123 43 
124 -57 57 -84 

73 57 43 2 
15 50 -18 84 
111 -80 -25 -116 
-99 -76 24 -65 

62 2 72 122 
112 40 -92 17 
117 -92 -7 93 
-27 -15 -23 -2 

103 5 -39 110 
-100 25 62 81 
56 45 46 116 
34 86 -55 -68 

45 -111 -2 77 
-42 -13 43 44 
-112 43 -26 -77 
96 59 41 -84 

123 -119 -34 -19 
-35 -46 -104 -116 
-15 -74 124 96 
-15 -121 -75 -44 



12 69 -38 0 
108 -110 115 -18 
96 41 6 107 
-109 -26 84 -3 

-56 -67 31 -93 
52 54 -69 84 
10 103 -31 15 
42 127 95 -3 

110 40 -25 -15 
110 -3 -26 37 
74 -105 -123 43 
124 -57 57 -84 

73 57 43 2 
15 50 -18 84 
111 -80 -25 -116 
-99 -76 24 -65 

62 2 72 122 
112 40 -92 17 
117 -92 -7 93 
-27 -15 -23 -2 

103 5 -39 110 
-100 25 62 81 
56 45 46 116 
34 86 -55 -68 

45 -111 -2 77 
-42 -13 43 44 
-112 43 -26 -77 
96 59 41 -84 

123 -119 -34 -19 
-35 -46 -104 -116 
-15 -74 124 96 
-15 -121 -75 -44 


12 69 -38 0 
108 -110 115 -18 
96 41 6 107 
-109 -26 84 -3 

-56 -67 31 -93 
52 54 -69 84 
10 103 -31 15 
42 127 95 -3 

110 40 -25 -15 
110 -3 -26 37 
74 -105 -123 43 
124 -57 57 -84 

73 57 43 2 
15 50 -18 84 
111 -80 -25 -116 
-99 -76 24 -65 

62 2 72 122 
112 40 -92 17 
117 -92 -7 93 
-27 -15 -23 -2 

103 5 -39 110 
-100 25 62 81 
56 45 46 116 
34 86 -55 -68 

45 -111 -2 77 
-42 -13 43 44 
-112 43 -26 -77 
96 59 41 -84 

123 -119 -34 -19 
-35 -46 -104 -116 
-15 -74 124 96 
-15 -121 -75 -44 


12 69 -38 0 
108 -110 115 -18 
96 41 6 107 
-109 -26 84 -3 

-56 -67 31 -93 
52 54 -69 84 
10 103 -31 15 
42 127 95 -3 

110 40 -25 -15 
110 -3 -26 37 
74 -105 -123 43 
124 -57 57 -84 

73 57 43 2 
15 50 -18 84 
111 -80 -25 -116 
-99 -76 24 -65 

62 2 72 122 
112 40 -92 17 
117 -92 -7 93 
-27 -15 -23 -2 

103 5 -39 110 
-100 25 62 81 
56 45 46 116 
34 86 -55 -68 

45 -111 -2 77 
-42 -13 43 44 
-112 43 -26 -77 
96 59 41 -84 

123 -119 -34 -19 
-35 -46 -104 -116 
-15 -74 124 96 
-15 -121 -75 -44 


12 69 -38 0 
108 -110 115 -18 
96 41 6 107 
-109 -26 84 -3 

-56 -67 31 -93 
52 54 -69 84 
10 103 -31 15 
42 127 95 -3 

110 40 -25 -15 
110 -3 -26 37 
74 -105 -123 43 
124 -57 57 -84 

73 57 43 2 
15 50 -18 84 
111 -80 -25 -116 
-99 -76 24 -65 

62 2 72 122 
112 40 -92 17 
117 -92 -7 93 
-27 -15 -23 -2 

103 5 -39 110 
-100 25 62 81 
56 45 46 116 
34 86 -55 -68 

45 -111 -2 77 
-42 -13 43 44 
-112 43 -26 -77 
96 59 41 -84 

123 -119 -34 -19 
-35 -46 -104 -116 
-15 -74 124 96 
-15 -121 -75 -44 



12 69 -38 0 
108 -110 115 -18 
96 41 6 107 
-109 -26 84 -3 

-56 -67 31 -93 
52 54 -69 84 
10 103 -31 15 
42 127 95 -3 

110 40 -25 -15 
110 -3 -26 37 
74 -105 -123 43 
124 -57 57 -84 

73 57 43 2 
15 50 -18 84 
111 -80 -25 -116 
-99 -76 24 -65 

62 2 72 122 
112 40 -92 17 
117 -92 -7 93 
-27 -15 -23 -2 

103 5 -39 110 
-100 25 62 81 
56 45 46 116 
34 86 -55 -68 

45 -111 -2 77 
-42 -13 43 44 
-112 43 -26 -77 
96 59 41 -84 

123 -119 -34 -19 
-35 -46 -104 -116 
-15 -74 124 96 
-15 -121 -75 -44 


12 69 -38 0 
108 -110 115 -18 
96 41 6 107 
-109 -26 84 -3 

-56 -67 31 -93 
52 54 -69 84 
10 103 -31 15 
42 127 95 -3 

110 40 -25 -15 
110 -3 -26 37 
74 -105 -123 43 
124 -57 57 -84 

73 57 43 2 
15 50 -18 84 
111 -80 -25 -116 
-99 -76 24 -65 

62 2 72 122 
112 40 -92 17 
117 -92 -7 93 
-27 -15 -23 -2 

103 5 -39 110 
-100 25 62 81 
56 45 46 116 
34 86 -55 -68 

45 -111 -2 77 
-42 -13 43 44 
-112 43 -26 -77 
96 59 41 -84 

123 -119 -34 -19 
-35 -46 -104 -116 
-15 -74 124 96 
-15 -121 -75 -44 


12 69 -38 0 
108 -110 115 -18 
96 41 6 107 
-109 -26 84 -3 

-56 -67 31 -93 
52 54 -69 84 
10 103 -31 15 
42 127 95 -3 

110 40 -25 -15 
110 -3 -26 37 
74 -105 -123 43 
124 -57 57 -84 

73 57 43 2 
15 50 -18 84 
111 -80 -25 -116 
-99 -76 24 -65 

62 2 72 122 
112 40 -92 17 
117 -92 -7 93 
-27 -15 -23 -2 

103 5 -39 110 
-100 25 62 81 
56 45 46 116 
34 86 -55 -68 

45 -111 -2 77 
-42 -13 43 44 
-112 43 -26 -77 
96 59 41 -84 

123 -119 -34 -19 
-35 -46 -104 -116 
-15 -74 124 96 
-15 -121 -75 -44 


12 69 -38 0 
108 -110 115 -18 
96 41 6 107 
-109 -26 84 -3 

-56 -67 31 -93 
52 54 -69 84 
10 103 -31 15 
42 127 95 -3 

110 40 -25 -15 
110 -3 -26 37 
74 -105 -123 43 
124 -57 57 -84 

73 57 43 2 
15 50 -18 84 
111 -80 -25 -116 
-99 -76 24 -65 

62 2 72 122 
112 40 -92 17 
117 -92 -7 93 
-27 -15 -23 -2 

103 5 -39 110 
-100 25 62 81 
56 45 46 116 
34 86 -55 -68 

45 -111 -2 77 
-42 -13 43 44 
-112 43 -26 -77 
96 59 41 -84 

123 -119 -34 -19 
-35 -46 -104 -116 
-15 -74 124 96 
-15 -121 -75 -44 



12 69 -38 0 
108 -110 115 -18 
96 41 6 107 
-109 -26 84 -3 

-56 -67 31 -93 
52 54 -69 84 
10 103 -31 15 
42 127 95 -3 

110 40 -25 -15 
110 -3 -26 37 
74 -105 -123 43 
124 -57 57 -84 

73 57 43 2 
15 50 -18 84 
111 -80 -25 -116 
-99 -76 24 -65 

62 2 72 122 
112 40 -92 17 
117 -92 -7 93 
-27 -15 -23 -2 

103 5 -39 110 
-100 25 62 81 
56 45 46 116 
34 86 -55 -68 

45 -111 -2 77 
-42 -13 43 44 
-112 43 -26 -77 
96 59 41 -84 

123 -119 -34 -19 
-35 -46 -104 -116 
-15 -74 124 96 
-15 -121 -75 -44 


12 69 -38 0 
108 -110 115 -18 
96 41 6 107 
-109 -26 84 -3 

-56 -67 31 -93 
52 54 -69 84 
10 103 -31 15 
42 127 95 -3 

110 40 -25 -15 
110 -3 -26 37 
74 -105 -123 43 
124 -57 57 -84 

73 57 43 2 
15 50 -18 84 
111 -80 -25 -116 
-99 -76 24 -65 

62 2 72 122 
112 40 -92 17 
117 -92 -7 93 
-27 -15 -23 -2 

103 5 -39 110 
-100 25 62 81 
56 45 46 116 
34 86 -55 -68 

45 -111 -2 77 
-42 -13 43 44 
-112 43 -26 -77 
96 59 41 -84 

123 -119 -34 -19 
-35 -46 -104 -116 
-15 -74 124 96 
-15 -121 -75 -44 


12 69 -38 0 
108 -110 115 -18 
96 41 6 107 
-109 -26 84 -3 

-56 -67 31 -93 
52 54 -69 84 
10 103 -31 15 
42 127 95 -3 

110 40 -25 -15 
110 -3 -26 37 
74 -105 -123 43 
124 -57 57 -84 

73 57 43 2 
15 50 -18 84 
111 -80 -25 -116 
-99 -76 24 -65 

62 2 72 122 
112 40 -92 17 
117 -92 -7 93 
-27 -15 -23 -2 

103 5 -39 110 
-100 25 62 81 
56 45 46 116 
34 86 -55 -68 

45 -111 -2 77 
-42 -13 43 44 
-112 43 -26 -77 
96 59 41 -84 

123 -119 -34 -19 
-35 -46 -104 -116 
-15 -74 124 96 
-15 -121 -75 -44 


12 69 -38 0 
108 -110 115 -18 
96 41 6 107 
-109 -26 84 -3 

-56 -67 31 -93 
52 54 -69 84 
10 103 -31 15 
42 127 95 -3 

110 40 -25 -15 
110 -3 -26 37 
74 -105 -123 43 
124 -57 57 -84 

73 57 43 2 
15 50 -18 84 
111 -80 -25 -116 
-99 -76 24 -65 

62 2 72 122 
112 40 -92 17 
117 -92 -7 93 
-27 -15 -23 -2 

103 5 -39 110 
-100 25 62 81 
56 45 46 116 
34 86 -55 -68 

45 -111 -2 77 
-42 -13 43 44 
-112 43 -26 -77 
96 59 41 -84 

123 -119 -34 -19 
-35 -46 -104 -116 
-15 -74 124 96 
-15 -121 -75 -44 



12 69 -38 0 
108 -110 115 -18 
96 41 6 107 
-109 -26 84 -3 

-56 -67 31 -93 
52 54 -69 84 
10 103 -31 15 
42 127 95 -3 

110 40 -25 -15 
110 -3 -26 37 
74 -105 -123 43 
124 -57 57 -84 

73 57 43 2 
15 50 -18 84 
111 -80 -25 -116 
-99 -76 24 -65 

62 2 72 122 
112 40 -92 17 
117 -92 -7 93 
-27 -15 -23 -2 

103 5 -39 110 
-100 25 62 81 
56 45 46 116 
34 86 -55 -68 

45 -111 -2 77 
-42 -13 43 44 
-112 43 -26 -77 
96 59 41 -84 

123 -119 -34 -19 
-35 -46 -104 -116 
-15 -74 124 96 
-15 -121 -75 -44 


12 69 -38 0 
108 -110 115 -18 
96 41 6 107 
-109 -26 84 -3 

-56 -67 31 -93 
52 54 -69 84 
10 103 -31 15 
42 127 95 -3 

110 40 -25 -15 
110 -3 -26 37 
74 -105 -123 43 
124 -57 57 -84 

73 57 43 2 
15 50 -18 84 
111 -80 -25 -116 
-99 -76 24 -65 

62 2 72 122 
112 40 -92 17 
117 -92 -7 93 
-27 -15 -23 -2 

103 5 -39 110 
-100 25 62 81 
56 45 46 116 
34 86 -55 -68 

45 -111 -2 77 
-42 -13 43 44 
-112 43 -26 -77 
96 59 41 -84 

123 -119 -34 -19 
-35 -46 -104 -116 
-15 -74 124 96 
-15 -121 -75 -44 


12 69 -38 0 
108 -110 115 -18 
96 41 6 107 
-109 -26 84 -3 

-56 -67 31 -93 
52 54 -69 84 
10 103 -31 15 
42 127 95 -3 

110 40 -25 -15 
110 -3 -26 37 
74 -105 -123 43 
124 -57 57 -84 

73 57 43 2 
15 50 -18 84 
111 -80 -25 -116 
-99 -76 24 -65 

62 2 72 122 
112 40 -92 17 
117 -92 -7 93 
-27 -15 -23 -2 

103 5 -39 110 
-100 25 62 81 
56 45 46 116 
34 86 -55 -68 

45 -111 -2 77 
-42 -13 43 44 
-112 43 -26 -77 
96 59 41 -84 

123 -119 -34 -19 
-35 -46 -104 -116 
-15 -74 124 96 
-15 -121 -75 -44 


12 69 -38 0 
108 -110 115 -18 
96 41 6 107 
-109 -26 84 -3 

-56 -67 31 -93 
52 54 -69 84 
10 103 -31 15 
42 127 95 -3 

110 40 -25 -15 
110 -3 -26 37 
74 -105 -123 43 
124 -57 57 -84 

73 57 43 2 
15 50 -18 84 
111 -80 -25 -116 
-99 -76 24 -65 

62 2 72 122 
112 40 -92 17 
117 -92 -7 93 
-27 -15 -23 -2 

103 5 -39 110 
-100 25 62 81 
56 45 46 116 
34 86 -55 -68 

45 -111 -2 77 
-42 -13 43 44 
-112 43 -26 -77 
96 59 41 -84 

123 -119 -34 -19 
-35 -46 -104 -116 
-15 -74 124 96 
-15 -121 -75 -44 



12 69 -38 0 
108 -110 115 -18 
96 41 6 107 
-109 -26 84 -3 

-56 -67 31 -93 
52 54 -69 84 
10 103 -31 15 
42 127 95 -3 

110 40 -25 -15 
110 -3 -26 37 
74 -105 -123 43 
124 -57 57 -84 

73 57 43 2 
15 50 -18 84 
111 -80 -25 -116 
-99 -76 24 -65 

62 2 72 122 
112 40 -92 17 
117 -92 -7 93 
-27 -15 -23 -2 

103 5 -39 110 
-100 25 62 81 
56 45 46 116 
34 86 -55 -68 

45 -111 -2 77 
-42 -13 43 44 
-112 43 -26 -77 
96 59 41 -84 

123 -119 -34 -19 
-35 -46 -104 -116 
-15 -74 124 96 
-15 -121 -75 -44 


12 69 -38 0 
108 -110 115 -18 
96 41 6 107 
-109 -26 84 -3 

-56 -67 31 -93 
52 54 -69 84 
10 103 -31 15 
42 127 95 -3 

110 40 -25 -15 
110 -3 -26 37 
74 -105 -123 43 
124 -57 57 -84 

73 57 43 2 
15 50 -18 84 
111 -80 -25 -116 
-99 -76 24 -65 

62 2 72 122 
112 40 -92 17 
117 -92 -7 93 
-27 -15 -23 -2 

103 5 -39 110 
-100 25 62 81 
56 45 46 116 
34 86 -55 -68 

45 -111 -2 77 
-42 -13 43 44 
-112 43 -26 -77 
96 59 41 -84 

123 -119 -34 -19 
-35 -46 -104 -116 
-15 -74 124 96 
-15 -121 -75 -44 


12 69 -38 0 
108 -110 115 -18 
96 41 6 107 
-109 -26 84 -3 

-56 -67 31 -93 
52 54 -69 84 
10 103 -31 15 
42 127 95 -3 

110 40 -25 -15 
110 -3 -26 37 
74 -105 -123 43 
124 -57 57 -84 

73 57 43 2 
15 50 -18 84 
111 -80 -25 -116 
-99 -76 24 -65 

62 2 72 122 
112 40 -92 17 
117 -92 -7 93 
-27 -15 -23 -2 

103 5 -39 110 
-100 25 62 81 
56 45 46 116 
34 86 -55 -68 

45 -111 -2 77 
-42 -13 43 44 
-112 43 -26 -77 
96 59 41 -84 

123 -119 -34 -19 
-35 -46 -104 -116 
-15 -74 124 96 
-15 -121 -75 -44 


12 69 -38 0 
108 -110 115 -18 
96 41 6 107 
-109 -26 84 -3 

-56 -67 31 -93 
52 54 -69 84 
10 103 -31 15 
42 127 95 -3 

110 40 -25 -15 
110 -3 -26 37 
74 -105 -123 43 
124 -57 57 -84 

73 57 43 2 
15 50 -18 84 
111 -80 -25 -116 
-99 -76 24 -65 

62 2 72 122 
112 40 -92 17 
117 -92 -7 93 
-27 -15 -23 -2 

103 5 -39 110 
-100 25 62 81 
56 45 46 116 
34 86 -55 -68 

45 -111 -2 77 
-42 -13 43 44 
-112 43 -26 -77 
96 59 41 -84 

123 -119 -34 -19 
-35 -46 -104 -116 
-15 -74 124 96 
-15 -121 -75 -44 



12 69 -38 0 
108 -110 115 -18 
96 41 6 107 
-109 -26 84 -3 

-56 -67 31 -93 
52 54 -69 84 
10 103 -31 15 
42 127 95 -3 

110 40 -25 -15 
110 -3 -26 37 
74 -105 -123 43 
124 -57 57 -84 

73 57 43 2 
15 50 -18 84 
111 -80 -25 -116 
-99 -76 24 -65 

62 2 72 122 
112 40 -92 17 
117 -92 -7 93 
-27 -15 -23 -2 

103 5 -39 110 
-100 25 62 81 
56 45 46 116 
34 86 -55 -68 

45 -111 -2 77 
-42 -13 43 44 
-112 43 -26 -77 
96 59 41 -84 

123 -119 -34 -19 
-35 -46 -104 -116 
-15 -74 124 96 
-15 -121 -75 -44 


12 69 -38 0 
108 -110 115 -18 
96 41 6 107 
-109 -26 84 -3 

-56 -67 31 -93 
52 54 -69 84 
10 103 -31 15 
42 127 95 -3 

110 40 -25 -15 
110 -3 -26 37 
74 -105 -123 43 
124 -57 57 -84 

73 57 43 2 
15 50 -18 84 
111 -80 -25 -116 
-99 -76 24 -65 

62 2 72 122 
112 40 -92 17 
117 -92 -7 93 
-27 -15 -23 -2 

103 5 -39 110 
-100 25 62 81 
56 45 46 116 
34 86 -55 -68 

45 -111 -2 77 
-42 -13 43 44 
-112 43 -26 -77 
96 59 41 -84 

123 -119 -34 -19 
-35 -46 -104 -116 
-15 -74 124 96 
-15 -121 -75 -44 


12 69 -38 0 
108 -110 115 -18 
96 41 6 107 
-109 -26 84 -3 

-56 -67 31 -93 
52 54 -69 84 
10 103 -31 15 
42 127 95 -3 

110 40 -25 -15 
110 -3 -26 37 
74 -105 -123 43 
124 -57 57 -84 

73 57 43 2 
15 50 -18 84 
111 -80 -25 -116 
-99 -76 24 -65 

62 2 72 122 
112 40 -92 17 
117 -92 -7 93 
-27 -15 -23 -2 

103 5 -39 110 
-100 25 62 81 
56 45 46 116 
34 86 -55 -68 

45 -111 -2 77 
-42 -13 43 44 
-112 43 -26 -77 
96 59 41 -84 

123 -119 -34 -19 
-35 -46 -104 -116 
-15 -74 124 96 
-15 -121 -75 -44 


12 69 -38 0 
108 -110 115 -18 
96 41 6 107 
-109 -26 84 -3 

-56 -67 31 -93 
52 54 -69 84 
10 103 -31 15 
42 127 95 -3 

110 40 -25 -15 
110 -3 -26 37 
74 -105 -123 43 
124 -57 57 -84 

73 57 43 2 
15 50 -18 84 
111 -80 -25 -116 
-99 -76 24 -65 

62 2 72 122 
112 40 -92 17 
117 -92 -7 93 
-27 -15 -23 -2 

103 5 -39 110 
-100 25 62 81 
56 45 46 116 
34 86 -55 -68 

45 -111 -2 77 
-42 -13 43 44 
-112 43 -26 -77 
96 59 41 -84 

123 -119 -34 -19 
-35 -46 -104 -116 
-15 -74 124 96 
-15 -121 -75 -44 



12 69 -38 0 
108 -110 115 -18 
96 41 6 107 
-109 -26 84 -3 

-56 -67 31 -93 
52 54 -69 84 
10 103 -31 15 
42 127 95 -3 

110 40 -25 -15 
110 -3 -26 37 
74 -105 -123 43 
124 -57 57 -84 

73 57 43 2 
15 50 -18 84 
111 -80 -25 -116 
-99 -76 24 -65 

62 2 72 122 
112 40 -92 17 
117 -92 -7 93 
-27 -15 -23 -2 

103 5 -39 110 
-100 25 62 81 
56 45 46 116 
34 86 -55 -68 

45 -111 -2 77 
-42 -13 43 44 
-112 43 -26 -77 
96 59 41 -84 

123 -119 -34 -19 
-35 -46 -104 -116 
-15 -74 124 96 
-15 -121 -75 -44 


12 69 -38 0 
108 -110 115 -18 
96 41 6 107 
-109 -26 84 -3 

-56 -67 31 -93 
52 54 -69 84 
10 103 -31 15 
42 127 95 -3 

110 40 -25 -15 
110 -3 -26 37 
74 -105 -123 43 
124 -57 57 -84 

73 57 43 2 
15 50 -18 84 
111 -80 -25 -116 
-99 -76 24 -65 

62 2 72 122 
112 40 -92 17 
117 -92 -7 93 
-27 -15 -23 -2 

103 5 -39 110 
-100 25 62 81 
56 45 46 116 
34 86 -55 -68 

45 -111 -2 77 
-42 -13 43 44 
-112 43 -26 -77 
96 59 41 -84 

123 -119 -34 -19 
-35 -46 -104 -116 
-15 -74 124 96 
-15 -121 -75 -44 


12 69 -38 0 
108 -110 115 -18 
96 41 6 107 
-109 -26 84 -3 

-56 -67 31 -93 
52 54 -69 84 
10 103 -31 15 
42 127 95 -3 

110 40 -25 -15 
110 -3 -26 37 
74 -105 -123 43 
124 -57 57 -84 

73 57 43 2 
15 50 -18 84 
111 -80 -25 -116 
-99 -76 24 -65 

62 2 72 122 
112 40 -92 17 
117 -92 -7 93 
-27 -15 -23 -2 

103 5 -39 110 
-100 25 62 81 
56 45 46 116 
34 86 -55 -68 

45 -111 -2 77 
-42 -13 43 44 
-112 43 -26 -77 
96 59 41 -84 

123 -119 -34 -19 
-35 -46 -104 -116 
-15 -74 124 96 
-15 -121 -75 -44 


12 69 -38 0 
108 -110 115 -18 
96 41 6 107 
-109 -26 84 -3 

-56 -67 31 -93 
52 54 -69 84 
10 103 -31 15 
42 127 95 -3 

110 40 -25 -15 
110 -3 -26 37 
74 -105 -123 43 
124 -57 57 -84 

73 57 43 2 
15 50 -18 84 
111 -80 -25 -116 
-99 -76 24 -65 

62 2 72 122 
112 40 -92 17 
117 -92 -7 93 
-27 -15 -23 -2 

103 5 -39 110 
-100 25 62 81 
56 45 46 116 
34 86 -55 -68 

45 -111 -2 77 
-42 -13 43 44 
-112 43 -26 -77 
96 59 41 -84 

123 -119 -34 -19 
-35 -46 -104 -116 
-15 -74 124 96 
-15 -121 -75 -44 



12 69 -38 0 
108 -110 115 -18 
96 41 6 107 
-109 -26 84 -3 

-56 -67 31 -93 
52 54 -69 84 
10 103 -31 15 
42 127 95 -3 

110 40 -25 -15 
110 -3 -26 37 
74 -105 -123 43 
124 -57 57 -84 

73 57 43 2 
15 50 -18 84 
111 -80 -25 -116 
-99 -76 24 -65 

62 2 72 122 
112 40 -92 17 
117 -92 -7 93 
-27 -15 -23 -2 

103 5 -39 110 
-100 25 62 81 
56 45 46 116 
34 86 -55 -68 

45 -111 -2 77 
-42 -13 43 44 
-112 43 -26 -77 
96 59 41 -84 

123 -119 -34 -19 
-35 -46 -104 -116 
-15 -74 124 96 
-15 -121 -75 -44 


12 69 -38 0 
108 -110 115 -18 
96 41 6 107 
-109 -26 84 -3 

-56 -67 31 -93 
52 54 -69 84 
10 103 -31 15 
42 127 95 -3 

110 40 -25 -15 
110 -3 -26 37 
74 -105 -123 43 
124 -57 57 -84 

73 57 43 2 
15 50 -18 84 
111 -80 -25 -116 
-99 -76 24 -65 

62 2 72 122 
112 40 -92 17 
117 -92 -7 93 
-27 -15 -23 -2 

103 5 -39 110 
-100 25 62 81 
56 45 46 116 
34 86 -55 -68 

45 -111 -2 77 
-42 -13 43 44 
-112 43 -26 -77 
96 59 41 -84 

123 -119 -34 -19 
-35 -46 -104 -116 
-15 -74 124 96 
-15 -121 -75 -44 


12 69 -38 0 
108 -110 115 -18 
96 41 6 107 
-109 -26 84 -3 

-56 -67 31 -93 
52 54 -69 84 
10 103 -31 15 
42 127 95 -3 

110 40 -25 -15 
110 -3 -26 37 
74 -105 -123 43 
124 -57 57 -84 

73 57 43 2 
15 50 -18 84 
111 -80 -25 -116 
-99 -76 24 -65 

62 2 72 122 
112 40 -92 17 
117 -92 -7 93 
-27 -15 -23 -2 

103 5 -39 110 
-100 25 62 81 
56 45 46 116 
34 86 -55 -68 

45 -111 -2 77 
-42 -13 43 44 
-112 43 -26 -77 
96 59 41 -84 

123 -119 -34 -19 
-35 -46 -104 -116 
-15 -74 124 96 
-15 -121 -75 -44 


12 69 -38 0 
108 -110 115 -18 
96 41 6 107 
-109 -26 84 -3 

-56 -67 31 -93 
52 54 -69 84 
10 103 -31 15 
42 127 95 -3 

110 40 -25 -15 
110 -3 -26 37 
74 -105 -123 43 
124 -57 57 -84 

73 57 43 2 
15 50 -18 84 
111 -80 -25 -116 
-99 -76 24 -65 

62 2 72 122 
112 40 -92 17 
117 -92 -7 93 
-27 -15 -23 -2 

103 5 -39 110 
-100 25 62 81 
56 45 46 116 
34 86 -55 -68 

45 -111 -2 77 
-42 -13 43 44 
-112 43 -26 -77 
96 59 41 -84 

123 -119 -34 -19 
-35 -46 -104 -116 
-15 -74 124 96 
-15 -121 -75 -44 



12 69 -38 0 
108 -110 115 -18 
96 41 6 107 
-109 -26 84 -3 

-56 -67 31 -93 
52 54 -69 84 
10 103 -31 15 
42 127 95 -3 

110 40 -25 -15 
110 -3 -26 37 
74 -105 -123 43 
124 -57 57 -84 

73 57 43 2 
15 50 -18 84 
111 -80 -25 -116 
-99 -76 24 -65 

62 2 72 122 
112 40 -92 17 
117 -92 -7 93 
-27 -15 -23 -2 

103 5 -39 110 
-100 25 62 81 
56 45 46 116 
34 86 -55 -68 

45 -111 -2 77 
-42 -13 43 44 
-112 43 -26 -77 
96 59 41 -84 

123 -119 -34 -19 
-35 -46 -104 -116 
-15 -74 124 96 
-15 -121 -75 -44 


12 69 -38 0 
108 -110 115 -18 
96 41 6 107 
-109 -26 84 -3 

-56 -67 31 -93 
52 54 -69 84 
10 103 -31 15 
42 127 95 -3 

110 40 -25 -15 
110 -3 -26 37 
74 -105 -123 43 
124 -57 57 -84 

73 57 43 2 
15 50 -18 84 
111 -80 -25 -116 
-99 -76 24 -65 

62 2 72 122 
112 40 -92 17 
117 -92 -7 93 
-27 -15 -23 -2 

103 5 -39 110 
-100 25 62 81 
56 45 46 116 
34 86 -55 -68 

45 -111 -2 77 
-42 -13 43 44 
-112 43 -26 -77 
96 59 41 -84 

123 -119 -34 -19 
-35 -46 -104 -116 
-15 -74 124 96 
-15 -121 -75 -44 


12 69 -38 0 
108 -110 115 -18 
96 41 6 107 
-109 -26 84 -3 

-56 -67 31 -93 
52 54 -69 84 
10 103 -31 15 
42 127 95 -3 

110 40 -25 -15 
110 -3 -26 37 
74 -105 -123 43 
124 -57 57 -84 

73 57 43 2 
15 50 -18 84 
111 -80 -25 -116 
-99 -76 24 -65 

62 2 72 122 
112 40 -92 17 
117 -92 -7 93 
-27 -15 -23 -2 

103 5 -39 110 
-100 25 62 81 
56 45 46 116 
34 86 -55 -68 

45 -111 -2 77 
-42 -13 43 44 
-112 43 -26 -77 
96 59 41 -84 

123 -119 -34 -19 
-35 -46 -104 -116 
-15 -74 124 96 
-15 -121 -75 -44 


12 69 -38 0 
108 -110 115 -18 
96 41 6 107 
-109 -26 84 -3 

-56 -67 31 -93 
52 54 -69 84 
10 103 -31 15 
42 127 95 -3 

110 40 -25 -15 
110 -3 -26 37 
74 -105 -123 43 
124 -57 57 -84 

73 57 43 2 
15 50 -18 84 
111 -80 -25 -116 
-99 -76 24 -65 

62 2 72 122 
112 40 -92 17 
117 -92 -7 93 
-27 -15 -23 -2 

103 5 -39 110 
-100 25 62 81 
56 45 46 116 
34 86 -55 -68 

45 -111 -2 77 
-42 -13 43 44 
-112 43 -26 -77 
96 59 41 -84 

123 -119 -34 -19 
-35 -46 -104 -116 
-15 -74 124 96 
-15 -121 -75 -44 



12 69 -38 0 
108 -110 115 -18 
96 41 6 107 
-109 -26 84 -3 

-56 -67 31 -93 
52 54 -69 84 
10 103 -31 15 
42 127 95 -3 

110 40 -25 -15 
110 -3 -26 37 
74 -105 -123 43 
124 -57 57 -84 

73 57 43 2 
15 50 -18 84 
111 -80 -25 -116 
-99 -76 24 -65 

62 2 72 122 
112 40 -92 17 
117 -92 -7 93 
-27 -15 -23 -2 

103 5 -39 110 
-100 25 62 81 
56 45 46 116 
34 86 -55 -68 

45 -111 -2 77 
-42 -13 43 44 
-112 43 -26 -77 
96 59 41 -84 

123 -119 -34 -19 
-35 -46 -104 -116 
-15 -74 124 96 
-15 -121 -75 -44 


12 69 -38 0 
108 -110 115 -18 
96 41 6 107 
-109 -26 84 -3 

-56 -67 31 -93 
52 54 -69 84 
10 103 -31 15 
42 127 95 -3 

110 40 -25 -15 
110 -3 -26 37 
74 -105 -123 43 
124 -57 57 -84 

73 57 43 2 
15 50 -18 84 
111 -80 -25 -116 
-99 -76 24 -65 

62 2 72 122 
112 40 -92 17 
117 -92 -7 93 
-27 -15 -23 -2 

103 5 -39 110 
-100 25 62 81 
56 45 46 116 
34 86 -55 -68 

45 -111 -2 77 
-42 -13 43 44 
-112 43 -26 -77 
96 59 41 -84 

123 -119 -34 -19 
-35 -46 -104 -116 
-15 -74 124 96 
-15 -121 -75 -44 


12 69 -38 0 
108 -110 115 -18 
96 41 6 107 
-109 -26 84 -3 

-56 -67 31 -93 
52 54 -69 84 
10 103 -31 15 
42 127 95 -3 

110 40 -25 -15 
110 -3 -26 37 
74 -105 -123 43 
124 -57 57 -84 

73 57 43 2 
15 50 -18 84 
111 -80 -25 -116 
-99 -76 24 -65 

62 2 72 122 
112 40 -92 17 
117 -92 -7 93 
-27 -15 -23 -2 

103 5 -39 110 
-100 25 62 81 
56 45 46 116 
34 86 -55 -68 

45 -111 -2 77 
-42 -13 43 44 
-112 43 -26 -77 
96 59 41 -84 

123 -119 -34 -19 
-35 -46 -104 -116 
-15 -74 124 96 
-15 -121 -75 -44 


12 69 -38 0 
108 -110 115 -18 
96 41 6 107 
-109 -26 84 -3 

-56 -67 31 -93 
52 54 -69 84 
10 103 -31 15 
42 127 95 -3 

110 40 -25 -15 
110 -3 -26 37 
74 -105 -123 43 
124 -57 57 -84 

73 57 43 2 
15 50 -18 84 
111 -80 -25 -116 
-99 -76 24 -65 

62 2 72 122 
112 40 -92 17 
117 -92 -7 93 
-27 -15 -23 -2 

103 5 -39 110 
-100 25 62 81 
56 45 46 116 
34 86 -55 -68 

45 -111 -2 77 
-42 -13 43 44 
-112 43 -26 -77 
96 59 41 -84 

123 -119 -34 -19 
-35 -46 -104 -116 
-15 -74 124 96 
-15 -121 -75 -44 



12 69 -38 0 
108 -110 115 -18 
96 41 6 107 
-109 -26 84 -3 

-56 -67 31 -93 
52 54 -69 84 
10 103 -31 15 
42 127 95 -3 

110 40 -25 -15 
110 -3 -26 37 
74 -105 -123 43 
124 -57 57 -84 

73 57 43 2 
15 50 -18 84 
111 -80 -25 -116 
-99 -76 24 -65 

62 2 72 122 
112 40 -92 17 
117 -92 -7 93 
-27 -15 -23 -2 

103 5 -39 110 
-100 25 62 81 
56 45 46 116 
34 86 -55 -68 

45 -111 -2 77 
-42 -13 43 44 
-112 43 -26 -77 
96 59 41 -84 

123 -119 -34 -19 
-35 -46 -104 -116 
-15 -74 124 96 
-15 -121 -75 -44 


12 69 -38 0 
108 -110 115 -18 
96 41 6 107 
-109 -26 84 -3 

-56 -67 31 -93 
52 54 -69 84 
10 103 -31 15 
42 127 95 -3 

110 40 -25 -15 
110 -3 -26 37 
74 -105 -123 43 
124 -57 57 -84 

73 57 43 2 
15 50 -18 84 
111 -80 -25 -116 
-99 -76 24 -65 

62 2 72 122 
112 40 -92 17 
117 -92 -7 93 
-27 -15 -23 -2 

103 5 -39 110 
-100 25 62 81 
56 45 46 116 
34 86 -55 -68 

45 -111 -2 77 
-42 -13 43 44 
-112 43 -26 -77 
96 59 41 -84 

123 -119 -34 -19 
-35 -46 -104 -116 
-15 -74 124 96 
-15 -121 -75 -44 


12 69 -38 0 
108 -110 115 -18 
96 41 6 107 
-109 -26 84 -3 

-56 -67 31 -93 
52 54 -69 84 
10 103 -31 15 
42 127 95 -3 

110 40 -25 -15 
110 -3 -26 37 
74 -105 -123 43 
124 -57 57 -84 

73 57 43 2 
15 50 -18 84 
111 -80 -25 -116 
-99 -76 24 -65 

62 2 72 122 
112 40 -92 17 
117 -92 -7 93 
-27 -15 -23 -2 

103 5 -39 110 
-100 25 62 81 
56 45 46 116 
34 86 -55 -68 

45 -111 -2 77 
-42 -13 43 44 
-112 43 -26 -77 
96 59 41 -84 

123 -119 -34 -19 
-35 -46 -104 -116 
-15 -74 124 96 
-15 -121 -75 -44 


12 69 -38 0 
108 -110 115 -18 
96 41 6 107 
-109 -26 84 -3 

-56 -67 31 -93 
52 54 -69 84 
10 103 -31 15 
42 127 95 -3 

110 40 -25 -15 
110 -3 -26 37 
74 -105 -123 43 
124 -57 57 -84 

73 57 43 2 
15 50 -18 84 
111 -80 -25 -116 
-99 -76 24 -65 

62 2 72 122 
112 40 -92 17 
117 -92 -7 93 
-27 -15 -23 -2 

103 5 -39 110 
-100 25 62 81 
56 45 46 116 
34 86 -55 -68 

45 -111 -2 77 
-42 -13 43 44 
-112 43 -26 -77 
96 59 41 -84 

123 -119 -34 -19 
-35 -46 -104 -116 
-15 -74 124 96 
-15 -121 -75 -44 



12 69 -38 0 
108 -110 115 -18 
96 41 6 107 
-109 -26 84 -3 

-56 -67 31 -93 
52 54 -69 84 
10 103 -31 15 
42 127 95 -3 

110 40 -25 -15 
110 -3 -26 37 
74 -105 -123 43 
124 -57 57 -84 

73 57 43 2 
15 50 -18 84 
111 -80 -25 -116 
-99 -76 24 -65 

62 2 72 122 
112 40 -92 17 
117 -92 -7 93 
-27 -15 -23 -2 

103 5 -39 110 
-100 25 62 81 
56 45 46 116 
34 86 -55 -68 

45 -111 -2 77 
-42 -13 43 44 
-112 43 -26 -77 
96 59 41 -84 

123 -119 -34 -19 
-35 -46 -104 -116 
-15 -74 124 96 
-15 -121 -75 -44 


12 69 -38 0 
108 -110 115 -18 
96 41 6 107 
-109 -26 84 -3 

-56 -67 31 -93 
52 54 -69 84 
10 103 -31 15 
42 127 95 -3 

110 40 -25 -15 
110 -3 -26 37 
74 -105 -123 43 
124 -57 57 -84 

73 57 43 2 
15 50 -18 84 
111 -80 -25 -116 
-99 -76 24 -65 

62 2 72 122 
112 40 -92 17 
117 -92 -7 93 
-27 -15 -23 -2 

103 5 -39 110 
-100 25 62 81 
56 45 46 116 
34 86 -55 -68 

45 -111 -2 77 
-42 -13 43 44 
-112 43 -26 -77 
96 59 41 -84 

123 -119 -34 -19 
-35 -46 -104 -116 
-15 -74 124 96 
-15 -121 -75 -44 


12 69 -38 0 
108 -110 115 -18 
96 41 6 107 
-109 -26 84 -3 

-56 -67 31 -93 
52 54 -69 84 
10 103 -31 15 
42 127 95 -3 

110 40 -25 -15 
110 -3 -26 37 
74 -105 -123 43 
124 -57 57 -84 

73 57 43 2 
15 50 -18 84 
111 -80 -25 -116 
-99 -76 24 -65 

62 2 72 122 
112 40 -92 17 
117 -92 -7 93 
-27 -15 -23 -2 

103 5 -39 110 
-100 25 62 81 
56 45 46 116 
34 86 -55 -68 

45 -111 -2 77 
-42 -13 43 44 
-112 43 -26 -77 
96 59 41 -84 

123 -119 -34 -19 
-35 -46 -104 -116 
-15 -74 124 96 
-15 -121 -75 -44 


12 69 -38 0 
108 -110 115 -18 
96 41 6 107 
-109 -26 84 -3 

-56 -67 31 -93 
52 54 -69 84 
10 103 -31 15 
42 127 95 -3 

110 40 -25 -15 
110 -3 -26 37 
74 -105 -123 43 
124 -57 57 -84 

73 57 43 2 
15 50 -18 84 
111 -80 -25 -116 
-99 -76 24 -65 

62 2 72 122 
112 40 -92 17 
117 -92 -7 93 
-27 -15 -23 -2 

103 5 -39 110 
-100 25 62 81 
56 45 46 116 
34 86 -55 -68 

45 -111 -2 77 
-42 -13 43 44 
-112 43 -26 -77 
96 59 41 -84 

123 -119 -34 -19 
-35 -46 -104 -116 
-15 -74 124 96 
-15 -121 -75 -44 




62 -61 70 61 
-95 61 17 -19 
-84 -93 27 62 
-104 108 54 -67 

15 65 29 -113 
54 -34 -39 36 
82 88 100 -61 
2 122 -124 109 

64 -15 92 -49 
17 -128 43 116 
-54 -122 80 57 
-59 -75 -8 1 

96 -107 -90 -71 
122 98 -23 62 
-122 -124 -60 34 
-61 60 94 -32 

-19 -83 54 108 
56 -112 -31 -51 
60 114 72 -110 
-52 -90 18 47 

115 11 -123 4 
-76 -108 20 45 
-67 -71 55 24 
-60 44 111 118 

-83 80 35 122 
-33 -78 -98 -20 
-26 -83 -13 -24 
98 -44 -36 -44 

-88 75 24 35 
-66 -57 109 98 
5 -14 -65 -119 
-37 -18 113 -105 


62 -61 70 61 
-95 61 17 -19 
-84 -93 27 62 
-104 108 54 -67 

15 65 29 -113 
54 -34 -39 36 
82 88 100 -61 
2 122 -124 109 

64 -15 92 -49 
17 -128 43 116 
-54 -122 80 57 
-59 -75 -8 1 

96 -107 -90 -71 
122 98 -23 62 
-122 -124 -60 34 
-61 60 94 -32 

-19 -83 54 108 
56 -112 -31 -51 
60 114 72 -110 
-52 -90 18 47 

115 11 -123 4 
-76 -108 20 45 
-67 -71 55 24 
-60 44 111 118 

-83 80 35 122 
-33 -78 -98 -20 
-26 -83 -13 -24 
98 -44 -36 -44 

-88 75 24 35 
-66 -57 109 98 
5 -14 -65 -119 
-37 -18 113 -105 


62 -61 70 61 
-95 61 17 -19 
-84 -93 27 62 
-104 108 54 -67 

15 65 29 -113 
54 -34 -39 36 
82 88 100 -61 
2 122 -124 109 

64 -15 92 -49 
17 -128 43 116 
-54 -122 80 57 
-59 -75 -8 1 

96 -107 -90 -71 
122 98 -23 62 
-122 -124 -60 34 
-61 60 94 -32 

-19 -83 54 108 
56 -112 -31 -51 
60 114 72 -110 
-52 -90 18 47 

115 11 -123 4 
-76 -108 20 45 
-67 -71 55 24 
-60 44 111 118 

-83 80 35 122 
-33 -78 -98 -20 
-26 -83 -13 -24 
98 -44 -36 -44 

-88 75 24 35 
-66 -57 109 98 
5 -14 -65 -119 
-37 -18 113 -105 


62 -61 70 61 
-95 61 17 -19 
-84 -93 27 62 
-104 108 54 -67 

15 65 29 -113 
54 -34 -39 36 
82 88 100 -61 
2 122 -124 109 

64 -15 92 -49 
17 -128 43 116 
-54 -122 80 57 
-59 -75 -8 1 

96 -107 -90 -71 
122 98 -23 62 
-122 -124 -60 34 
-61 60 94 -32 

-19 -83 54 108 
56 -112 -31 -51 
60 114 72 -110 
-52 -90 18 47 

115 11 -123 4 
-76 -108 20 45 
-67 -71 55 24 
-60 44 111 118 

-83 80 35 122 
-33 -78 -98 -20 
-26 -83 -13 -24 
98 -44 -36 -44 

-88 75 24 35 
-66 -57 109 98 
5 -14 -65 -119 
-37 -18 113 -105 



62 -61 70 61 
-95 61 17 -19 
-84 -93 27 62 
-104 108 54 -67 

15 65 29 -113 
54 -34 -39 36 
82 88 100 -61 
2 122 -124 109 

64 -15 92 -49 
17 -128 43 116 
-54 -122 80 57 
-59 -75 -8 1 

96 -107 -90 -71 
122 98 -23 62 
-122 -124 -60 34 
-61 60 94 -32 

-19 -83 54 108 
56 -112 -31 -51 
60 114 72 -110 
-52 -90 18 47 

115 11 -123 4 
-76 -108 20 45 
-67 -71 55 24 
-60 44 111 118 

-83 80 35 122 
-33 -78 -98 -20 
-26 -83 -13 -24 
98 -44 -36 -44 

-88 75 24 35 
-66 -57 109 98 
5 -14 -65 -119 
-37 -18 113 -105 


62 -61 70 61 
-95 61 17 -19 
-84 -93 27 62 
-104 108 54 -67 

15 65 29 -113 
54 -34 -39 36 
82 88 100 -61 
2 122 -124 109 

64 -15 92 -49 
17 -128 43 116 
-54 -122 80 57 
-59 -75 -8 1 

96 -107 -90 -71 
122 98 -23 62 
-122 -124 -60 34 
-61 60 94 -32 

-19 -83 54 108 
56 -112 -31 -51 
60 114 72 -110 
-52 -90 18 47 

115 11 -123 4 
-76 -108 20 45 
-67 -71 55 24 
-60 44 111 118 

-83 80 35 122 
-33 -78 -98 -20 
-26 -83 -13 -24 
98 -44 -36 -44 

-88 75 24 35 
-66 -57 109 98 
5 -14 -65 -119 
-37 -18 113 -105 


62 -61 70 61 
-95 61 17 -19 
-84 -93 27 62 
-104 108 54 -67 

15 65 29 -113 
54 -34 -39 36 
82 88 100 -61 
2 122 -124 109 

64 -15 92 -49 
17 -128 43 116 
-54 -122 80 57 
-59 -75 -8 1 

96 -107 -90 -71 
122 98 -23 62 
-122 -124 -60 34 
-61 60 94 -32 

-19 -83 54 108 
56 -112 -31 -51 
60 114 72 -110 
-52 -90 18 47 

115 11 -123 4 
-76 -108 20 45 
-67 -71 55 24 
-60 44 111 118 

-83 80 35 122 
-33 -78 -98 -20 
-26 -83 -13 -24 
98 -44 -36 -44 

-88 75 24 35 
-66 -57 109 98 
5 -14 -65 -119 
-37 -18 113 -105 


62 -61 70 61 
-95 61 17 -19 
-84 -93 27 62 
-104 108 54 -67 

15 65 29 -113 
54 -34 -39 36 
82 88 100 -61 
2 122 -124 109 

64 -15 92 -49 
17 -128 43 116 
-54 -122 80 57 
-59 -75 -8 1 

96 -107 -90 -71 
122 98 -23 62 
-122 -124 -60 34 
-61 60 94 -32 

-19 -83 54 108 
56 -112 -31 -51 
60 114 72 -110 
-52 -90 18 47 

115 11 -123 4 
-76 -108 20 45 
-67 -71 55 24 
-60 44 111 118 

-83 80 35 122 
-33 -78 -98 -20 
-26 -83 -13 -24 
98 -44 -36 -44 

-88 75 24 35 
-66 -57 109 98 
5 -14 -65 -119 
-37 -18 113 -105 



62 -61 70 61 
-95 61 17 -19 
-84 -93 27 62 
-104 108 54 -67 

15 65 29 -113 
54 -34 -39 36 
82 88 100 -61 
2 122 -124 109 

64 -15 92 -49 
17 -128 43 116 
-54 -122 80 57 
-59 -75 -8 1 

96 -107 -90 -71 
122 98 -23 62 
-122 -124 -60 34 
-61 60 94 -32 

-19 -83 54 108 
56 -112 -31 -51 
60 114 72 -110 
-52 -90 18 47 

115 11 -123 4 
-76 -108 20 45 
-67 -71 55 24 
-60 44 111 118 

-83 80 35 122 
-33 -78 -98 -20 
-26 -83 -13 -24 
98 -44 -36 -44 

-88 75 24 35 
-66 -57 109 98 
5 -14 -65 -119 
-37 -18 113 -105 


62 -61 70 61 
-95 61 17 -19 
-84 -93 27 62 
-104 108 54 -67 

15 65 29 -113 
54 -34 -39 36 
82 88 100 -61 
2 122 -124 109 

64 -15 92 -49 
17 -128 43 116 
-54 -122 80 57 
-59 -75 -8 1 

96 -107 -90 -71 
122 98 -23 62 
-122 -124 -60 34 
-61 60 94 -32 

-19 -83 54 108 
56 -112 -31 -51 
60 114 72 -110 
-52 -90 18 47 

115 11 -123 4 
-76 -108 20 45 
-67 -71 55 24 
-60 44 111 118 

-83 80 35 122 
-33 -78 -98 -20 
-26 -83 -13 -24 
98 -44 -36 -44 

-88 75 24 35 
-66 -57 109 98 
5 -14 -65 -119 
-37 -18 113 -105 


62 -61 70 61 
-95 61 17 -19 
-84 -93 27 62 
-104 108 54 -67 

15 65 29 -113 
54 -34 -39 36 
82 88 100 -61 
2 122 -124 109 

64 -15 92 -49 
17 -128 43 116 
-54 -122 80 57 
-59 -75 -8 1 

96 -107 -90 -71 
122 98 -23 62 
-122 -124 -60 34 
-61 60 94 -32 

-19 -83 54 108 
56 -112 -31 -51 
60 114 72 -110 
-52 -90 18 47 

115 11 -123 4 
-76 -108 20 45 
-67 -71 55 24 
-60 44 111 118 

-83 80 35 122 
-33 -78 -98 -20 
-26 -83 -13 -24 
98 -44 -36 -44 

-88 75 24 35 
-66 -57 109 98 
5 -14 -65 -119 
-37 -18 113 -105 


62 -61 70 61 
-95 61 17 -19 
-84 -93 27 62 
-104 108 54 -67 

15 65 29 -113 
54 -34 -39 36 
82 88 100 -61 
2 122 -124 109 

64 -15 92 -49 
17 -128 43 116 
-54 -122 80 57 
-59 -75 -8 1 

96 -107 -90 -71 
122 98 -23 62 
-122 -124 -60 34 
-61 60 94 -32 

-19 -83 54 108 
56 -112 -31 -51 
60 114 72 -110 
-52 -90 18 47 

115 11 -123 4 
-76 -108 20 45 
-67 -71 55 24 
-60 44 111 118 

-83 80 35 122 
-33 -78 -98 -20 
-26 -83 -13 -24 
98 -44 -36 -44 

-88 75 24 35 
-66 -57 109 98 
5 -14 -65 -119 
-37 -18 113 -105 



62 -61 70 61 
-95 61 17 -19 
-84 -93 27 62 
-104 108 54 -67 

15 65 29 -113 
54 -34 -39 36 
82 88 100 -61 
2 122 -124 109 

64 -15 92 -49 
17 -128 43 116 
-54 -122 80 57 
-59 -75 -8 1 

96 -107 -90 -71 
122 98 -23 62 
-122 -124 -60 34 
-61 60 94 -32 

-19 -83 54 108 
56 -112 -31 -51 
60 114 72 -110 
-52 -90 18 47 

115 11 -123 4 
-76 -108 20 45 
-67 -71 55 24 
-60 44 111 118 

-83 80 35 122 
-33 -78 -98 -20 
-26 -83 -13 -24 
98 -44 -36 -44 

-88 75 24 35 
-66 -57 109 98 
5 -14 -65 -119 
-37 -18 113 -105 


62 -61 70 61 
-95 61 17 -19 
-84 -93 27 62 
-104 108 54 -67 

15 65 29 -113 
54 -34 -39 36 
82 88 100 -61 
2 122 -124 109 

64 -15 92 -49 
17 -128 43 116 
-54 -122 80 57 
-59 -75 -8 1 

96 -107 -90 -71 
122 98 -23 62 
-122 -124 -60 34 
-61 60 94 -32 

-19 -83 54 108 
56 -112 -31 -51 
60 114 72 -110 
-52 -90 18 47 

115 11 -123 4 
-76 -108 20 45 
-67 -71 55 24 
-60 44 111 118 

-83 80 35 122 
-33 -78 -98 -20 
-26 -83 -13 -24 
98 -44 -36 -44 

-88 75 24 35 
-66 -57 109 98 
5 -14 -65 -119 
-37 -18 113 -105 


62 -61 70 61 
-95 61 17 -19 
-84 -93 27 62 
-104 108 54 -67 

15 65 29 -113 
54 -34 -39 36 
82 88 100 -61 
2 122 -124 109 

64 -15 92 -49 
17 -128 43 116 
-54 -122 80 57 
-59 -75 -8 1 

96 -107 -90 -71 
122 98 -23 62 
-122 -124 -60 34 
-61 60 94 -32 

-19 -83 54 108 
56 -112 -31 -51 
60 114 72 -110 
-52 -90 18 47 

115 11 -123 4 
-76 -108 20 45 
-67 -71 55 24 
-60 44 111 118 

-83 80 35 122 
-33 -78 -98 -20 
-26 -83 -13 -24 
98 -44 -36 -44 

-88 75 24 35 
-66 -57 109 98 
5 -14 -65 -119 
-37 -18 113 -105 


62 -61 70 61 
-95 61 17 -19 
-84 -93 27 62 
-104 108 54 -67 

15 65 29 -113 
54 -34 -39 36 
82 88 100 -61 
2 122 -124 109 

64 -15 92 -49 
17 -128 43 116 
-54 -122 80 57 
-59 -75 -8 1 

96 -107 -90 -71 
122 98 -23 62 
-122 -124 -60 34 
-61 60 94 -32 

-19 -83 54 108 
56 -112 -31 -51 
60 114 72 -110 
-52 -90 18 47 

115 11 -123 4 
-76 -108 20 45 
-67 -71 55 24 
-60 44 111 118 

-83 80 35 122 
-33 -78 -98 -20 
-26 -83 -13 -24 
98 -44 -36 -44 

-88 75 24 35 
-66 -57 109 98 
5 -14 -65 -119 
-37 -18 113 -105 



62 -61 70 61 
-95 61 17 -19 
-84 -93 27 62 
-104 108 54 -67 

15 65 29 -113 
54 -34 -39 36 
82 88 100 -61 
2 122 -124 109 

64 -15 92 -49 
17 -128 43 116 
-54 -122 80 57 
-59 -75 -8 1 

96 -107 -90 -71 
122 98 -23 62 
-122 -124 -60 34 
-61 60 94 -32 

-19 -83 54 108 
56 -112 -31 -51 
60 114 72 -110 
-52 -90 18 47 

115 11 -123 4 
-76 -108 20 45 
-67 -71 55 24 
-60 44 111 118 

-83 80 35 122 
-33 -78 -98 -20 
-26 -83 -13 -24 
98 -44 -36 -44 

-88 75 24 35 
-66 -57 109 98 
5 -14 -65 -119 
-37 -18 113 -105 


62 -61 70 61 
-95 61 17 -19 
-84 -93 27 62 
-104 108 54 -67 

15 65 29 -113 
54 -34 -39 36 
82 88 100 -61 
2 122 -124 109 

64 -15 92 -49 
17 -128 43 116 
-54 -122 80 57 
-59 -75 -8 1 

96 -107 -90 -71 
122 98 -23 62 
-122 -124 -60 34 
-61 60 94 -32 

-19 -83 54 108 
56 -112 -31 -51 
60 114 72 -110 
-52 -90 18 47 

115 11 -123 4 
-76 -108 20 45 
-67 -71 55 24 
-60 44 111 118 

-83 80 35 122 
-33 -78 -98 -20 
-26 -83 -13 -24 
98 -44 -36 -44 

-88 75 24 35 
-66 -57 109 98 
5 -14 -65 -119 
-37 -18 113 -105 


62 -61 70 61 
-95 61 17 -19 
-84 -93 27 62 
-104 108 54 -67 

15 65 29 -113 
54 -34 -39 36 
82 88 100 -61 
2 122 -124 109 

64 -15 92 -49 
17 -128 43 116 
-54 -122 80 57 
-59 -75 -8 1 

96 -107 -90 -71 
122 98 -23 62 
-122 -124 -60 34 
-61 60 94 -32 

-19 -83 54 108 
56 -112 -31 -51 
60 114 72 -110 
-52 -90 18 47 

115 11 -123 4 
-76 -108 20 45 
-67 -71 55 24 
-60 44 111 118 

-83 80 35 122 
-33 -78 -98 -20 
-26 -83 -13 -24 
98 -44 -36 -44 

-88 75 24 35 
-66 -57 109 98 
5 -14 -65 -119 
-37 -18 113 -105 


62 -61 70 61 
-95 61 17 -19 
-84 -93 27 62 
-104 108 54 -67 

15 65 29 -113 
54 -34 -39 36 
82 88 100 -61 
2 122 -124 109 

64 -15 92 -49 
17 -128 43 116 
-54 -122 80 57 
-59 -75 -8 1 

96 -107 -90 -71 
122 98 -23 62 
-122 -124 -60 34 
-61 60 94 -32 

-19 -83 54 108 
56 -112 -31 -51 
60 114 72 -110 
-52 -90 18 47 

115 11 -123 4 
-76 -108 20 45 
-67 -71 55 24 
-60 44 111 118 

-83 80 35 122 
-33 -78 -98 -20 
-26 -83 -13 -24 
98 -44 -36 -44 

-88 75 24 35 
-66 -57 109 98 
5 -14 -65 -119 
-37 -18 113 -105 



62 -61 70 61 
-95 61 17 -19 
-84 -93 27 62 
-104 108 54 -67 

15 65 29 -113 
54 -34 -39 36 
82 88 100 -61 
2 122 -124 109 

64 -15 92 -49 
17 -128 43 116 
-54 -122 80 57 
-59 -75 -8 1 

96 -107 -90 -71 
122 98 -23 62 
-122 -124 -60 34 
-61 60 94 -32 

-19 -83 54 108 
56 -112 -31 -51 
60 114 72 -110 
-52 -90 18 47 

115 11 -123 4 
-76 -108 20 45 
-67 -71 55 24 
-60 44 111 118 

-83 80 35 122 
-33 -78 -98 -20 
-26 -83 -13 -24 
98 -44 -36 -44 

-88 75 24 35 
-66 -57 109 98 
5 -14 -65 -119 
-37 -18 113 -105 


62 -61 70 61 
-95 61 17 -19 
-84 -93 27 62 
-104 108 54 -67 

15 65 29 -113 
54 -34 -39 36 
82 88 100 -61 
2 122 -124 109 

64 -15 92 -49 
17 -128 43 116 
-54 -122 80 57 
-59 -75 -8 1 

96 -107 -90 -71 
122 98 -23 62 
-122 -124 -60 34 
-61 60 94 -32 

-19 -83 54 108 
56 -112 -31 -51 
60 114 72 -110 
-52 -90 18 47 

115 11 -123 4 
-76 -108 20 45 
-67 -71 55 24 
-60 44 111 118 

-83 80 35 122 
-33 -78 -98 -20 
-26 -83 -13 -24 
98 -44 -36 -44 

-88 75 24 35 
-66 -57 109 98 
5 -14 -65 -119 
-37 -18 113 -105 


62 -61 70 61 
-95 61 17 -19 
-84 -93 27 62 
-104 108 54 -67 

15 65 29 -113 
54 -34 -39 36 
82 88 100 -61 
2 122 -124 109 

64 -15 92 -49 
17 -128 43 116 
-54 -122 80 57 
-59 -75 -8 1 

96 -107 -90 -71 
122 98 -23 62 
-122 -124 -60 34 
-61 60 94 -32 

-19 -83 54 108 
56 -112 -31 -51 
60 114 72 -110 
-52 -90 18 47 

115 11 -123 4 
-76 -108 20 45 
-67 -71 55 24 
-60 44 111 118 

-83 80 35 122 
-33 -78 -98 -20 
-26 -83 -13 -24 
98 -44 -36 -44 

-88 75 24 35 
-66 -57 109 98 
5 -14 -65 -119 
-37 -18 113 -105 


62 -61 70 61 
-95 61 17 -19 
-84 -93 27 62 
-104 108 54 -67 

15 65 29 -113 
54 -34 -39 36 
82 88 100 -61 
2 122 -124 109 

64 -15 92 -49 
17 -128 43 116 
-54 -122 80 57 
-59 -75 -8 1 

96 -107 -90 -71 
122 98 -23 62 
-122 -124 -60 34 
-61 60 94 -32 

-19 -83 54 108 
56 -112 -31 -51 
60 114 72 -110 
-52 -90 18 47 

115 11 -123 4 
-76 -108 20 45 
-67 -71 55 24 
-60 44 111 118 

-83 80 35 122 
-33 -78 -98 -20 
-26 -83 -13 -24 
98 -44 -36 -44 

-88 75 24 35 
-66 -57 109 98 
5 -14 -65 -119 
-37 -18 113 -105 



62 -61 70 61 
-95 61 17 -19 
-84 -93 27 62 
-104 108 54 -67 

15 65 29 -113 
54 -34 -39 36 
82 88 100 -61 
2 122 -124 109 

64 -15 92 -49 
17 -128 43 116 
-54 -122 80 57 
-59 -75 -8 1 

96 -107 -90 -71 
122 98 -23 62 
-122 -124 -60 34 
-61 60 94 -32 

-19 -83 54 108 
56 -112 -31 -51 
60 114 72 -110 
-52 -90 18 47 

115 11 -123 4 
-76 -108 20 45 
-67 -71 55 24 
-60 44 111 118 

-83 80 35 122 
-33 -78 -98 -20 
-26 -83 -13 -24 
98 -44 -36 -44 

-88 75 24 35 
-66 -57 109 98 
5 -14 -65 -119 
-37 -18 113 -105 


62 -61 70 61 
-95 61 17 -19 
-84 -93 27 62 
-104 108 54 -67 

15 65 29 -113 
54 -34 -39 36 
82 88 100 -61 
2 122 -124 109 

64 -15 92 -49 
17 -128 43 116 
-54 -122 80 57 
-59 -75 -8 1 

96 -107 -90 -71 
122 98 -23 62 
-122 -124 -60 34 
-61 60 94 -32 

-19 -83 54 108 
56 -112 -31 -51 
60 114 72 -110 
-52 -90 18 47 

115 11 -123 4 
-76 -108 20 45 
-67 -71 55 24 
-60 44 111 118 

-83 80 35 122 
-33 -78 -98 -20 
-26 -83 -13 -24 
98 -44 -36 -44 

-88 75 24 35 
-66 -57 109 98 
5 -14 -65 -119 
-37 -18 113 -105 


62 -61 70 61 
-95 61 17 -19 
-84 -93 27 62 
-104 108 54 -67 

15 65 29 -113 
54 -34 -39 36 
82 88 100 -61 
2 122 -124 109 

64 -15 92 -49 
17 -128 43 116 
-54 -122 80 57 
-59 -75 -8 1 

96 -107 -90 -71 
122 98 -23 62 
-122 -124 -60 34 
-61 60 94 -32 

-19 -83 54 108 
56 -112 -31 -51 
60 114 72 -110 
-52 -90 18 47 

115 11 -123 4 
-76 -108 20 45 
-67 -71 55 24 
-60 44 111 118 

-83 80 35 122 
-33 -78 -98 -20 
-26 -83 -13 -24 
98 -44 -36 -44 

-88 75 24 35 
-66 -57 109 98 
5 -14 -65 -119 
-37 -18 113 -105 


62 -61 70 61 
-95 61 17 -19 
-84 -93 27 62 
-104 108 54 -67 

15 65 29 -113 
54 -34 -39 36 
82 88 100 -61 
2 122 -124 109 

64 -15 92 -49 
17 -128 43 116 
-54 -122 80 57 
-59 -75 -8 1 

96 -107 -90 -71 
122 98 -23 62 
-122 -124 -60 34 
-61 60 94 -32 

-19 -83 54 108 
56 -112 -31 -51 
60 114 72 -110 
-52 -90 18 47 

115 11 -123 4 
-76 -108 20 45 
-67 -71 55 24 
-60 44 111 118 

-83 80 35 122 
-33 -78 -98 -20 
-26 -83 -13 -24 
98 -44 -36 -44 

-88 75 24 35 
-66 -57 109 98 
5 -14 -65 -119 
-37 -18 113 -105 



62 -61 70 61 
-95 61 17 -19 
-84 -93 27 62 
-104 108 54 -67 

15 65 29 -113 
54 -34 -39 36 
82 88 100 -61 
2 122 -124 109 

64 -15 92 -49 
17 -128 43 116 
-54 -122 80 57 
-59 -75 -8 1 

96 -107 -90 -71 
122 98 -23 62 
-122 -124 -60 34 
-61 60 94 -32 

-19 -83 54 108 
56 -112 -31 -51 
60 114 72 -110 
-52 -90 18 47 

115 11 -123 4 
-76 -108 20 45 
-67 -71 55 24 
-60 44 111 118 

-83 80 35 122 
-33 -78 -98 -20 
-26 -83 -13 -24 
98 -44 -36 -44 

-88 75 24 35 
-66 -57 109 98 
5 -14 -65 -119 
-37 -18 113 -105 


62 -61 70 61 
-95 61 17 -19 
-84 -93 27 62 
-104 108 54 -67 

15 65 29 -113 
54 -34 -39 36 
82 88 100 -61 
2 122 -124 109 

64 -15 92 -49 
17 -128 43 116 
-54 -122 80 57 
-59 -75 -8 1 

96 -107 -90 -71 
122 98 -23 62 
-122 -124 -60 34 
-61 60 94 -32 

-19 -83 54 108 
56 -112 -31 -51 
60 114 72 -110 
-52 -90 18 47 

115 11 -123 4 
-76 -108 20 45 
-67 -71 55 24 
-60 44 111 118 

-83 80 35 122 
-33 -78 -98 -20 
-26 -83 -13 -24 
98 -44 -36 -44 

-88 75 24 35 
-66 -57 109 98 
5 -14 -65 -119 
-37 -18 113 -105 


62 -61 70 61 
-95 61 17 -19 
-84 -93 27 62 
-104 108 54 -67 

15 65 29 -113 
54 -34 -39 36 
82 88 100 -61 
2 122 -124 109 

64 -15 92 -49 
17 -128 43 116 
-54 -122 80 57 
-59 -75 -8 1 

96 -107 -90 -71 
122 98 -23 62 
-122 -124 -60 34 
-61 60 94 -32 

-19 -83 54 108 
56 -112 -31 -51 
60 114 72 -110 
-52 -90 18 47 

115 11 -123 4 
-76 -108 20 45 
-67 -71 55 24 
-60 44 111 118 

-83 80 35 122 
-33 -78 -98 -20 
-26 -83 -13 -24 
98 -44 -36 -44 

-88 75 24 35 
-66 -57 109 98 
5 -14 -65 -119 
-37 -18 113 -105 


62 -61 70 61 
-95 61 17 -19 
-84 -93 27 62 
-104 108 54 -67 

15 65 29 -113 
54 -34 -39 36 
82 88 100 -61 
2 122 -124 109 

64 -15 92 -49 
17 -128 43 116 
-54 -122 80 57 
-59 -75 -8 1 

96 -107 -90 -71 
122 98 -23 62 
-122 -124 -60 34 
-61 60 94 -32 

-19 -83 54 108 
56 -112 -31 -51 
60 114 72 -110 
-52 -90 18 47 

115 11 -123 4 
-76 -108 20 45 
-67 -71 55 24 
-60 44 111 118 

-83 80 35 122 
-33 -78 -98 -20 
-26 -83 -13 -24 
98 -44 -36 -44 

-88 75 24 35 
-66 -57 109 98 
5 -14 -65 -119 
-37 -18 113 -105 



62 -61 70 61 
-95 61 17 -19 
-84 -93 27 62 
-104 108 54 -67 

15 65 29 -113 
54 -34 -39 36 
82 88 100 -61 
2 122 -124 109 

64 -15 92 -49 
17 -128 43 116 
-54 -122 80 57 
-59 -75 -8 1 

96 -107 -90 -71 
122 98 -23 62 
-122 -124 -60 34 
-61 60 94 -32 

-19 -83 54 108 
56 -112 -31 -51 
60 114 72 -110 
-52 -90 18 47 

115 11 -123 4 
-76 -108 20 45 
-67 -71 55 24 
-60 44 111 118 

-83 80 35 122 
-33 -78 -98 -20 
-26 -83 -13 -24 
98 -44 -36 -44 

-88 75 24 35 
-66 -57 109 98 
5 -14 -65 -119 
-37 -18 113 -105 


62 -61 70 61 
-95 61 17 -19 
-84 -93 27 62 
-104 108 54 -67 

15 65 29 -113 
54 -34 -39 36 
82 88 100 -61 
2 122 -124 109 

64 -15 92 -49 
17 -128 43 116 
-54 -122 80 57 
-59 -75 -8 1 

96 -107 -90 -71 
122 98 -23 62 
-122 -124 -60 34 
-61 60 94 -32 

-19 -83 54 108 
56 -112 -31 -51 
60 114 72 -110 
-52 -90 18 47 

115 11 -123 4 
-76 -108 20 45 
-67 -71 55 24 
-60 44 111 118 

-83 80 35 122 
-33 -78 -98 -20 
-26 -83 -13 -24 
98 -44 -36 -44 

-88 75 24 35 
-66 -57 109 98 
5 -14 -65 -119 
-37 -18 113 -105 


62 -61 70 61 
-95 61 17 -19 
-84 -93 27 62 
-104 108 54 -67 

15 65 29 -113 
54 -34 -39 36 
82 88 100 -61 
2 122 -124 109 

64 -15 92 -49 
17 -128 43 116 
-54 -122 80 57 
-59 -75 -8 1 

96 -107 -90 -71 
122 98 -23 62 
-122 -124 -60 34 
-61 60 94 -32 

-19 -83 54 108 
56 -112 -31 -51 
60 114 72 -110 
-52 -90 18 47 

115 11 -123 4 
-76 -108 20 45 
-67 -71 55 24 
-60 44 111 118 

-83 80 35 122 
-33 -78 -98 -20 
-26 -83 -13 -24 
98 -44 -36 -44 

-88 75 24 35 
-66 -57 109 98 
5 -14 -65 -119 
-37 -18 113 -105 


62 -61 70 61 
-95 61 17 -19 
-84 -93 27 62 
-104 108 54 -67 

15 65 29 -113 
54 -34 -39 36 
82 88 100 -61 
2 122 -124 109 

64 -15 92 -49 
17 -128 43 116 
-54 -122 80 57 
-59 -75 -8 1 

96 -107 -90 -71 
122 98 -23 62 
-122 -124 -60 34 
-61 60 94 -32 

-19 -83 54 108 
56 -112 -31 -51 
60 114 72 -110 
-52 -90 18 47 

115 11 -123 4 
-76 -108 20 45 
-67 -71 55 24 
-60 44 111 118 

-83 80 35 122 
-33 -78 -98 -20 
-26 -83 -13 -24 
98 -44 -36 -44 

-88 75 24 35 
-66 -57 109 98 
5 -14 -65 -119 
-37 -18 113 -105 



62 -61 70 61 
-95 61 17 -19 
-84 -93 27 62 
-104 108 54 -67 

15 65 29 -113 
54 -34 -39 36 
82 88 100 -61 
2 122 -124 109 

64 -15 92 -49 
17 -128 43 116 
-54 -122 80 57 
-59 -75 -8 1 

96 -107 -90 -71 
122 98 -23 62 
-122 -124 -60 34 
-61 60 94 -32 

-19 -83 54 108 
56 -112 -31 -51 
60 114 72 -110 
-52 -90 18 47 

115 11 -123 4 
-76 -108 20 45 
-67 -71 55 24 
-60 44 111 118 

-83 80 35 122 
-33 -78 -98 -20 
-26 -83 -13 -24 
98 -44 -36 -44 

-88 75 24 35 
-66 -57 109 98 
5 -14 -65 -119 
-37 -18 113 -105 


62 -61 70 61 
-95 61 17 -19 
-84 -93 27 62 
-104 108 54 -67 

15 65 29 -113 
54 -34 -39 36 
82 88 100 -61 
2 122 -124 109 

64 -15 92 -49 
17 -128 43 116 
-54 -122 80 57 
-59 -75 -8 1 

96 -107 -90 -71 
122 98 -23 62 
-122 -124 -60 34 
-61 60 94 -32 

-19 -83 54 108 
56 -112 -31 -51 
60 114 72 -110 
-52 -90 18 47 

115 11 -123 4 
-76 -108 20 45 
-67 -71 55 24 
-60 44 111 118 

-83 80 35 122 
-33 -78 -98 -20 
-26 -83 -13 -24 
98 -44 -36 -44 

-88 75 24 35 
-66 -57 109 98 
5 -14 -65 -119 
-37 -18 113 -105 


62 -61 70 61 
-95 61 17 -19 
-84 -93 27 62 
-104 108 54 -67 

15 65 29 -113 
54 -34 -39 36 
82 88 100 -61 
2 122 -124 109 

64 -15 92 -49 
17 -128 43 116 
-54 -122 80 57 
-59 -75 -8 1 

96 -107 -90 -71 
122 98 -23 62 
-122 -124 -60 34 
-61 60 94 -32 

-19 -83 54 108 
56 -112 -31 -51 
60 114 72 -110 
-52 -90 18 47 

115 11 -123 4 
-76 -108 20 45 
-67 -71 55 24 
-60 44 111 118 

-83 80 35 122 
-33 -78 -98 -20 
-26 -83 -13 -24 
98 -44 -36 -44 

-88 75 24 35 
-66 -57 109 98 
5 -14 -65 -119 
-37 -18 113 -105 


62 -61 70 61 
-95 61 17 -19 
-84 -93 27 62 
-104 108 54 -67 

15 65 29 -113 
54 -34 -39 36 
82 88 100 -61 
2 122 -124 109 

64 -15 92 -49 
17 -128 43 116 
-54 -122 80 57 
-59 -75 -8 1 

96 -107 -90 -71 
122 98 -23 62 
-122 -124 -60 34 
-61 60 94 -32 

-19 -83 54 108 
56 -112 -31 -51 
60 114 72 -110 
-52 -90 18 47 

115 11 -123 4 
-76 -108 20 45 
-67 -71 55 24 
-60 44 111 118 

-83 80 35 122 
-33 -78 -98 -20 
-26 -83 -13 -24 
98 -44 -36 -44 

-88 75 24 35 
-66 -57 109 98 
5 -14 -65 -119 
-37 -18 113 -105 



62 -61 70 61 
-95 61 17 -19 
-84 -93 27 62 
-104 108 54 -67 

15 65 29 -113 
54 -34 -39 36 
82 88 100 -61 
2 122 -124 109 

64 -15 92 -49 
17 -128 43 116 
-54 -122 80 57 
-59 -75 -8 1 

96 -107 -90 -71 
122 98 -23 62 
-122 -124 -60 34 
-61 60 94 -32 

-19 -83 54 108 
56 -112 -31 -51 
60 114 72 -110 
-52 -90 18 47 

115 11 -123 4 
-76 -108 20 45 
-67 -71 55 24 
-60 44 111 118 

-83 80 35 122 
-33 -78 -98 -20 
-26 -83 -13 -24 
98 -44 -36 -44 

-88 75 24 35 
-66 -57 109 98 
5 -14 -65 -119 
-37 -18 113 -105 


62 -61 70 61 
-95 61 17 -19 
-84 -93 27 62 
-104 108 54 -67 

15 65 29 -113 
54 -34 -39 36 
82 88 100 -61 
2 122 -124 109 

64 -15 92 -49 
17 -128 43 116 
-54 -122 80 57 
-59 -75 -8 1 

96 -107 -90 -71 
122 98 -23 62 
-122 -124 -60 34 
-61 60 94 -32 

-19 -83 54 108 
56 -112 -31 -51 
60 114 72 -110 
-52 -90 18 47 

115 11 -123 4 
-76 -108 20 45 
-67 -71 55 24 
-60 44 111 118 

-83 80 35 122 
-33 -78 -98 -20 
-26 -83 -13 -24 
98 -44 -36 -44 

-88 75 24 35 
-66 -57 109 98 
5 -14 -65 -119 
-37 -18 113 -105 


62 -61 70 61 
-95 61 17 -19 
-84 -93 27 62 
-104 108 54 -67 

15 65 29 -113 
54 -34 -39 36 
82 88 100 -61 
2 122 -124 109 

64 -15 92 -49 
17 -128 43 116 
-54 -122 80 57 
-59 -75 -8 1 

96 -107 -90 -71 
122 98 -23 62 
-122 -124 -60 34 
-61 60 94 -32 

-19 -83 54 108 
56 -112 -31 -51 
60 114 72 -110 
-52 -90 18 47 

115 11 -123 4 
-76 -108 20 45 
-67 -71 55 24 
-60 44 111 118 

-83 80 35 122 
-33 -78 -98 -20 
-26 -83 -13 -24 
98 -44 -36 -44 

-88 75 24 35 
-66 -57 109 98 
5 -14 -65 -119 
-37 -18 113 -105 


62 -61 70 61 
-95 61 17 -19 
-84 -93 27 62 
-104 108 54 -67 

15 65 29 -113 
54 -34 -39 36 
82 88 100 -61 
2 122 -124 109 

64 -15 92 -49 
17 -128 43 116 
-54 -122 80 57 
-59 -75 -8 1 

96 -107 -90 -71 
122 98 -23 62 
-122 -124 -60 34 
-61 60 94 -32 

-19 -83 54 108 
56 -112 -31 -51 
60 114 72 -110 
-52 -90 18 47 

115 11 -123 4 
-76 -108 20 45 
-67 -71 55 24 
-60 44 111 118 

-83 80 35 122 
-33 -78 -98 -20 
-26 -83 -13 -24 
98 -44 -36 -44 

-88 75 24 35 
-66 -57 109 98 
5 -14 -65 -119 
-37 -18 113 -105 



62 -61 70 61 
-95 61 17 -19 
-84 -93 27 62 
-104 108 54 -67 

15 65 29 -113 
54 -34 -39 36 
82 88 100 -61 
2 122 -124 109 

64 -15 92 -49 
17 -128 43 116 
-54 -122 80 57 
-59 -75 -8 1 

96 -107 -90 -71 
122 98 -23 62 
-122 -124 -60 34 
-61 60 94 -32 

-19 -83 54 108 
56 -112 -31 -51 
60 114 72 -110 
-52 -90 18 47 

115 11 -123 4 
-76 -108 20 45 
-67 -71 55 24 
-60 44 111 118 

-83 80 35 122 
-33 -78 -98 -20 
-26 -83 -13 -24 
98 -44 -36 -44 

-88 75 24 35 
-66 -57 109 98 
5 -14 -65 -119 
-37 -18 113 -105 


62 -61 70 61 
-95 61 17 -19 
-84 -93 27 62 
-104 108 54 -67 

15 65 29 -113 
54 -34 -39 36 
82 88 100 -61 
2 122 -124 109 

64 -15 92 -49 
17 -128 43 116 
-54 -122 80 57 
-59 -75 -8 1 

96 -107 -90 -71 
122 98 -23 62 
-122 -124 -60 34 
-61 60 94 -32 

-19 -83 54 108 
56 -112 -31 -51 
60 114 72 -110 
-52 -90 18 47 

115 11 -123 4 
-76 -108 20 45 
-67 -71 55 24 
-60 44 111 118 

-83 80 35 122 
-33 -78 -98 -20 
-26 -83 -13 -24 
98 -44 -36 -44 

-88 75 24 35 
-66 -57 109 98 
5 -14 -65 -119 
-37 -18 113 -105 


62 -61 70 61 
-95 61 17 -19 
-84 -93 27 62 
-104 108 54 -67 

15 65 29 -113 
54 -34 -39 36 
82 88 100 -61 
2 122 -124 109 

64 -15 92 -49 
17 -128 43 116 
-54 -122 80 57 
-59 -75 -8 1 

96 -107 -90 -71 
122 98 -23 62 
-122 -124 -60 34 
-61 60 94 -32 

-19 -83 54 108 
56 -112 -31 -51 
60 114 72 -110 
-52 -90 18 47 

115 11 -123 4 
-76 -108 20 45 
-67 -71 55 24 
-60 44 111 118 

-83 80 35 122 
-33 -78 -98 -20 
-26 -83 -13 -24 
98 -44 -36 -44 

-88 75 24 35 
-66 -57 109 98 
5 -14 -65 -119 
-37 -18 113 -105 


62 -61 70 61 
-95 61 17 -19 
-84 -93 27 62 
-104 108 54 -67 

15 65 29 -113 
54 -34 -39 36 
82 88 100 -61 
2 122 -124 109 

64 -15 92 -49 
17 -128 43 116 
-54 -122 80 57 
-59 -75 -8 1 

96 -107 -90 -71 
122 98 -23 62 
-122 -124 -60 34 
-61 60 94 -32 

-19 -83 54 108 
56 -112 -31 -51 
60 114 72 -110 
-52 -90 18 47 

115 11 -123 4 
-76 -108 20 45 
-67 -71 55 24 
-60 44 111 118 

-83 80 35 122 
-33 -78 -98 -20 
-26 -83 -13 -24 
98 -44 -36 -44 

-88 75 24 35 
-66 -57 109 98 
5 -14 -65 -119 
-37 -18 113 -105 



62 -61 70 61 
-95 61 17 -19 
-84 -93 27 62 
-104 108 54 -67 

15 65 29 -113 
54 -34 -39 36 
82 88 100 -61 
2 122 -124 109 

64 -15 92 -49 
17 -128 43 116 
-54 -122 80 57 
-59 -75 -8 1 

96 -107 -90 -71 
122 98 -23 62 
-122 -124 -60 34 
-61 60 94 -32 

-19 -83 54 108 
56 -112 -31 -51 
60 114 72 -110 
-52 -90 18 47 

115 11 -123 4 
-76 -108 20 45 
-67 -71 55 24 
-60 44 111 118 

-83 80 35 122 
-33 -78 -98 -20 
-26 -83 -13 -24 
98 -44 -36 -44 

-88 75 24 35 
-66 -57 109 98 
5 -14 -65 -119 
-37 -18 113 -105 


62 -61 70 61 
-95 61 17 -19 
-84 -93 27 62 
-104 108 54 -67 

15 65 29 -113 
54 -34 -39 36 
82 88 100 -61 
2 122 -124 109 

64 -15 92 -49 
17 -128 43 116 
-54 -122 80 57 
-59 -75 -8 1 

96 -107 -90 -71 
122 98 -23 62 
-122 -124 -60 34 
-61 60 94 -32 

-19 -83 54 108 
56 -112 -31 -51 
60 114 72 -110 
-52 -90 18 47 

115 11 -123 4 
-76 -108 20 45 
-67 -71 55 24 
-60 44 111 118 

-83 80 35 122 
-33 -78 -98 -20 
-26 -83 -13 -24 
98 -44 -36 -44 

-88 75 24 35 
-66 -57 109 98 
5 -14 -65 -119 
-37 -18 113 -105 


62 -61 70 61 
-95 61 17 -19 
-84 -93 27 62 
-104 108 54 -67 

15 65 29 -113 
54 -34 -39 36 
82 88 100 -61 
2 122 -124 109 

64 -15 92 -49 
17 -128 43 116 
-54 -122 80 57 
-59 -75 -8 1 

96 -107 -90 -71 
122 98 -23 62 
-122 -124 -60 34 
-61 60 94 -32 

-19 -83 54 108 
56 -112 -31 -51 
60 114 72 -110 
-52 -90 18 47 

115 11 -123 4 
-76 -108 20 45 
-67 -71 55 24 
-60 44 111 118 

-83 80 35 122 
-33 -78 -98 -20 
-26 -83 -13 -24 
98 -44 -36 -44 

-88 75 24 35 
-66 -57 109 98 
5 -14 -65 -119 
-37 -18 113 -105 


62 -61 70 61 
-95 61 17 -19 
-84 -93 27 62 
-104 108 54 -67 

15 65 29 -113 
54 -34 -39 36 
82 88 100 -61 
2 122 -124 109 

64 -15 92 -49 
17 -128 43 116 
-54 -122 80 57 
-59 -75 -8 1 

96 -107 -90 -71 
122 98 -23 62 
-122 -124 -60 34 
-61 60 94 -32 

-19 -83 54 108 
56 -112 -31 -51 
60 114 72 -110 
-52 -90 18 47 

115 11 -123 4 
-76 -108 20 45 
-67 -71 55 24 
-60 44 111 118 

-83 80 35 122 
-33 -78 -98 -20 
-26 -83 -13 -24 
98 -44 -36 -44 

-88 75 24 35 
-66 -57 109 98 
5 -14 -65 -119 
-37 -18 113 -105 




-64 83 102 -39 
63 120 8 95 
97 -13 41 -9 
76 32 -118 -122 

9 -128 -31 118 
-47 -108 49 77 
-46 -94 -127 -56 
72 -40 123 45 

-98 -3 -60 -73 
118 -124 15 -123 
-122 -107 -100 33 
-72 35 23 -74 

-17 78 58 -121 
94 61 76 -22 
-98 61 -43 20 
68 114 77 61 

126 40 -67 46 
123 81 94 73 
78 -60 24 -80 
107 -98 124 97 

-40 -104 105 -104 
-125 89 -60 -72 
-81 -2 69 -110 
96 -51 12 114 

-99 -106 -91 -38 
76 -97 72 -35 
72 -56 -48 76 
-47 -39 -13 65 

-50 29 -5 124 
-42 37 -16 -112 
-101 110 119 73 
-55 -99 -127 96 


-64 83 102 -39 
63 120 8 95 
97 -13 41 -9 
76 32 -118 -122 

9 -128 -31 118 
-47 -108 49 77 
-46 -94 -127 -56 
72 -40 123 45 

-98 -3 -60 -73 
118 -124 15 -123 
-122 -107 -100 33 
-72 35 23 -74 

-17 78 58 -121 
94 61 76 -22 
-98 61 -43 20 
68 114 77 61 

126 40 -67 46 
123 81 94 73 
78 -60 24 -80 
107 -98 124 97 

-40 -104 105 -104 
-125 89 -60 -72 
-81 -2 69 -110 
96 -51 12 114 

-99 -106 -91 -38 
76 -97 72 -35 
72 -56 -48 76 
-47 -39 -13 65 

-50 29 -5 124 
-42 37 -16 -112 
-101 110 119 73 
-55 -99 -127 96 


-64 83 102 -39 
63 120 8 95 
97 -13 41 -9 
76 32 -118 -122 

9 -128 -31 118 
-47 -108 49 77 
-46 -94 -127 -56 
72 -40 123 45 

-98 -3 -60 -73 
118 -124 15 -123 
-122 -107 -100 33 
-72 35 23 -74 

-17 78 58 -121 
94 61 76 -22 
-98 61 -43 20 
68 114 77 61 

126 40 -67 46 
123 81 94 73 
78 -60 24 -80 
107 -98 124 97 

-40 -104 105 -104 
-125 89 -60 -72 
-81 -2 69 -110 
96 -51 12 114 

-99 -106 -91 -38 
76 -97 72 -35 
72 -56 -48 76 
-47 -39 -13 65 

-50 29 -5 124 
-42 37 -16 -112 
-101 110 119 73 
-55 -99 -127 96 


-64 83 102 -39 
63 120 8 95 
97 -13 41 -9 
76 32 -118 -122 

9 -128 -31 118 
-47 -108 49 77 
-46 -94 -127 -56 
72 -40 123 45 

-98 -3 -60 -73 
118 -124 15 -123 
-122 -107 -100 33 
-72 35 23 -74 

-17 78 58 -121 
94 61 76 -22 
-98 61 -43 20 
68 114 77 61 

126 40 -67 46 
123 81 94 73 
78 -60 24 -80 
107 -98 124 97 

-40 -104 105 -104 
-125 89 -60 -72 
-81 -2 69 -110 
96 -51 12 114 

-99 -106 -91 -38 
76 -97 72 -35 
72 -56 -48 76 
-47 -39 -13 65 

-50 29 -5 124 
-42 37 -16 -112 
-101 110 119 73 
-55 -99 -127 96 



-64 83 102 -39 
63 120 8 95 
97 -13 41 -9 
76 32 -118 -122 

9 -128 -31 118 
-47 -108 49 77 
-46 -94 -127 -56 
72 -40 123 45 

-98 -3 -60 -73 
118 -124 15 -123 
-122 -107 -100 33 
-72 35 23 -74 

-17 78 58 -121 
94 61 76 -22 
-98 61 -43 20 
68 114 77 61 

126 40 -67 46 
123 81 94 73 
78 -60 24 -80 
107 -98 124 97 

-40 -104 105 -104 
-125 89 -60 -72 
-81 -2 69 -110 
96 -51 12 114 

-99 -106 -91 -38 
76 -97 72 -35 
72 -56 -48 76 
-47 -39 -13 65 

-50 29 -5 124 
-42 37 -16 -112 
-101 110 119 73 
-55 -99 -127 96 


-64 83 102 -39 
63 120 8 95 
97 -13 41 -9 
76 32 -118 -122 

9 -128 -31 118 
-47 -108 49 77 
-46 -94 -127 -56 
72 -40 123 45 

-98 -3 -60 -73 
118 -124 15 -123 
-122 -107 -100 33 
-72 35 23 -74 

-17 78 58 -121 
94 61 76 -22 
-98 61 -43 20 
68 114 77 61 

126 40 -67 46 
123 81 94 73 
78 -60 24 -80 
107 -98 124 97 

-40 -104 105 -104 
-125 89 -60 -72 
-81 -2 69 -110 
96 -51 12 114 

-99 -106 -91 -38 
76 -97 72 -35 
72 -56 -48 76 
-47 -39 -13 65 

-50 29 -5 124 
-42 37 -16 -112 
-101 110 119 73 
-55 -99 -127 96 


-64 83 102 -39 
63 120 8 95 
97 -13 41 -9 
76 32 -118 -122 

9 -128 -31 118 
-47 -108 49 77 
-46 -94 -127 -56 
72 -40 123 45 

-98 -3 -60 -73 
118 -124 15 -123 
-122 -107 -100 33 
-72 35 23 -74 

-17 78 58 -121 
94 61 76 -22 
-98 61 -43 20 
68 114 77 61 

126 40 -67 46 
123 81 94 73 
78 -60 24 -80 
107 -98 124 97 

-40 -104 105 -104 
-125 89 -60 -72 
-81 -2 69 -110 
96 -51 12 114 

-99 -106 -91 -38 
76 -97 72 -35 
72 -56 -48 76 
-47 -39 -13 65 

-50 29 -5 124 
-42 37 -16 -112 
-101 110 119 73 
-55 -99 -127 96 


-64 83 102 -39 
63 120 8 95 
97 -13 41 -9 
76 32 -118 -122 

9 -128 -31 118 
-47 -108 49 77 
-46 -94 -127 -56 
72 -40 123 45 

-98 -3 -60 -73 
118 -124 15 -123 
-122 -107 -100 33 
-72 35 23 -74 

-17 78 58 -121 
94 61 76 -22 
-98 61 -43 20 
68 114 77 61 

126 40 -67 46 
123 81 94 73 
78 -60 24 -80 
107 -98 124 97 

-40 -104 105 -104 
-125 89 -60 -72 
-81 -2 69 -110 
96 -51 12 114 

-99 -106 -91 -38 
76 -97 72 -35 
72 -56 -48 76 
-47 -39 -13 65 

-50 29 -5 124 
-42 37 -16 -112 
-101 110 119 73 
-55 -99 -127 96 



-64 83 102 -39 
63 120 8 95 
97 -13 41 -9 
76 32 -118 -122 

9 -128 -31 118 
-47 -108 49 77 
-46 -94 -127 -56 
72 -40 123 45 

-98 -3 -60 -73 
118 -124 15 -123 
-122 -107 -100 33 
-72 35 23 -74 

-17 78 58 -121 
94 61 76 -22 
-98 61 -43 20 
68 114 77 61 

126 40 -67 46 
123 81 94 73 
78 -60 24 -80 
107 -98 124 97 

-40 -104 105 -104 
-125 89 -60 -72 
-81 -2 69 -110 
96 -51 12 114 

-99 -106 -91 -38 
76 -97 72 -35 
72 -56 -48 76 
-47 -39 -13 65 

-50 29 -5 124 
-42 37 -16 -112 
-101 110 119 73 
-55 -99 -127 96 


-64 83 102 -39 
63 120 8 95 
97 -13 41 -9 
76 32 -118 -122 

9 -128 -31 118 
-47 -108 49 77 
-46 -94 -127 -56 
72 -40 123 45 

-98 -3 -60 -73 
118 -124 15 -123 
-122 -107 -100 33 
-72 35 23 -74 

-17 78 58 -121 
94 61 76 -22 
-98 61 -43 20 
68 114 77 61 

126 40 -67 46 
123 81 94 73 
78 -60 24 -80 
107 -98 124 97 

-40 -104 105 -104 
-125 89 -60 -72 
-81 -2 69 -110 
96 -51 12 114 

-99 -106 -91 -38 
76 -97 72 -35 
72 -56 -48 76 
-47 -39 -13 65 

-50 29 -5 124 
-42 37 -16 -112 
-101 110 119 73 
-55 -99 -127 96 


-64 83 102 -39 
63 120 8 95 
97 -13 41 -9 
76 32 -118 -122 

9 -128 -31 118 
-47 -108 49 77 
-46 -94 -127 -56 
72 -40 123 45 

-98 -3 -60 -73 
118 -124 15 -123 
-122 -107 -100 33 
-72 35 23 -74 

-17 78 58 -121 
94 61 76 -22 
-98 61 -43 20 
68 114 77 61 

126 40 -67 46 
123 81 94 73 
78 -60 24 -80 
107 -98 124 97 

-40 -104 105 -104 
-125 89 -60 -72 
-81 -2 69 -110 
96 -51 12 114 

-99 -106 -91 -38 
76 -97 72 -35 
72 -56 -48 76 
-47 -39 -13 65 

-50 29 -5 124 
-42 37 -16 -112 
-101 110 119 73 
-55 -99 -127 96 


-64 83 102 -39 
63 120 8 95 
97 -13 41 -9 
76 32 -118 -122 

9 -128 -31 118 
-47 -108 49 77 
-46 -94 -127 -56 
72 -40 123 45 

-98 -3 -60 -73 
118 -124 15 -123 
-122 -107 -100 33 
-72 35 23 -74 

-17 78 58 -121 
94 61 76 -22 
-98 61 -43 20 
68 114 77 61 

126 40 -67 46 
123 81 94 73 
78 -60 24 -80 
107 -98 124 97 

-40 -104 105 -104 
-125 89 -60 -72 
-81 -2 69 -110 
96 -51 12 114 

-99 -106 -91 -38 
76 -97 72 -35 
72 -56 -48 76 
-47 -39 -13 65 

-50 29 -5 124 
-42 37 -16 -112 
-101 110 119 73 
-55 -99 -127 96 



-64 83 102 -39 
63 120 8 95 
97 -13 41 -9 
76 32 -118 -122 

9 -128 -31 118 
-47 -108 49 77 
-46 -94 -127 -56 
72 -40 123 45 

-98 -3 -60 -73 
118 -124 15 -123 
-122 -107 -100 33 
-72 35 23 -74 

-17 78 58 -121 
94 61 76 -22 
-98 61 -43 20 
68 114 77 61 

126 40 -67 46 
123 81 94 73 
78 -60 24 -80 
107 -98 124 97 

-40 -104 105 -104 
-125 89 -60 -72 
-81 -2 69 -110 
96 -51 12 114 

-99 -106 -91 -38 
76 -97 72 -35 
72 -56 -48 76 
-47 -39 -13 65 

-50 29 -5 124 
-42 37 -16 -112 
-101 110 119 73 
-55 -99 -127 96 


-64 83 102 -39 
63 120 8 95 
97 -13 41 -9 
76 32 -118 -122 

9 -128 -31 118 
-47 -108 49 77 
-46 -94 -127 -56 
72 -40 123 45 

-98 -3 -60 -73 
118 -124 15 -123 
-122 -107 -100 33 
-72 35 23 -74 

-17 78 58 -121 
94 61 76 -22 
-98 61 -43 20 
68 114 77 61 

126 40 -67 46 
123 81 94 73 
78 -60 24 -80 
107 -98 124 97 

-40 -104 105 -104 
-125 89 -60 -72 
-81 -2 69 -110 
96 -51 12 114 

-99 -106 -91 -38 
76 -97 72 -35 
72 -56 -48 76 
-47 -39 -13 65 

-50 29 -5 124 
-42 37 -16 -112 
-101 110 119 73 
-55 -99 -127 96 


-64 83 102 -39 
63 120 8 95 
97 -13 41 -9 
76 32 -118 -122 

9 -128 -31 118 
-47 -108 49 77 
-46 -94 -127 -56 
72 -40 123 45 

-98 -3 -60 -73 
118 -124 15 -123 
-122 -107 -100 33 
-72 35 23 -74 

-17 78 58 -121 
94 61 76 -22 
-98 61 -43 20 
68 114 77 61 

126 40 -67 46 
123 81 94 73 
78 -60 24 -80 
107 -98 124 97 

-40 -104 105 -104 
-125 89 -60 -72 
-81 -2 69 -110 
96 -51 12 114 

-99 -106 -91 -38 
76 -97 72 -35 
72 -56 -48 76 
-47 -39 -13 65 

-50 29 -5 124 
-42 37 -16 -112 
-101 110 119 73 
-55 -99 -127 96 


-64 83 102 -39 
63 120 8 95 
97 -13 41 -9 
76 32 -118 -122 

9 -128 -31 118 
-47 -108 49 77 
-46 -94 -127 -56 
72 -40 123 45 

-98 -3 -60 -73 
118 -124 15 -123 
-122 -107 -100 33 
-72 35 23 -74 

-17 78 58 -121 
94 61 76 -22 
-98 61 -43 20 
68 114 77 61 

126 40 -67 46 
123 81 94 73 
78 -60 24 -80 
107 -98 124 97 

-40 -104 105 -104 
-125 89 -60 -72 
-81 -2 69 -110 
96 -51 12 114 

-99 -106 -91 -38 
76 -97 72 -35 
72 -56 -48 76 
-47 -39 -13 65 

-50 29 -5 124 
-42 37 -16 -112 
-101 110 119 73 
-55 -99 -127 96 



-64 83 102 -39 
63 120 8 95 
97 -13 41 -9 
76 32 -118 -122 

9 -128 -31 118 
-47 -108 49 77 
-46 -94 -127 -56 
72 -40 123 45 

-98 -3 -60 -73 
118 -124 15 -123 
-122 -107 -100 33 
-72 35 23 -74 

-17 78 58 -121 
94 61 76 -22 
-98 61 -43 20 
68 114 77 61 

126 40 -67 46 
123 81 94 73 
78 -60 24 -80 
107 -98 124 97 

-40 -104 105 -104 
-125 89 -60 -72 
-81 -2 69 -110 
96 -51 12 114 

-99 -106 -91 -38 
76 -97 72 -35 
72 -56 -48 76 
-47 -39 -13 65 

-50 29 -5 124 
-42 37 -16 -112 
-101 110 119 73 
-55 -99 -127 96 


-64 83 102 -39 
63 120 8 95 
97 -13 41 -9 
76 32 -118 -122 

9 -128 -31 118 
-47 -108 49 77 
-46 -94 -127 -56 
72 -40 123 45 

-98 -3 -60 -73 
118 -124 15 -123 
-122 -107 -100 33 
-72 35 23 -74 

-17 78 58 -121 
94 61 76 -22 
-98 61 -43 20 
68 114 77 61 

126 40 -67 46 
123 81 94 73 
78 -60 24 -80 
107 -98 124 97 

-40 -104 105 -104 
-125 89 -60 -72 
-81 -2 69 -110 
96 -51 12 114 

-99 -106 -91 -38 
76 -97 72 -35 
72 -56 -48 76 
-47 -39 -13 65 

-50 29 -5 124 
-42 37 -16 -112 
-101 110 119 73 
-55 -99 -127 96 


-64 83 102 -39 
63 120 8 95 
97 -13 41 -9 
76 32 -118 -122 

9 -128 -31 118 
-47 -108 49 77 
-46 -94 -127 -56 
72 -40 123 45 

-98 -3 -60 -73 
118 -124 15 -123 
-122 -107 -100 33 
-72 35 23 -74 

-17 78 58 -121 
94 61 76 -22 
-98 61 -43 20 
68 114 77 61 

126 40 -67 46 
123 81 94 73 
78 -60 24 -80 
107 -98 124 97 

-40 -104 105 -104 
-125 89 -60 -72 
-81 -2 69 -110 
96 -51 12 114 

-99 -106 -91 -38 
76 -97 72 -35 
72 -56 -48 76 
-47 -39 -13 65 

-50 29 -5 124 
-42 37 -16 -112 
-101 110 119 73 
-55 -99 -127 96 


-64 83 102 -39 
63 120 8 95 
97 -13 41 -9 
76 32 -118 -122 

9 -128 -31 118 
-47 -108 49 77 
-46 -94 -127 -56 
72 -40 123 45 

-98 -3 -60 -73 
118 -124 15 -123 
-122 -107 -100 33 
-72 35 23 -74 

-17 78 58 -121 
94 61 76 -22 
-98 61 -43 20 
68 114 77 61 

126 40 -67 46 
123 81 94 73 
78 -60 24 -80 
107 -98 124 97 

-40 -104 105 -104 
-125 89 -60 -72 
-81 -2 69 -110 
96 -51 12 114 

-99 -106 -91 -38 
76 -97 72 -35 
72 -56 -48 76 
-47 -39 -13 65 

-50 29 -5 124 
-42 37 -16 -112 
-101 110 119 73 
-55 -99 -127 96 



-64 83 102 -39 
63 120 8 95 
97 -13 41 -9 
76 32 -118 -122 

9 -128 -31 118 
-47 -108 49 77 
-46 -94 -127 -56 
72 -40 123 45 

-98 -3 -60 -73 
118 -124 15 -123 
-122 -107 -100 33 
-72 35 23 -74 

-17 78 58 -121 
94 61 76 -22 
-98 61 -43 20 
68 114 77 61 

126 40 -67 46 
123 81 94 73 
78 -60 24 -80 
107 -98 124 97 

-40 -104 105 -104 
-125 89 -60 -72 
-81 -2 69 -110 
96 -51 12 114 

-99 -106 -91 -38 
76 -97 72 -35 
72 -56 -48 76 
-47 -39 -13 65 

-50 29 -5 124 
-42 37 -16 -112 
-101 110 119 73 
-55 -99 -127 96 


-64 83 102 -39 
63 120 8 95 
97 -13 41 -9 
76 32 -118 -122 

9 -128 -31 118 
-47 -108 49 77 
-46 -94 -127 -56 
72 -40 123 45 

-98 -3 -60 -73 
118 -124 15 -123 
-122 -107 -100 33 
-72 35 23 -74 

-17 78 58 -121 
94 61 76 -22 
-98 61 -43 20 
68 114 77 61 

126 40 -67 46 
123 81 94 73 
78 -60 24 -80 
107 -98 124 97 

-40 -104 105 -104 
-125 89 -60 -72 
-81 -2 69 -110 
96 -51 12 114 

-99 -106 -91 -38 
76 -97 72 -35 
72 -56 -48 76 
-47 -39 -13 65 

-50 29 -5 124 
-42 37 -16 -112 
-101 110 119 73 
-55 -99 -127 96 


-64 83 102 -39 
63 120 8 95 
97 -13 41 -9 
76 32 -118 -122 

9 -128 -31 118 
-47 -108 49 77 
-46 -94 -127 -56 
72 -40 123 45 

-98 -3 -60 -73 
118 -124 15 -123 
-122 -107 -100 33 
-72 35 23 -74 

-17 78 58 -121 
94 61 76 -22 
-98 61 -43 20 
68 114 77 61 

126 40 -67 46 
123 81 94 73 
78 -60 24 -80 
107 -98 124 97 

-40 -104 105 -104 
-125 89 -60 -72 
-81 -2 69 -110 
96 -51 12 114 

-99 -106 -91 -38 
76 -97 72 -35 
72 -56 -48 76 
-47 -39 -13 65 

-50 29 -5 124 
-42 37 -16 -112 
-101 110 119 73 
-55 -99 -127 96 


-64 83 102 -39 
63 120 8 95 
97 -13 41 -9 
76 32 -118 -122 

9 -128 -31 118 
-47 -108 49 77 
-46 -94 -127 -56 
72 -40 123 45 

-98 -3 -60 -73 
118 -124 15 -123 
-122 -107 -100 33 
-72 35 23 -74 

-17 78 58 -121 
94 61 76 -22 
-98 61 -43 20 
68 114 77 61 

126 40 -67 46 
123 81 94 73 
78 -60 24 -80 
107 -98 124 97 

-40 -104 105 -104 
-125 89 -60 -72 
-81 -2 69 -110 
96 -51 12 114 

-99 -106 -91 -38 
76 -97 72 -35 
72 -56 -48 76 
-47 -39 -13 65 

-50 29 -5 124 
-42 37 -16 -112 
-101 110 119 73 
-55 -99 -127 96 



-64 83 102 -39 
63 120 8 95 
97 -13 41 -9 
76 32 -118 -122 

9 -128 -31 118 
-47 -108 49 77 
-46 -94 -127 -56 
72 -40 123 45 

-98 -3 -60 -73 
118 -124 15 -123 
-122 -107 -100 33 
-72 35 23 -74 

-17 78 58 -121 
94 61 76 -22 
-98 61 -43 20 
68 114 77 61 

126 40 -67 46 
123 81 94 73 
78 -60 24 -80 
107 -98 124 97 

-40 -104 105 -104 
-125 89 -60 -72 
-81 -2 69 -110 
96 -51 12 114 

-99 -106 -91 -38 
76 -97 72 -35 
72 -56 -48 76 
-47 -39 -13 65 

-50 29 -5 124 
-42 37 -16 -112 
-101 110 119 73 
-55 -99 -127 96 


-64 83 102 -39 
63 120 8 95 
97 -13 41 -9 
76 32 -118 -122 

9 -128 -31 118 
-47 -108 49 77 
-46 -94 -127 -56 
72 -40 123 45 

-98 -3 -60 -73 
118 -124 15 -123 
-122 -107 -100 33 
-72 35 23 -74 

-17 78 58 -121 
94 61 76 -22 
-98 61 -43 20 
68 114 77 61 

126 40 -67 46 
123 81 94 73 
78 -60 24 -80 
107 -98 124 97 

-40 -104 105 -104 
-125 89 -60 -72 
-81 -2 69 -110 
96 -51 12 114 

-99 -106 -91 -38 
76 -97 72 -35 
72 -56 -48 76 
-47 -39 -13 65 

-50 29 -5 124 
-42 37 -16 -112 
-101 110 119 73 
-55 -99 -127 96 


-64 83 102 -39 
63 120 8 95 
97 -13 41 -9 
76 32 -118 -122 

9 -128 -31 118 
-47 -108 49 77 
-46 -94 -127 -56 
72 -40 123 45 

-98 -3 -60 -73 
118 -124 15 -123 
-122 -107 -100 33 
-72 35 23 -74 

-17 78 58 -121 
94 61 76 -22 
-98 61 -43 20 
68 114 77 61 

126 40 -67 46 
123 81 94 73 
78 -60 24 -80 
107 -98 124 97 

-40 -104 105 -104 
-125 89 -60 -72 
-81 -2 69 -110 
96 -51 12 114 

-99 -106 -91 -38 
76 -97 72 -35 
72 -56 -48 76 
-47 -39 -13 65 

-50 29 -5 124 
-42 37 -16 -112 
-101 110 119 73 
-55 -99 -127 96 


-64 83 102 -39 
63 120 8 95 
97 -13 41 -9 
76 32 -118 -122 

9 -128 -31 118 
-47 -108 49 77 
-46 -94 -127 -56 
72 -40 123 45 

-98 -3 -60 -73 
118 -124 15 -123 
-122 -107 -100 33 
-72 35 23 -74 

-17 78 58 -121 
94 61 76 -22 
-98 61 -43 20 
68 114 77 61 

126 40 -67 46 
123 81 94 73 
78 -60 24 -80 
107 -98 124 97 

-40 -104 105 -104 
-125 89 -60 -72 
-81 -2 69 -110 
96 -51 12 114 

-99 -106 -91 -38 
76 -97 72 -35 
72 -56 -48 76 
-47 -39 -13 65 

-50 29 -5 124 
-42 37 -16 -112 
-101 110 119 73 
-55 -99 -127 96 



-64 83 102 -39 
63 120 8 95 
97 -13 41 -9 
76 32 -118 -122 

9 -128 -31 118 
-47 -108 49 77 
-46 -94 -127 -56 
72 -40 123 45 

-98 -3 -60 -73 
118 -124 15 -123 
-122 -107 -100 33 
-72 35 23 -74 

-17 78 58 -121 
94 61 76 -22 
-98 61 -43 20 
68 114 77 61 

126 40 -67 46 
123 81 94 73 
78 -60 24 -80 
107 -98 124 97 

-40 -104 105 -104 
-125 89 -60 -72 
-81 -2 69 -110 
96 -51 12 114 

-99 -106 -91 -38 
76 -97 72 -35 
72 -56 -48 76 
-47 -39 -13 65 

-50 29 -5 124 
-42 37 -16 -112 
-101 110 119 73 
-55 -99 -127 96 


-64 83 102 -39 
63 120 8 95 
97 -13 41 -9 
76 32 -118 -122 

9 -128 -31 118 
-47 -108 49 77 
-46 -94 -127 -56 
72 -40 123 45 

-98 -3 -60 -73 
118 -124 15 -123 
-122 -107 -100 33 
-72 35 23 -74 

-17 78 58 -121 
94 61 76 -22 
-98 61 -43 20 
68 114 77 61 

126 40 -67 46 
123 81 94 73 
78 -60 24 -80 
107 -98 124 97 

-40 -104 105 -104 
-125 89 -60 -72 
-81 -2 69 -110 
96 -51 12 114 

-99 -106 -91 -38 
76 -97 72 -35 
72 -56 -48 76 
-47 -39 -13 65 

-50 29 -5 124 
-42 37 -16 -112 
-101 110 119 73 
-55 -99 -127 96 


-64 83 102 -39 
63 120 8 95 
97 -13 41 -9 
76 32 -118 -122 

9 -128 -31 118 
-47 -108 49 77 
-46 -94 -127 -56 
72 -40 123 45 

-98 -3 -60 -73 
118 -124 15 -123 
-122 -107 -100 33 
-72 35 23 -74 

-17 78 58 -121 
94 61 76 -22 
-98 61 -43 20 
68 114 77 61 

126 40 -67 46 
123 81 94 73 
78 -60 24 -80 
107 -98 124 97 

-40 -104 105 -104 
-125 89 -60 -72 
-81 -2 69 -110 
96 -51 12 114 

-99 -106 -91 -38 
76 -97 72 -35 
72 -56 -48 76 
-47 -39 -13 65 

-50 29 -5 124 
-42 37 -16 -112 
-101 110 119 73 
-55 -99 -127 96 


-64 83 102 -39 
63 120 8 95 
97 -13 41 -9 
76 32 -118 -122 

9 -128 -31 118 
-47 -108 49 77 
-46 -94 -127 -56 
72 -40 123 45 

-98 -3 -60 -73 
118 -124 15 -123 
-122 -107 -100 33 
-72 35 23 -74 

-17 78 58 -121 
94 61 76 -22 
-98 61 -43 20 
68 114 77 61 

126 40 -67 46 
123 81 94 73 
78 -60 24 -80 
107 -98 124 97 

-40 -104 105 -104 
-125 89 -60 -72 
-81 -2 69 -110 
96 -51 12 114 

-99 -106 -91 -38 
76 -97 72 -35 
72 -56 -48 76 
-47 -39 -13 65 

-50 29 -5 124 
-42 37 -16 -112 
-101 110 119 73 
-55 -99 -127 96 



-64 83 102 -39 
63 120 8 95 
97 -13 41 -9 
76 32 -118 -122 

9 -128 -31 118 
-47 -108 49 77 
-46 -94 -127 -56 
72 -40 123 45 

-98 -3 -60 -73 
118 -124 15 -123 
-122 -107 -100 33 
-72 35 23 -74 

-17 78 58 -121 
94 61 76 -22 
-98 61 -43 20 
68 114 77 61 

126 40 -67 46 
123 81 94 73 
78 -60 24 -80 
107 -98 124 97 

-40 -104 105 -104 
-125 89 -60 -72 
-81 -2 69 -110 
96 -51 12 114 

-99 -106 -91 -38 
76 -97 72 -35 
72 -56 -48 76 
-47 -39 -13 65 

-50 29 -5 124 
-42 37 -16 -112 
-101 110 119 73 
-55 -99 -127 96 


-64 83 102 -39 
63 120 8 95 
97 -13 41 -9 
76 32 -118 -122 

9 -128 -31 118 
-47 -108 49 77 
-46 -94 -127 -56 
72 -40 123 45 

-98 -3 -60 -73 
118 -124 15 -123 
-122 -107 -100 33 
-72 35 23 -74 

-17 78 58 -121 
94 61 76 -22 
-98 61 -43 20 
68 114 77 61 

126 40 -67 46 
123 81 94 73 
78 -60 24 -80 
107 -98 124 97 

-40 -104 105 -104 
-125 89 -60 -72 
-81 -2 69 -110 
96 -51 12 114 

-99 -106 -91 -38 
76 -97 72 -35 
72 -56 -48 76 
-47 -39 -13 65 

-50 29 -5 124 
-42 37 -16 -112 
-101 110 119 73 
-55 -99 -127 96 


-64 83 102 -39 
63 120 8 95 
97 -13 41 -9 
76 32 -118 -122 

9 -128 -31 118 
-47 -108 49 77 
-46 -94 -127 -56 
72 -40 123 45 

-98 -3 -60 -73 
118 -124 15 -123 
-122 -107 -100 33 
-72 35 23 -74 

-17 78 58 -121 
94 61 76 -22 
-98 61 -43 20 
68 114 77 61 

126 40 -67 46 
123 81 94 73 
78 -60 24 -80 
107 -98 124 97 

-40 -104 105 -104 
-125 89 -60 -72 
-81 -2 69 -110 
96 -51 12 114 

-99 -106 -91 -38 
76 -97 72 -35 
72 -56 -48 76 
-47 -39 -13 65 

-50 29 -5 124 
-42 37 -16 -112 
-101 110 119 73 
-55 -99 -127 96 


-64 83 102 -39 
63 120 8 95 
97 -13 41 -9 
76 32 -118 -122 

9 -128 -31 118 
-47 -108 49 77 
-46 -94 -127 -56 
72 -40 123 45 

-98 -3 -60 -73 
118 -124 15 -123 
-122 -107 -100 33 
-72 35 23 -74 

-17 78 58 -121 
94 61 76 -22 
-98 61 -43 20 
68 114 77 61 

126 40 -67 46 
123 81 94 73 
78 -60 24 -80 
107 -98 124 97 

-40 -104 105 -104 
-125 89 -60 -72 
-81 -2 69 -110 
96 -51 12 114 

-99 -106 -91 -38 
76 -97 72 -35 
72 -56 -48 76 
-47 -39 -13 65 

-50 29 -5 124 
-42 37 -16 -112 
-101 110 119 73 
-55 -99 -127 96 



-64 83 102 -39 
63 120 8 95 
97 -13 41 -9 
76 32 -118 -122 

9 -128 -31 118 
-47 -108 49 77 
-46 -94 -127 -56 
72 -40 123 45 

-98 -3 -60 -73 
118 -124 15 -123 
-122 -107 -100 33 
-72 35 23 -74 

-17 78 58 -121 
94 61 76 -22 
-98 61 -43 20 
68 114 77 61 

126 40 -67 46 
123 81 94 73 
78 -60 24 -80 
107 -98 124 97 

-40 -104 105 -104 
-125 89 -60 -72 
-81 -2 69 -110 
96 -51 12 114 

-99 -106 -91 -38 
76 -97 72 -35 
72 -56 -48 76 
-47 -39 -13 65 

-50 29 -5 124 
-42 37 -16 -112 
-101 110 119 73 
-55 -99 -127 96 


-64 83 102 -39 
63 120 8 95 
97 -13 41 -9 
76 32 -118 -122 

9 -128 -31 118 
-47 -108 49 77 
-46 -94 -127 -56 
72 -40 123 45 

-98 -3 -60 -73 
118 -124 15 -123 
-122 -107 -100 33 
-72 35 23 -74 

-17 78 58 -121 
94 61 76 -22 
-98 61 -43 20 
68 114 77 61 

126 40 -67 46 
123 81 94 73 
78 -60 24 -80 
107 -98 124 97 

-40 -104 105 -104 
-125 89 -60 -72 
-81 -2 69 -110 
96 -51 12 114 

-99 -106 -91 -38 
76 -97 72 -35 
72 -56 -48 76 
-47 -39 -13 65 

-50 29 -5 124 
-42 37 -16 -112 
-101 110 119 73 
-55 -99 -127 96 


-64 83 102 -39 
63 120 8 95 
97 -13 41 -9 
76 32 -118 -122 

9 -128 -31 118 
-47 -108 49 77 
-46 -94 -127 -56 
72 -40 123 45 

-98 -3 -60 -73 
118 -124 15 -123 
-122 -107 -100 33 
-72 35 23 -74 

-17 78 58 -121 
94 61 76 -22 
-98 61 -43 20 
68 114 77 61 

126 40 -67 46 
123 81 94 73 
78 -60 24 -80 
107 -98 124 97 

-40 -104 105 -104 
-125 89 -60 -72 
-81 -2 69 -110 
96 -51 12 114 

-99 -106 -91 -38 
76 -97 72 -35 
72 -56 -48 76 
-47 -39 -13 65 

-50 29 -5 124 
-42 37 -16 -112 
-101 110 119 73 
-55 -99 -127 96 


-64 83 102 -39 
63 120 8 95 
97 -13 41 -9 
76 32 -118 -122 

9 -128 -31 118 
-47 -108 49 77 
-46 -94 -127 -56 
72 -40 123 45 

