 50 -105 -45 51 
76 22 -62 85 
-53 -71 -23 50 
23 -1 50 12 

-20 -30 94 -105 
56 -112 -22 55 
118 -32 -108 -24 
-30 44 15 -68 

-15 -112 -110 -104 
-88 -82 83 53 
-121 -14 -31 -115 
117 14 111 60 

-108 100 106 -124 
-57 -119 28 64 
4 120 -22 38 
22 8 105 -28 

80 102 -30 -8 
40 -37 -33 -121 
-46 -30 -4 -109 
16 37 -56 120 

43 -8 -42 -82 
-74 -62 -40 124 
-102 -30 98 74 
-105 -34 61 -93 

50 -97 9 -74 
64 36 15 83 
7 -118 74 118 
-60 -128 97 39 

-93 113 -57 30 
-29 -3 -41 20 
-4 -94 120 56 
31 -99 -111 -32 


12 108 96 -109 
69 -110 41 -26 
-38 115 6 84 
0 -18 107 -3 

-56 52 10 42 
-67 54 103 127 
31 -69 -31 95 
-93 84 15 -3 

110 110 74 124 
40 -3 -105 -57 
-25 -26 -123 57 
-15 37 43 -84 

73 15 111 -99 
57 50 -80 -76 
43 -18 -25 24 
2 84 -116 -65 

62 112 117 -27 
2 40 -92 -15 
72 -92 -7 -23 
122 17 93 -2 

103 -100 56 34 
5 25 45 86 
-39 62 46 -55 
110 81 116 -68 

45 -42 -112 96 
-111 -13 43 59 
-2 43 -26 41 
77 44 -77 -84 

123 -35 -15 -15 
-119 -46 -74 -121 
-34 -104 124 -75 
-19 -116 96 -44 


62 -95 -84 -104 
-61 61 -93 108 
70 17 27 54 
61 -19 62 -67 

15 54 82 2 
65 -34 88 122 
29 -39 100 -124 
-113 36 -61 109 

64 17 -54 -59 
-15 -128 -122 -75 
92 43 80 -8 
-49 116 57 1 

96 122 -122 -61 
-107 98 -124 60 
-90 -23 -60 94 
-71 62 34 -32 

-19 56 60 -52 
-83 -112 114 -90 
54 -31 72 18 
108 -51 -110 47 

115 -76 -67 -60 
11 -108 -71 44 
-123 20 55 111 
4 45 24 118 

-83 -33 -26 98 
80 -78 -83 -44 
35 -98 -13 -36 
122 -20 -24 -44 

-88 -66 5 -37 
75 -57 -14 -18 
24 109 -65 113 
35 98 -119 -105 


-64 63 97 76 
83 120 -13 32 
102 8 41 -118 
-39 95 -9 -122 

9 -47 -46 72 
-128 -108 -94 -40 
-31 49 -127 123 
118 77 -56 45 

-98 118 -122 -72 
-3 -124 -107 35 
-60 15 -100 23 
-73 -123 33 -74 

-17 94 -98 68 
78 61 61 114 
58 76 -43 77 
-121 -22 20 61 

126 123 78 107 
40 81 -60 -98 
-67 94 24 124 
46 73 -80 97 

-40 -125 -81 96 
-104 89 -2 -51 
105 -60 69 12 
-104 -72 -110 114 

-99 76 72 -47 
-106 -97 -56 -39 
-91 72 -48 -13 
-38 -35 76 65 

-50 -42 -101 -55 
29 37 110 -99 
-5 -16 119 -127 
124 -112 73 96 


-119 82 -18 12 
-104 107 110 -45 
-62 -92 -89 -34 
55 79 -84 -76 

63 -100 -123 -44 
-32 104 18 23 
-26 -63 -91 88 
107 116 54 -33 

-117 -126 39 -56 
9 -92 -85 -39 
-91 7 54 -60 
-18 46 121 -85 

-89 -94 -45 -69 
69 -67 -52 -84 
-25 83 91 -120 
-90 120 -128 -13 

-22 -13 -94 -110 
120 72 -87 -111 
2 112 88 -71 
76 -55 -124 -39 

-99 -96 -10 34 
67 107 94 80 
74 -57 101 111 
75 -3 12 54 

18 118 10 118 
73 -103 115 11 
13 -118 -68 -11 
-30 -85 -119 -14 

47 -26 48 -91 
-46 46 -67 -44 
6 -11 -50 93 
48 -1 -35 -35 


2 -61 22 93 
-46 -118 65 74 
-55 -28 -49 88 
35 -19 57 46 

-61 -83 119 -24 
17 -8 66 -15 
30 11 -112 -84 
4 107 28 -47 

25 -3 120 93 
-66 -1 -127 77 
2 96 120 31 
-64 127 10 -14 

-108 -58 111 51 
-44 0 100 0 
-84 -55 -104 -12 
-109 74 -94 70 

-66 66 34 -103 
-15 13 65 108 
9 23 -39 51 
-73 -55 41 80 

32 -96 -26 127 
-114 -57 -105 96 
-92 -34 -57 -118 
-54 -42 -121 -25 

72 -122 60 -75 
-84 -2 101 -10 
68 5 -10 -61 
-54 57 16 31 

-86 121 -18 94 
103 59 98 52 
-37 -62 -95 -74 
-37 83 -41 12 


-77 -65 -89 118 
-7 73 72 63 
66 -107 -21 117 
24 85 -83 -7 

-34 -4 122 -67 
-79 -82 55 119 
60 101 -77 -53 
118 64 123 -29 

82 -101 -94 85 
-92 56 -12 5 
-104 43 4 64 
-63 -28 77 -91 

-80 -93 -89 57 
120 -64 -126 -76 
95 -26 -28 -114 
-103 74 -109 -58 

-39 71 -105 -28 
-96 -121 114 126 
-118 67 -34 -79 
112 38 -125 -87 

42 -8 106 -81 
30 -34 60 20 
-6 -72 -105 -54 
-96 -66 -12 42 

-42 -121 -22 -31 
-31 -62 -6 110 
-5 -84 -9 -47 
-48 43 -7 117 

-1 -33 18 -80 
102 -39 111 10 
55 -47 14 -38 
31 -67 124 -41 


97 64 38 34 
-120 -96 -82 -62 
79 117 17 98 
2 -84 -91 -108 

-76 73 0 22 
-89 -19 92 -9 
27 -69 93 89 
120 70 -48 -115 

-27 -67 48 123 
112 -30 -38 54 
-39 97 84 43 
85 124 -99 68 

85 -93 -59 92 
-122 111 125 -13 
-23 -96 -95 -117 
-66 -15 19 -27 

-97 -123 59 -25 
-116 51 -96 66 
-70 -3 -83 10 
-83 -67 -65 72 

31 -91 113 -35 
-11 31 -41 -122 
44 5 -123 125 
34 -56 -23 117 

-118 -99 -119 1 
60 -65 -2 -46 
100 -89 -24 72 
41 -103 -65 -21 

37 -26 51 28 
-5 4 -17 -35 
-12 -117 -47 -37 
47 -64 -37 -49 


